tree
version=v4
num_class=1
num_tree_per_iteration=1
label_index=0
max_feature_idx=19
objective=regression
feature_names=Column_0 Column_1 Column_2 Column_3 Column_4 Column_5 Column_6 Column_7 Column_8 Column_9 Column_10 Column_11 Column_12 Column_13 Column_14 Column_15 Column_16 Column_17 Column_18 Column_19
feature_infos=[-173.45858764648438:0] [-2.6962766647338867:0.61426252126693726] [0:1] [-3.2833209037780762:0.50022697448730469] [-200:0] [-50:0] [-50:0] [-19.457475662231445:-10.691763877868652] [-5:5] [-5:5] [-1.5523480176925659:5] [-1:1] [-24147418:0] none [-1:0] [-1:0] [-0.8889005184173584:0.86993741989135742] [0:1] [-100:100] [-86.78399658203125:100]
tree_sizes=3030 3219 3227 3184 3223 3218 3203 3203 3223 3210 3215 3218 3195 3215 3235 3206 3188 3200 3231 3224 3202 3229 3235 3186 3228 3187 3208 3199 3199 3231 3215 3204 3232 3172 3235 3222 3241 3264 3218 3201 3225 3226 3206 3195 3175 3243 3211 3227 3242 3229 3262 3204 3234 3230 3211 3208 3213 3195 3258 3237 3214 3233 3213 3206 3236 3218 3205 3255 3231 3208 3223 3228 3247 3196 3247 3254 3182 3188 3229 3200 3229 3218 3244 3248 3240 3250 3244 3210 3261 3246 3232 3234 3243 3240 3255 3238 3208 3224 3250 3186 3243 3212 3183 3243 3236 3266 3277 3212 3248 3202 3254 3239 3235 3226 3235 3172 3234 3179 3217 3164 3244 3225 3272 3228 3196 3226 3204 3168 3186 3215 3259 3222 3232 3253 3238 3141 3239 3196 3263 3249 3185 3248 3154 3168 3154 3236 3199 3208 3205 3186 3246 3229 3236 3233 3201 3247 3227 3233 3221 3199 3201 3234 3239 3198 3257 3249 3248 3259 3189 3240 3220 3223 3195 3138 3172 3217 3180 3192 3227 3197 3113 3238 3258 3192 3251 3230 3174 3200 3153 3198 3146 3184 3160 3245 3235 3171 3244 3221 3275 3222 3222 3134 3173 3235 3205 3231 3232 3218 3211 3265 3239 3224 3211 3264 3246 3204 3178 3271 3164 3192 3191 3217 3049 3151 3162 3146 3145 3235 3084 3167 3200 3208 3225 3215 3186 3188 3187 3269 3202 3178 3231 3149 3159 3183 3215 3245 3223 3231 3219 3261 3215 3234 3148 3237 3222 3207 3215 3228 3191 3162 3235 3188 3225 3181 3220 3178 3237 3224 3142 3038 3234 3232 3222 3218 3206 3187 3207 3194 3201 3179 3224 3219 3140 3216 3175 3134 3145 3214 3236 3219 3190 3210 3236 3183 3229 3179 3162 3192 3197 3251

Tree=0
num_leaves=31
num_cat=0
split_feature=1 16 1 17 1 16 0 19 7 12 18 17 16 15 1 16 15 1 7 12 7 1 18 7 0 7 12 11 0 2
split_gain=608.785 316.916 130.755 113.336 102.398 86.0077 90.7669 79.2655 78.1698 43.7667 36.7935 35.6824 32.0186 36.7443 29.8632 28.7198 29.8041 26.2383 24.046 21.0172 20.3063 16.3233 18.9146 14.6488 14.3724 13.4028 12.5592 11.712 11.2964 10.8807
threshold=0.093583535403013243 -0.36717289686202997 -0.072248887270688997 0.066920157521963133 0.14274609833955768 1.0000000180025095e-35 -2.7936079502105708 2.0249999761581425 -12.880053997039793 -195292.84374999997 -23.945000648498532 0.15157840400934222 1.0000000180025095e-35 -0.069617036730051027 -0.1586002632975578 1.0000000180025095e-35 -0.026113678701221939 0.050918098539114005 -14.355086803436278 -179522.39843749997 -12.256563663482664 -0.12570912390947339 26.675000190734867 -13.494500637054442 -3.4373056888580318 -13.878176689147947 -678025.78124999988 0.045206999406218536 -3.012189388275146 0.71070984005928051
decision_type=2 2 2 2 2 2 2 2 2 2 2 2 2 2 2 2 2 2 2 2 2 2 2 2 2 2 2 2 2 2
left_child=1 3 11 14 12 8 18 10 17 -5 29 21 19 24 25 -12 -17 -4 -7 -2 -10 22 -3 -9 -14 -1 -16 -11 -25 -6
right_child=4 2 5 9 7 6 -8 23 20 27 15 -13 13 -15 26 16 -18 -19 -20 -21 -22 -23 -24 28 -26 -27 -28 -29 -30 -31
leaf_value=0.49853039509207958 0.50101868040046538 0.49825474083954302 0.50028243511282466 0.49939794687984479 0.49693832575114993 0.50157184584987902 0.50092313507123531 0.50324625294891923 0.50075803645156558 0.50037301953586533 0.50320622300388251 0.50040333195352837 0.50590156354269189 0.501095411044718 0.4977463111326127 0.50606817653412051 0.50202678606161388 0.50085344701647627 0.50332400907322405 0.50219236127030809 0.50125507427022842 0.49946552918595266 0.5013651092617476 0.51105817670778864 0.50345963155819695 0.49659770728058816 0.4989819989524954 0.49983464151338258 0.50441484424293004 0.50178827088864886
leaf_weight=4876 24640 23207 589237 132934 861 10637 109418 331 268349 86672 19902 26207 2810 5709 9123 7684 2118 82543 21302 31286 102324 40734 1889 1819 10261 10057 41274 62860 283 793
leaf_count=4876 24640 23207 589237 132934 861 10637 109418 331 268349 86672 19902 26207 2810 5709 9123 7684 2118 82543 21302 31286 102324 40734 1889 1819 10261 10057 41274 62860 283 793
internal_value=0.500482 0.500336 0.500555 0.499533 0.502657 0.50064 0.501334 0.504028 0.500546 0.499794 0.503622 0.499466 0.502037 0.50311 0.498407 0.503865 0.505198 0.500353 0.502741 0.501676 0.500895 0.499093 0.49849 0.509251 0.503987 0.497227 0.498758 0.500146 0.51018 0.499281
internal_weight=1.73214e+06 1.62364e+06 1.27585e+06 347796 108497 1.18381e+06 141357 33791 1.04245e+06 282466 31358 92037 74706 18780 65330 29704 9802 671780 31939 55926 370673 65830 25096 2433 13071 14933 50397 149532 2102 1654
internal_count=1732140 1623643 1275847 347796 108497 1183810 141357 33791 1042453 282466 31358 92037 74706 18780 65330 29704 9802 671780 31939 55926 370673 65830 25096 2433 13071 14933 50397 149532 2102 1654
is_linear=0
shrinkage=1


Tree=1
num_leaves=31
num_cat=0
split_feature=3 16 16 3 16 0 5 12 7 5 2 5 12 7 3 5 0 3 12 5 19 0 0 0 3 12 7 2 7 16
split_gain=360.847 276.591 133.843 153.734 91.0841 102.705 75.7048 68.7973 65.7502 62.4379 47.8926 40.6834 39.4174 34.2002 32.739 27.8225 27.578 26.2784 24.2798 22.5059 21.0336 18.2312 18.0565 15.7997 15.6057 15.2416 14.8655 14.0364 13.1952 13.0454
threshold=0.049337500706315048 -0.36717289686202997 -0.19657104462385175 0.13818800449371341 1.0000000180025095e-35 -2.7488017082214351 -1.9624499678611753 -195292.84374999997 -12.756436347961424 -2.0688500404357906 0.87387639284133922 -2.1401499509811397 -295748.98437499994 -13.848926067352293 0.10131599754095079 -3.0926500558853145 -4.5956563949584952 -0.16108699887990949 -73673.101562499985 -1.1202500462532041 1.6769999861717226 -4.9226300716400138 -4.0321290493011466 -4.2997581958770743 -0.15099850296974179 -604659.78124999988 -14.147304058074949 0.86621606349945079 -13.878176689147947 -0.59925964474678028
decision_type=2 2 2 2 2 2 2 2 2 2 2 2 2 2 2 2 2 2 2 2 2 2 2 2 2 2 2 2 2 2
left_child=1 7 12 9 8 10 16 17 11 -4 13 21 -2 -6 -11 24 -5 28 -13 -7 23 -3 -17 -8 -10 26 -19 -14 -1 -9
right_child=2 4 3 6 5 19 20 29 15 14 -12 18 27 -15 -16 22 -18 25 -20 -21 -22 -23 -24 -25 -26 -27 -28 -29 -30 -31
leaf_value=-0.001754815398525959 -0.0004550073298981181 -0.0016036357856114923 0.00062337645814938164 0.00010275002371310771 0.0014450651370612976 -5.4297485497414127e-05 0.0025755123076226191 -0.0010326115215740566 -0.0025743470783101919 0.0015898600599624476 0.0010930644211647846 -0.00017570926587190269 0.0010942237298684663 0.0042136970359439793 0.0034614662957113845 0.0014534402941243666 0.0032444646176762438 -0.0013839607641348026 0.00033423906589130929 0.00099615565269133618 0.010418148754836635 -0.00043826658879144586 0.00041050603871366367 0.0060665245037662043 -6.8873497217889341e-05 -0.0011610868155027183 -0.0027474503203590963 0.00017097504218103514 -0.0036903092709137338 -0.00038580665678164159
leaf_weight=6255 48142 12616 79452 3526 6280 67544 1442 37387 2294 53156 20514 296587 34333 11339 10039 16215 8943 18294 117235 25182 871 297319 194431 6992 91196 105856 12037 26229 6618 113816
leaf_count=6255 48142 12616 79452 3526 6280 67544 1442 37387 2294 53156 20514 296587 34333 11339 10039 16215 8943 18294 117235 25182 871 297319 194431 6992 91196 105856 12037 26229 6618 113816
internal_value=1.62434e-06 -0.000185704 0.00100242 0.00154243 2.45359e-05 0.000770004 0.00389094 -0.000997141 -7.03395e-05 0.00118371 0.00208066 -0.0002259 0.000185349 0.0032287 0.0018877 0.000299751 0.00235853 -0.00145462 -3.11689e-05 0.000230663 0.00594072 -0.000485805 0.000490937 0.00547358 -0.000130699 -0.00133171 -0.00192613 0.000694876 -0.00275239 -0.000545942
internal_weight=1.73214e+06 1.45902e+06 273125 164421 1.15875e+06 130859 21774 300263 1.02789e+06 142647 38133 723757 108704 17619 63195 304136 12469 149060 413822 92726 9305 309935 210646 8434 93490 136187 30331 60562 12873 151203
internal_count=1732140 1459015 273125 164421 1158752 130859 21774 300263 1027893 142647 38133 723757 108704 17619 63195 304136 12469 149060 413822 92726 9305 309935 210646 8434 93490 136187 30331 60562 12873 151203
is_linear=0
shrinkage=0.03


Tree=2
num_leaves=31
num_cat=0
split_feature=1 1 16 1 19 16 0 3 12 17 3 18 12 11 3 0 14 18 15 0 11 18 1 18 1 3 16 0 17 1
split_gain=552.673 276.27 170.446 123.524 72.8833 60.4721 64.3778 59.7425 58.2486 52.292 45.4205 43.9187 42.8368 42.5305 42.0428 33.108 28.4684 24.8288 22.4882 22.3668 20.6303 20.2312 20.3643 18.0279 17.9927 15.9757 12.8307 24.8223 12.3463 11.811
threshold=0.082722667604684844 -0.094596892595291124 -0.2922650277614593 0.14274609833955768 2.0249999761581425 1.0000000180025095e-35 -2.7206875085830684 0.13818800449371341 -268947.34374999994 0.11265076696872713 -0.04121850058436393 -23.945000648498532 -171074.22656249997 0.023803499527275566 0.065976500511169447 -4.1047210693359366 -1.0000000180025095e-35 -16.704999923706051 -0.17181420326232907 -4.2997581958770743 0.02711450029164553 12.795000076293947 -0.17078319191932675 14.565000057220461 -0.014634786639362572 0.035284500569105155 0.0015509876538999381 -3.028716921806335 0.078552819788455977 0.18519944697618487
decision_type=2 2 2 2 2 2 2 2 2 2 2 2 2 2 2 2 2 2 2 2 2 2 2 2 2 2 2 2 2 2
left_child=1 9 8 10 7 12 24 -5 -3 17 -2 -9 16 -14 26 -16 -4 -1 -17 -13 28 22 -19 -11 -7 -8 -12 -28 -10 -6
right_child=3 2 5 4 29 6 25 11 20 23 14 19 13 -15 15 18 -18 21 -20 -21 -22 -23 -24 -25 -26 -27 27 -29 -30 -31
leaf_value=-0.0047596685299077105 0.0047201333568071885 -0.0011198351091952334 -0.00023568623077557137 0.001623003052548151 0.0059451700277714497 0.00083632126516051443 0.00014159658641969307 -0.0011986917097302091 -0.00088269637482594023 -0.00082957339916958314 0.00024759215162697458 0.002930841251821322 0.00041162773906411169 -4.7668387725934046e-05 0.00022515358550857036 0.0027243750084837391 -0.0020612453019257103 -0.0028591456643972703 0.0014363492023624482 0.0054610433350727869 -0.00059124207758549561 -0.00074569679154707193 -0.0017285321410725133 0.0014717569288506193 0.0023406007355986479 0.00099837721489861838 0.0038187490482810013 0.00033565117797890512 6.0343881315556044e-05 0.010267297950664497
leaf_weight=2833 3389 126837 221687 15069 1068 10467 76848 1223 14138 32050 36469 4589 345998 381322 11158 23009 7969 21458 26314 10477 132326 11809 44144 3378 23138 26339 2858 5236 107175 1365
leaf_count=2833 3389 126837 221687 15069 1068 10467 76848 1223 14138 32050 36469 4589 345998 381322 11158 23009 7969 21458 26314 10477 132326 11809 44144 3378 23138 26339 2858 5236 107175 1365
internal_value=1.57699e-06 -0.00015868 -4.78866e-05 0.00179328 0.00337758 0.000142344 0.000732366 0.00298781 -0.000594827 -0.00157048 0.00129926 0.00424838 5.7973e-05 0.000170785 0.00118857 0.00170394 -0.000299172 -0.00199447 0.00203786 0.0046926 -0.000332165 -0.00189282 -0.00209884 -0.000609263 0.00187299 0.000360592 0.000488405 0.00156956 -4.93185e-05 0.00838559
internal_weight=1.73214e+06 1.58992e+06 1.47424e+06 142224 33791 1.09377e+06 136792 31358 380476 115672 108433 16289 956976 727320 105044 60481 229656 80244 49323 15066 253639 77411 65602 35428 33605 103187 44563 8094 121313 2433
internal_count=1732140 1589916 1474244 142224 33791 1093768 136792 31358 380476 115672 108433 16289 956976 727320 105044 60481 229656 80244 49323 15066 253639 77411 65602 35428 33605 103187 44563 8094 121313 2433
is_linear=0
shrinkage=0.03


Tree=3
num_leaves=31
num_cat=0
split_feature=1 1 16 3 1 5 3 17 5 0 5 17 11 19 0 16 1 15 1 19 1 0 0 3 3 2 11 16 7 7
split_gain=520.705 273.336 171.382 92.4293 88.7025 66.0509 59.0309 55.0534 44.3718 56.7262 42.0925 33.9572 29.7969 28.5482 31.8695 26.9192 25.4849 19.4906 20.0129 18.7563 23.0913 21.1862 16.136 15.8564 15.6212 15.4905 15.4362 14.5249 13.3771 13.2081
threshold=0.10217882692813875 -0.085844326764345155 -0.24541586637496945 0.12188749760389329 0.056476116180419929 -1.9230499863624571 -0.04121850058436393 0.11265076696872713 -2.9515500068664546 -2.9173097610473628 -2.0025500059127803 0.17125787585973742 0.028065999969840053 1.9309999942779543 -3.7256569862365718 -0.103399820625782 -0.17078319191932675 -0.053763467818498605 0.22000194340944293 -3.5770000219345088 0.22000194340944293 -4.2997581958770743 -2.7206875085830684 -0.040339000523090356 0.065976500511169447 0.93962308764457714 0.046982500702142722 -0.48063926398754114 -13.610979557037352 -13.635592460632322
decision_type=2 2 2 2 2 2 2 2 2 2 2 2 2 2 2 2 2 2 2 2 2 2 2 2 2 2 2 2 2 2
left_child=1 7 11 13 8 19 22 16 26 -10 -8 -3 -13 23 -15 -7 25 -17 -19 21 -21 -5 -6 29 -25 28 -4 -14 -1 -2
right_child=3 2 4 5 6 15 10 -9 9 -11 -12 12 27 14 -16 17 -18 18 -20 20 -22 -23 -24 24 -26 -27 -28 -29 -30 -31
leaf_value=-0.0022074284880671592 -2.0101872578815382e-05 -0.00094681502478639759 -3.4188723714386703e-05 0.00024361847054727478 0.0046164488415979628 0.0030198045613252251 0.00030712914271639437 -0.00053620823949326684 0.00089847891996877431 0.0001167918159424226 0.0014003399498343479 -3.646661990633228e-05 -0.00096065558395467643 0.0068848448818306148 0.0012349128449451699 0.0072477843249940943 -0.0015004720500132942 0.0034335940795615217 0.007894421107786426 0.0030040218721724739 0.0088746051282192085 0.0026649038591450595 -0.00071093598767084636 0.00061545186242077416 0.001688902307928349 -0.0021600038947998876 -0.00050662659163095011 -0.00040470878957982447 -0.0048558406564196081 0.0056400593069221832
leaf_weight=2939 500 110533 148293 4910 4712 4109 70085 44402 98044 566305 58009 156601 64875 1823 1802 5034 64974 3666 1227 2819 779 9803 563 21591 28398 19750 107452 122485 4328 1329
leaf_count=2939 500 110533 148293 4910 4712 4109 70085 44402 98044 566305 58009 156601 64875 1823 1802 5034 64974 3666 1227 2819 779 9803 563 21591 28398 19750 107452 122485 4328 1329
internal_value=1.53328e-06 -0.000118635 -2.28944e-06 0.00225266 0.000207761 0.00352776 0.000930835 -0.00140472 0.000102916 0.000232199 0.000802445 -0.000489226 -0.000342088 0.00150815 0.00408563 0.00507796 -0.0018236 0.00592646 0.00455973 0.00233763 0.00428551 0.00185899 0.00404214 0.00132718 0.00122588 -0.00259949 -0.000232803 -0.000597374 -0.00378932 0.00407716
internal_weight=1.73214e+06 1.64435e+06 1.50796e+06 87790 1.05346e+06 32347 133369 136393 920094 664349 128094 454494 343961 55443 3625 14036 91991 9927 4893 18311 3598 14713 5275 51818 49989 27017 255745 187360 7267 1829
internal_count=1732140 1644350 1507957 87790 1053463 32347 133369 136393 920094 664349 128094 454494 343961 55443 3625 14036 91991 9927 4893 18311 3598 14713 5275 51818 49989 27017 255745 187360 7267 1829
is_linear=0
shrinkage=0.03


Tree=4
num_leaves=31
num_cat=0
split_feature=3 16 16 3 17 16 0 15 7 5 5 17 12 12 12 3 5 17 12 5 0 15 5 0 12 15 12 17 12 12
split_gain=311.042 236.095 113.812 127.573 80.9636 79.5974 90.8386 65.9709 59.3231 56.2972 42.011 41.083 36.2135 34.481 33.305 28.3624 26.0724 25.3468 33.7671 24.3949 23.2061 21.1385 21.0266 20.3129 20.008 14.6424 19.6205 13.6666 13.1223 12.9171
threshold=0.049337500706315048 -0.36717289686202997 -0.19657104462385175 0.13818800449371341 0.051865147426724441 1.0000000180025095e-35 -2.7488017082214351 -0.049607696011662476 -12.756436347961424 -2.0688500404357906 -2.8050500154495235 0.28042462468147283 -256603.25781249997 -62813.367187499993 -177363.57812499997 0.10131599754095079 -1.9624499678611753 0.23475136607885363 -32028.297851562496 -2.7233000993728633 -2.8864760398864742 -0.057503834366798394 -1.1202500462532041 -3.4580142498016353 -286357.01562499994 -0.17181420326232907 -50752.658203124993 0.007637476548552514 -322476.90624999994 -75487.953124999985
decision_type=2 2 2 2 2 2 2 2 2 2 2 2 2 2 2 2 2 2 2 2 2 2 2 2 2 2 2 2 2 2
left_child=1 4 12 9 27 8 10 19 11 25 -7 13 -2 -3 -6 -11 29 18 -10 -5 -13 -17 -8 -19 -12 -4 -27 -1 -21 -9
right_child=2 5 3 7 14 6 22 16 17 15 24 20 -14 -15 -16 21 -18 23 -20 28 -22 -23 -24 -25 -26 26 -28 -29 -30 -31
leaf_value=-0.0030717815508348565 -0.00036784484893480064 -0.00079704502943708279 0.0012499218403690176 0.0031786323139149355 -0.0010514582423217526 0.00079358199885463628 -6.3986763431398848e-05 4.6228664851684752e-05 -0.0003079792067675613 0.0014930030915233212 0.0012972276898310343 0.00058514112728449248 0.00072710068403323506 -0.00016130830730567554 -0.00036006471856755268 0.0045672232157341706 0.0040604829242409622 0.0021174387232711272 0.00047290464431783987 0.00381724877639808 -0.00010325146003464705 0.0017977350853434705 0.00095136219448195645 0.00054198506760485068 0.003358607553074832 -0.00020121677458704473 0.00089829738250835317 -0.0017917298120988551 0.0073909373269451014 0.0023804597870605839
leaf_weight=9373 54568 152940 20989 2621 124966 16257 67544 4173 98752 53156 5835 50098 54136 154486 126215 5199 4584 7990 100582 1200 366233 4840 25182 96812 16041 30456 28007 39709 4773 4423
leaf_count=9373 54568 152940 20989 2621 124966 16257 67544 4173 98752 53156 5835 50098 54136 154486 126215 5199 4584 7990 100582 1200 366233 4840 25182 96812 16041 30456 28007 39709 4773 4423
internal_value=1.49014e-06 -0.000172429 0.000930661 0.00142863 -0.000922115 2.18092e-05 0.000718689 0.00356807 -6.68806e-05 0.00110182 0.00195132 -0.000214644 0.000177178 -0.000477677 -0.000704165 0.0017703 0.00223059 0.000284654 8.58971e-05 0.00561527 -2.03424e-05 0.0032353 0.00021144 0.000662401 0.00281023 0.000569732 0.000325004 -0.00203685 0.00667875 0.00125091
internal_weight=1.73214e+06 1.45902e+06 273125 164421 300263 1.15875e+06 130859 21774 1.02789e+06 142647 38133 723757 108704 307426 251181 63195 13180 304136 199334 8594 416331 10039 92726 104802 21876 79452 58463 49082 5973 8596
internal_count=1732140 1459015 273125 164421 300263 1158752 130859 21774 1027893 142647 38133 723757 108704 307426 251181 63195 13180 304136 199334 8594 416331 10039 92726 104802 21876 79452 58463 49082 5973 8596
is_linear=0
shrinkage=0.03


Tree=5
num_leaves=31
num_cat=0
split_feature=1 16 1 1 17 19 16 12 3 5 5 5 14 12 3 17 3 3 3 11 5 1 12 12 18 12 7 15 11 1
split_gain=473.037 226.361 109.724 96.7119 79.8781 64.5816 56.6112 56.9604 52.9207 49.8199 39.0086 36.3813 34.5046 32.8528 29.9896 28.5723 24.193 23.6965 21.5144 20.9945 19.4202 18.5031 17.6629 17.1214 16.6746 15.3189 14.8607 14.051 12.0292 11.5977
threshold=0.079301446676254286 -0.36717289686202997 0.13448686152696612 -0.072248887270688997 0.051865147426724441 2.3029999732971196 1.0000000180025095e-35 -111678.00781249999 0.13818800449371341 -1.7297499775886533 -2.8453500270843501 -2.4897500276565547 -1.0000000180025095e-35 -235328.14843749997 -0.1070904992520809 0.12019718810915948 -0.056117998436093323 -0.033143000677227967 0.080539997667074217 0.0062235000077635058 -1.321850001811981 -0.18747624754905698 -77267.460937499985 -64470.339843749993 -32.42499923706054 -334358.24999999994 -13.564637660980223 -0.029923312366008755 0.034655999392271049 -0.0058058178983628741
decision_type=2 2 2 2 2 2 2 2 2 2 2 2 2 2 2 2 2 2 2 2 2 2 2 2 2 2 2 2 2 2
left_child=1 4 9 15 21 8 7 12 -4 16 -9 24 -5 -6 29 23 -2 -11 -19 -13 -16 -1 27 -3 -10 -20 -7 -18 -15 -8
right_child=2 3 5 6 13 26 14 10 11 17 -12 19 -14 28 20 -17 22 18 25 -21 -22 -23 -24 -25 -26 -27 -28 -29 -30 -31
leaf_value=-0.0030908807634014838 0.0043967325984284565 -0.0017103740525656992 0.0015482596944967598 -0.00017999351007316812 -0.0010436807157922173 0.0016659807321281195 0.0014608595867646383 -0.00011479267993972702 -0.0043831734809812702 0.0056449240066315711 0.00038925849026225085 0.0030880430813333692 -0.0014569139007671078 -0.00014029925103814021 0.00036579914598699255 -0.00014067750538377925 0.00049148958665688161 0.001213046631014089 0.00092030561617939088 0.0058928923415044092 0.0011461030932905522 -0.0016431385481042694 0.0012209540590596415 -0.00070236787282957952 0.0024688678837528639 0.0032184634936737611 0.0084327887865269981 -0.00084095300065244996 -0.00064036053824529596 0.0054391501172255429
leaf_weight=9833 1538 34823 20117 381573 111896 350 1160 210508 331 1551 401756 3770 20055 89061 85587 30015 40568 20600 3405 6930 43333 42944 26338 27105 7006 11788 2224 8626 84600 1610
leaf_count=9833 1538 34823 20117 381573 111896 350 1160 210508 331 1551 401756 3770 20055 89061 85587 30015 40568 20600 3405 6930 43333 42944 26338 27105 7006 11788 2224 8626 84600 1610
internal_value=2.25354e-06 -0.000153335 0.00158284 3.46421e-05 -0.000840988 0.00292048 0.000109799 3.37627e-05 0.00260885 0.00110639 0.000215907 0.00378993 -0.000243834 -0.000642655 0.000694974 -0.000901451 0.000670027 0.0020061 0.00184743 0.00490783 0.000628317 -0.00191349 0.000593688 -0.00126969 0.0021551 0.00270548 0.00752533 0.000257228 -0.000384082 0.00378511
internal_weight=1.731e+06 1.57586e+06 155142 1.23752e+06 338334 40728 1.14558e+06 1.01389e+06 38154 114414 612264 18037 401628 285557 131690 91943 77070 37344 35793 10700 128920 52777 75532 61928 7337 15193 2574 49194 173661 2770
internal_count=1731001 1575859 155142 1237525 338334 40728 1145582 1013892 38154 114414 612264 18037 401628 285557 131690 91943 77070 37344 35793 10700 128920 52777 75532 61928 7337 15193 2574 49194 173661 2770
is_linear=0
shrinkage=0.03


Tree=6
num_leaves=31
num_cat=0
split_feature=1 1 16 1 19 5 0 3 12 5 12 3 17 18 5 7 18 1 16 3 18 3 3 18 18 1 3 0 16 3
split_gain=445.245 216.521 135.944 99.1178 61.0323 52.0815 65.9899 49.4625 47.1137 45.5536 45.0246 40.6029 38.041 34.8387 32.173 29.9001 22.6626 25.5048 22.1845 21.6187 17.872 17.7325 20.1006 17.6335 17.4769 16.5451 16.4786 15.7721 13.1931 13.3403
threshold=0.08096895739436151 -0.094596892595291124 -0.28905621170997614 0.13448686152696612 1.8429999947547915 -2.0548499822616573 -2.9173097610473628 0.13818800449371341 -268947.34374999994 -1.7297499775886533 -286357.01562499994 0.042469000443816192 0.12019718810915948 -32.42499923706054 -1.9359499812126157 -12.483595371246336 11.894999980926515 -0.18747624754905698 -0.27613946795463556 -0.051263500005006783 -9.9650001525878888 -0.027127499692142006 0.10131599754095079 35.924999237060554 16.175000190734867 0.18519944697618487 0.042469000443816192 -4.0681135654449454 -0.59311464428901661 0.035284500569105155
decision_type=2 2 2 2 2 2 2 2 2 2 2 2 2 2 2 2 2 2 2 2 2 2 2 2 2 2 2 2 2 2
left_child=1 12 8 9 7 15 10 -5 -3 19 -7 -8 16 -9 -15 23 17 20 -11 -2 -1 -20 -23 -4 -14 -6 -21 -28 -10 -30
right_child=3 2 5 4 25 6 11 13 28 18 -12 -13 24 14 -16 -17 -18 -19 21 26 -22 22 -24 -25 -26 -27 27 -29 29 -31
leaf_value=-0.0049135265783668228 0.0040685441519567678 -0.0010039804079663237 -0.00023196262200067476 0.0014724237521668614 0.0047615256743959991 3.8114088610292255e-05 9.7200934749431414e-05 -0.0023761566229245044 -0.0007865517884210791 0.00062966164828927123 0.0015690322468762668 0.00099034356772897459 -0.000752895029431444 0.0027674455714846724 0.0053979460199439395 0.00034073136415138769 -0.00059433892116149683 -0.0016139122189068051 0.0055540771203811791 -0.00017163904991558562 -0.0024770023399969953 0.0017094601886169232 0.0036502837607539371 0.0034707747481377985 0.0017320748663833187 0.0093122778369709811 -0.00018157143999216334 0.0011205472003577024 -0.00031850909811977475 0.00028032341524636547
leaf_weight=3352 1646 127359 391695 19857 1528 24825 448475 817 41642 8358 57269 51038 30995 9479 7608 108920 12986 50301 1530 18828 14998 18688 6529 1159 2768 1439 10405 42056 172988 41463
leaf_count=3352 1646 127359 391695 19857 1528 24825 448475 817 41642 8358 57269 51038 30995 9479 7608 108920 12986 50301 1530 18828 14998 18688 6529 1159 2768 1439 10405 42056 172988 41463
internal_value=2.18857e-06 -0.000145328 -4.68719e-05 0.00157131 0.00283297 0.000124927 0.000318141 0.00250607 -0.000532338 0.0010954 0.00110646 0.00018852 -0.00139652 0.00365064 0.00394068 -9.89685e-05 -0.00174697 -0.00196455 0.00198374 0.000667387 -0.00292396 0.0024057 0.00221328 -0.000220954 -0.000548235 0.00698115 0.00058838 0.000861717 -0.000297663 -0.000202587
internal_weight=1.731e+06 1.58223e+06 1.46683e+06 148768 40728 1.08338e+06 581607 37761 383452 108040 82094 499513 115400 17904 17087 501774 81637 68651 35105 72935 18350 26747 25217 392854 33763 2967 71289 52461 256093 214451
internal_count=1731001 1582233 1466833 148768 40728 1083381 581607 37761 383452 108040 82094 499513 115400 17904 17087 501774 81637 68651 35105 72935 18350 26747 25217 392854 33763 2967 71289 52461 256093 214451
is_linear=0
shrinkage=0.03


Tree=7
num_leaves=31
num_cat=0
split_feature=1 1 16 1 5 16 0 12 5 7 3 5 18 1 5 16 3 18 18 5 3 3 1 12 11 5 18 16 0 15
split_gain=419.247 203.159 130.241 97.0312 51.6784 49.8074 52.3181 47.0021 44.163 43.5438 41.9369 32.2802 30.9761 30.6466 22.4222 21.6433 21.5631 21.1915 20.6496 19.4487 18.3202 19.8485 18.1476 16.4115 16.2349 16.1986 15.4841 14.488 20.9826 13.2225
threshold=0.079301446676254286 -0.10144053772091864 -0.28905621170997614 0.13448686152696612 -2.6041499376296993 1.0000000180025095e-35 -2.7936079502105708 -268947.34374999994 -1.7297499775886533 -12.709499835968016 0.16294299811124804 -2.0548499822616573 13.914999961853029 -0.18747624754905698 -1.2092500329017637 -0.27613946795463556 -0.056117998436093323 -9.5850000381469709 -17.005000114440914 -3.3049499988555904 -0.029046500101685521 0.087991498410701766 0.22000194340944293 -77267.460937499985 0.026701499707996849 -2.8649500608444209 -32.42499923706054 -0.23063092678785321 -3.5022603273391719 -0.029923312366008755
decision_type=2 2 2 2 2 2 2 2 2 2 2 2 2 2 2 2 2 2 2 2 2 2 2 2 2 2 2 2 2 2
left_child=1 12 7 8 26 9 19 -3 16 11 27 -4 13 17 -8 -10 -2 -1 -12 -7 -17 -22 -20 29 -9 -11 -5 -6 -29 -18
right_child=3 2 5 4 10 6 14 24 15 25 18 -13 -14 -15 -16 20 23 -19 22 -21 21 -23 -24 -25 -26 -27 -28 28 -30 -31
leaf_value=-0.0044367187064238978 0.0041496762709311279 -0.0009926115555433893 -0.00032929973714097897 -0.004246197218835822 0.001066586563699363 0.00068668476487134455 3.1401575765484057e-05 -4.2133076852343043e-05 0.0005883253795463697 4.2476002471386713e-05 0.0014342998380300694 8.9812341556160755e-05 -8.509077125752757e-05 -0.0013053132341317639 0.00098256232774207065 0.005463143142874223 0.0004620249890263542 -0.0021310366218353517 0.0048271702523268239 0.0022717419098188026 0.0014933672943907514 0.0031966246169549337 0.0079672481103543816 0.0011637252390095231 -0.00051764858289820421 0.00052296691464868246 0.0016619682272171806 0.0049019921161483349 0.0021653242891032406 -0.00083056064190416008
leaf_weight=4467 1538 129465 293155 405 3733 10643 71318 122921 8847 97591 1088 379334 13295 65390 32502 1561 40568 19013 5015 20527 17253 9683 2561 26338 136586 179652 17271 4219 6436 8626
leaf_count=4467 1538 129465 293155 405 3733 10643 71318 122921 8847 97591 1088 379334 13295 65390 32502 1561 40568 19013 5015 20527 17253 9683 2561 26338 136586 179652 17271 4219 6436 8626
internal_value=2.12663e-06 -0.000144348 -5.46401e-05 0.00149013 0.00274806 0.000114223 0.000653445 -0.000525622 0.00104207 3.75481e-05 0.00368474 -9.28448e-05 -0.00143805 -0.00164011 0.000329469 0.00188918 0.000631189 -0.00257113 0.00533723 0.00173153 0.00229195 0.00210687 0.00589352 0.000559093 -0.000292527 0.000353941 0.00152467 0.00268728 0.00325212 0.000234752
internal_weight=1.731e+06 1.57586e+06 1.47369e+06 155142 40728 1.08472e+06 134990 388972 114414 949732 23052 672489 102165 88870 103820 37344 77070 23480 8664 31170 28497 26936 7576 75532 259507 277243 17676 14388 10655 49194
internal_count=1731001 1575859 1473694 155142 40728 1084722 134990 388972 114414 949732 23052 672489 102165 88870 103820 37344 77070 23480 8664 31170 28497 26936 7576 75532 259507 277243 17676 14388 10655 49194
is_linear=0
shrinkage=0.03


Tree=8
num_leaves=31
num_cat=0
split_feature=1 16 3 1 17 16 12 1 18 3 14 11 18 12 14 12 3 17 3 16 17 12 14 7 12 12 1 16 11 3
split_gain=394.717 195.475 87.8884 83.1919 70.5762 52.0543 52.5263 48.2527 49.0451 42.9872 34.4563 30.6965 29.4779 27.8403 29.0437 27.8312 27.5655 25.1975 17.9558 16.8064 15.9418 15.5939 14.2352 13.4787 13.1106 11.4557 10.8707 10.8552 10.8281 10.8248
threshold=0.082722667604684844 -0.36717289686202997 0.10556399822235109 -0.072248887270688997 0.051865147426724441 1.0000000180025095e-35 -111678.00781249999 0.18519944697618487 -23.01500034332275 -0.037754500284790986 -1.0000000180025095e-35 0.023803499527275566 1.3350000381469729 -225604.21874999997 -0.078016053885221467 -235328.14843749997 -0.1070904992520809 0.12019718810915948 0.061727998778223998 -0.11267573013901709 0.007637476548552514 -73673.101562499985 -0.062213137745857232 -13.635592460632322 -264793.48437499994 -72042.800781249985 -0.0058058178983628741 1.0000000180025095e-35 0.034655999392271049 0.16294299811124804
decision_type=2 2 2 2 2 2 2 2 2 2 2 2 2 2 2 2 2 2 2 2 2 2 2 2 2 2 2 2 2 2
left_child=1 4 9 17 20 6 10 13 -9 23 -5 -8 29 -4 19 -6 26 21 27 -15 -1 -3 -18 -2 -20 -16 -7 -11 -17 -10
right_child=2 3 7 5 15 16 11 8 12 18 -12 -13 -14 14 25 28 22 -19 24 -21 -22 -23 -24 -25 -26 -27 -28 -29 -30 -31
leaf_value=-0.0028581825054104387 0.00091709830962698007 -0.0016358716837433088 0.0009731337975612738 -0.00016502777957588916 -0.0009517799517999245 0.0013508000707786857 0.0004362049445608624 -0.0027129730466707207 0.0018064679299701651 0.00020023810895168688 -0.0014306812330775053 1.1896016912186218e-05 0.0078245942651194861 0.0023388987308310934 0.00059640817511549024 -0.00011696118286264744 0.0007341874058232735 -0.00011359793584435053 0.00040860587541204996 0.0046821888749508725 -0.0015244437961984107 -0.00068087848564755049 -0.00013286248732863806 0.0047176909235407847 0.0015908869521062037 0.0024130747365017418 0.0051872869374724002 0.0013809752687235885 -0.0005898681260800145 0.0046871727131506799
leaf_weight=10030 1132 31937 13463 384799 113181 1160 289064 788 1596 37496 20393 327400 2530 4621 5191 89637 111445 30015 11615 7091 42826 29991 20051 3510 31650 8046 1642 8645 85153 4903
leaf_count=10030 1132 31937 13463 384799 113181 1160 289064 788 1596 37496 20393 327400 2530 4621 5191 89637 111445 30015 11615 7091 42826 29991 20051 3510 31650 8046 1642 8645 85153 4903
internal_value=2.06855e-06 -0.000133483 0.00151589 4.04026e-05 -0.00077023 0.000109507 3.64862e-05 0.00255749 0.00443719 0.00098141 -0.000228805 0.000210906 0.00506477 0.00207621 0.00267018 -0.00058512 0.000664778 -0.000828082 0.000834809 0.00376048 -0.00177815 -0.00117388 0.000601748 0.00379774 0.0012742 0.00170302 0.00361077 0.000422137 -0.000347522 0.00398474
internal_weight=1.731e+06 1.58872e+06 142277 1.2479e+06 340827 1.15595e+06 1.02166e+06 48229 9817 94048 405192 616464 9029 38412 24949 287971 134298 91943 89406 11712 52856 61928 131496 4642 43265 13237 2802 46141 174790 6499
internal_count=1731001 1588724 142277 1247897 340827 1155954 1021656 48229 9817 94048 405192 616464 9029 38412 24949 287971 134298 91943 89406 11712 52856 61928 131496 4642 43265 13237 2802 46141 174790 6499
is_linear=0
shrinkage=0.03


Tree=9
num_leaves=31
num_cat=0
split_feature=1 1 16 1 5 12 5 0 17 5 3 3 11 17 12 11 3 3 11 0 16 0 3 12 12 3 12 2 17 3
split_gain=372.154 182.391 116.021 87.8824 53.6646 50.7712 46.7544 58.6595 38.8788 36.133 34.8782 33.203 29.0639 27.7199 23.435 21.1566 18.8612 18.5074 17.4309 15.0655 14.931 13.7689 13.7139 12.9643 12.7898 12.3772 12.3617 11.8416 11.7411 11.2
threshold=0.079301446676254286 -0.10144053772091864 -0.2393454238772392 0.12772612273693087 -1.9230499863624571 -268947.34374999994 -1.8107500076293943 -2.6491283178329463 0.3546136766672135 -1.7297499775886533 0.13818800449371341 0.042469000443816192 0.02711450029164553 0.036998160183429725 -77267.460937499985 0.0021535000996664171 -0.056117998436093323 -0.033143000677227967 0.029277499765157703 -2.2989125251770015 -0.27613946795463556 -6.4689240455627433 0.082880500704050078 -213667.68749999997 -625915.90624999988 0.12188749760389329 -188299.30468749997 0.90864005684852611 0.18238829821348193 -0.16108699887990949
decision_type=2 2 2 2 2 2 2 2 2 2 2 2 2 2 2 2 2 2 2 2 2 2 2 2 2 2 2 2 2 2
left_child=1 13 5 9 23 21 12 8 -8 16 -6 -9 26 14 27 -12 -2 -11 28 -18 -19 -3 -22 -5 -15 -25 -4 -1 -7 -14
right_child=3 2 6 4 10 18 7 11 -10 17 15 -13 29 24 -16 -17 19 20 -20 -21 22 -23 -24 25 -26 -27 -28 -29 -30 -31
leaf_value=-0.0034522798564395056 0.0039252193434520452 -0.0029036177905760571 -0.00028401969286234605 0.00080175217341063511 0.0024380548987582343 -0.00042608060118426086 0.0005302297891482756 0.00010358202564208993 0.0018584488757419871 0.005026336277652115 0.0029114552362646995 0.0010530996814602117 0.0025504065040329472 -0.0019607017905764628 -0.00093009795376578224 0.0060072580306101105 0.00022289680039784475 0.00045221291772496244 -0.0004542778531933641 0.001235841746117138 0.0013726418260190231 -0.000859469976006584 0.0028069246729206191 0.0013876000325798029 -0.00065644611026831432 0.0029508833779018258 0.0002735762474517881 -0.0020289841083756702 0.00015166347005853326 -0.00027521712584900333
leaf_weight=6586 1457 3040 43207 10283 9507 43663 48264 348960 33778 1466 2958 36638 1265 8081 16746 6373 53331 8170 155234 17616 15591 145538 9906 9651 42776 8833 207092 27976 115116 291899
leaf_count=6586 1457 3040 43207 10283 9507 43663 48264 348960 33778 1466 2958 36638 1265 8081 16746 6373 53331 8170 155234 17616 15591 145538 9906 9651 42776 8833 207092 27976 115116 291899
internal_value=2.01012e-06 -0.000135992 -5.09916e-05 0.00140396 0.00247748 -0.000444542 0.000129033 0.000348961 0.00107746 0.000928429 0.00372346 0.000193882 -6.01572e-05 -0.00136179 -0.00185428 0.0050295 0.000544746 0.00171825 -0.000228223 0.000474846 0.00157317 -0.000901516 0.00193115 0.0016604 -0.000864312 0.00213639 0.000177203 -0.00230116 -7.02443e-06 -0.000262914
internal_weight=1.731e+06 1.57586e+06 1.47369e+06 155142 47605 462591 1.0111e+06 467640 82042 107537 18838 385598 543463 102165 51308 9331 72404 35133 314013 70947 33667 148578 25497 28767 50857 18484 250299 34562 158779 293164
internal_count=1731001 1575859 1473694 155142 47605 462591 1011103 467640 82042 107537 18838 385598 543463 102165 51308 9331 72404 35133 314013 70947 33667 148578 25497 28767 50857 18484 250299 34562 158779 293164
is_linear=0
shrinkage=0.03


Tree=10
num_leaves=31
num_cat=0
split_feature=1 1 12 1 17 5 0 3 16 5 17 0 18 5 7 3 12 3 18 3 12 7 16 12 12 0 3 12 12 18
split_gain=347.596 178.078 104.912 94.5366 52.3563 47.858 63.3534 47.6514 43.1867 41.3747 36.8155 35.2857 34.6947 33.9277 30.5804 22.9028 21.8003 20.8845 20.0834 19.624 19.3631 17.4902 17.4347 16.3455 15.4225 14.9653 14.0707 13.9188 12.4569 12.219
threshold=0.072823856025934233 -0.094596892595291124 -131346.05468749997 0.12772612273693087 0.11265076696872713 -1.8107500076293943 -3.2366186380386348 0.13818800449371341 -0.071775499731302247 -1.7644500136375425 0.086118232458829894 -2.4266861677169795 -32.42499923706054 -1.9497500061988828 -12.53716468811035 -0.033143000677227967 -74587.964843749985 -0.058716999366879456 35.924999237060554 0.061727998778223998 -49273.615234374993 -13.586898803710936 -0.55892607569694508 -277283.43749999994 -334358.24999999994 -6.4689240455627433 0.047473998740315444 -347275.65624999994 -316790.17187499994 17.175000190734867
decision_type=2 2 2 2 2 2 2 2 2 2 2 2 2 2 2 2 2 2 2 2 2 2 2 2 2 2 2 2 2 2
left_child=1 10 4 9 25 14 -7 -5 22 17 16 -10 -9 -14 18 -11 21 -2 -4 -17 -8 -1 -6 -19 -21 -3 -25 -23 -15 -12
right_child=3 2 5 7 8 6 20 12 11 15 29 -13 13 28 -16 19 -18 23 -20 24 -22 27 -24 26 -26 -27 -28 -29 -30 -31
leaf_value=-0.0013406710668669706 0.0037745221803408527 -0.0029755670648541079 -0.00017159799224129971 0.0015588286659901115 -0.00096943594380507873 0.002099138399674363 0.0001588468492798071 -0.0024433380325634174 0.00090533218367438658 0.0047152131415427985 -0.00070882971839581594 -0.00011728688046141394 0.0025791152922424137 0.0028686164097875295 0.00037045689327320884 0.00072633942083262743 -0.0008214742354579023 -0.00032738861647757918 0.003964464109339527 0.0005402537198403054 0.00064507548766331397 -0.0034480715043010025 -0.00033481726719423289 9.0164436387780081e-06 0.0023985837123127701 -0.00094198350680470679 0.00093929979947420959 -0.0020446780518632098 0.0056522702711010722 0.0012179567468145994
leaf_weight=22425 1674 3396 376516 27120 44681 19476 202409 848 44479 1992 38579 95597 10696 1876 132052 20120 19846 21472 1058 5167 116141 8932 308140 22165 18832 88851 43437 23045 7214 3197
leaf_count=22425 1674 3396 376516 27120 44681 19476 202409 848 44479 1992 38579 95597 10696 1876 132052 20120 19846 21472 1058 5167 116141 8932 308140 22165 18832 88851 43437 23045 7214 3197
internal_value=2.21381e-06 -0.000143725 -5.21633e-05 0.00124014 -0.000361151 0.000161099 0.000437887 0.00238754 -0.000238306 0.000833606 -0.00127416 0.00020722 0.00347516 0.00373045 -2.24306e-05 0.00156286 -0.00167521 0.000454354 -0.000159918 0.00141975 0.000336218 -0.00198609 -0.000415272 0.000390137 0.00199977 -0.0010172 0.000625446 -0.00243772 0.00508146 -0.000560634
internal_weight=1.73143e+06 1.54882e+06 1.4328e+06 182613 585144 847652 338026 47754 492897 134859 116024 140076 20634 19786 509626 46111 74248 88748 377574 44119 318550 54402 352821 87074 23999 92247 65602 31977 9090 41776
internal_count=1731433 1548820 1432796 182613 585144 847652 338026 47754 492897 134859 116024 140076 20634 19786 509626 46111 74248 88748 377574 44119 318550 54402 352821 87074 23999 92247 65602 31977 9090 41776
is_linear=0
shrinkage=0.03


Tree=11
num_leaves=31
num_cat=0
split_feature=1 1 12 1 19 5 17 3 5 16 18 18 11 3 5 17 3 12 12 3 3 11 12 1 12 3 3 12 15 18
split_gain=327.075 168.261 102.687 88.948 54.4173 49.7942 48.6483 42.8326 38.9316 38.6817 29.0401 27.4595 26.3072 25.8757 24.7947 23.6984 21.5466 20.6348 19.7805 19.6501 18.4627 18.3621 15.3927 14.9646 14.5072 14.0289 12.9161 11.4184 12.3051 10.7289
threshold=0.072823856025934233 -0.10548492893576621 -150226.90624999997 0.12772612273693087 1.8429999947547915 -3.0926500558853145 0.11265076696872713 0.12188749760389329 -1.7644500136375425 -0.069427728652954088 -21.51500034332275 13.335000038146974 0.045837499201297767 0.036640500649809844 -2.5666500329971309 0.033298915252089507 -0.033143000677227967 -79074.367187499985 -44324.314453124993 -0.058716999366879456 0.061727998778223998 0.047601999714970596 -311267.76562499994 0.18519944697618487 -334358.24999999994 -0.12144000083208083 0.047473998740315444 -678025.78124999988 -1.0000000180025095e-35 35.924999237060554
decision_type=2 2 2 2 2 2 2 2 2 2 2 2 2 2 2 2 2 2 2 2 2 2 2 2 2 2 2 2 2 2
left_child=1 11 6 8 7 12 27 -5 19 21 -9 15 -4 18 -12 17 -10 -1 -7 -2 -18 -8 -21 -6 -22 -11 -24 -3 -29 -14
right_child=3 2 5 4 23 13 9 10 16 25 14 -13 29 -15 -16 -17 20 -19 -20 22 24 -23 26 -25 -26 -27 -28 28 -30 -31
leaf_value=-0.0025535316788377685 0.0036613541100087147 -0.0017567320030238288 5.7033082388496173e-05 0.0010592142667598479 0.0042052514672561896 7.5822825750014122e-05 -0.0002625655437433002 -0.00045242765152621659 0.0045738276949853765 0.0035048740828428921 0.002001516076737671 -9.216603511170514e-05 -0.0005476487311082902 0.000756617515504737 0.0040978311816026181 -0.001062836885600732 0.00070455031360755547 -0.0010978275901692553 0.0004555259093338803 -0.00037934354051690205 0.00052404925105630645 -0.00073532792510927524 1.0263255441938972e-05 0.0083567510596235621 0.0023266300336658341 0.00016513444715772919 0.00088375275277370363 -0.00070728968163493919 -0.0018000257382966005 0.0040153035384217469
leaf_weight=27243 1674 16086 154052 21117 1807 375458 203107 2071 1992 1143 8574 13336 123213 87201 12736 42121 20120 13052 184172 18853 5167 116556 23111 1449 18832 118415 45110 62243 10959 463
leaf_count=27243 1674 16086 154052 21117 1807 375458 203107 2071 1992 1143 8574 13336 123213 87201 12736 42121 20120 13052 184172 18853 5167 116556 23111 1449 18832 118415 45110 62243 10959 463
internal_value=2.1498e-06 -0.000139415 -5.91247e-05 0.00120298 0.00231596 0.000131526 -0.0003927 0.0020409 0.000808634 -0.000262834 0.00292617 -0.00135752 -0.000204403 0.00027581 0.00325593 -0.0015619 0.00151604 -0.0020828 0.000200836 0.000440735 0.0013772 -0.00043504 0.000378433 0.00606398 0.00193982 0.000197343 0.000588288 -0.00103118 -0.000871314 -0.000530292
internal_weight=1.73143e+06 1.54882e+06 1.45307e+06 182613 47754 924559 528509 44498 134859 439221 23381 95752 277728 646831 21310 82416 46111 40295 559630 88748 44119 319663 87074 3256 23999 119558 68221 89288 73202 123676
internal_count=1731433 1548820 1453068 182613 47754 924559 528509 44498 134859 439221 23381 95752 277728 646831 21310 82416 46111 40295 559630 88748 44119 319663 87074 3256 23999 119558 68221 89288 73202 123676
is_linear=0
shrinkage=0.03


Tree=12
num_leaves=31
num_cat=0
split_feature=1 16 1 17 1 3 3 7 19 0 1 3 12 19 0 15 16 17 15 14 19 1 3 3 7 7 12 12 7 17
split_gain=309.053 172.129 76.9927 68.798 56.4418 56.1446 49.4289 42.2997 39.2373 39.5443 31.6893 29.9264 26.665 23.5803 28.2122 23.1956 23.2551 22.8607 20.4457 25.7815 15.6253 15.4146 14.0665 13.9504 12.2487 11.8525 11.5271 11.4245 11.2127 10.5747
threshold=0.10217882692813875 -0.36008334159851069 0.055488508194684989 0.051865147426724441 -0.072248887270688997 0.12188749760389329 -0.056117998436093323 -12.46069288253784 -1.5489999651908872 -4.2997581958770743 0.22000194340944293 -0.14146299660205838 -132810.68749999997 1.8429999947547915 -3.7527601718902583 -0.10496369004249571 -0.053122306242585175 0.15157840400934222 -0.10112074017524718 -0.90397512912750233 -19.862999916076657 -0.14859451353549954 -0.031037499196827408 0.064504001289606108 -12.69958448410034 -13.586898803710936 -30707.238281249996 -55066.781249999993 -13.635592460632322 0.32245729863643652
decision_type=2 2 2 2 2 2 2 2 2 2 2 2 2 2 2 2 2 2 2 2 2 2 2 2 2 2 2 2 2 2
left_child=1 3 4 21 17 13 -4 11 9 20 24 -6 -5 22 -15 16 -8 27 19 -11 -7 25 28 -24 -10 -1 -17 -3 -2 -9
right_child=5 2 6 12 7 8 15 29 10 18 -12 -13 -14 14 -16 26 -18 -19 -20 -21 -22 -23 23 -25 -26 -27 -28 -29 -30 -31
leaf_value=-0.0015075630295010363 -5.7588938196279004e-07 -0.0013320692243958268 0.0041303525621949602 -0.00070008676148946864 0.0027992609292901162 -0.0050378354127985567 0.00052607385241474779 0.00033444513009806871 0.0053962710219821672 0.0001512420015419922 0.0089513533261388004 -4.5825740824722974e-05 -0.0001156503979407317 0.0060696435018031845 0.00082187016174123417 -2.1760754290656714e-05 0.0015546379069574384 2.5185221930213109e-05 0.0020194451560966958 0.0045644329282479293 0.00081912834207752789 -0.001327537639933453 0.00028018600170351773 0.001305813930370602 0.0016522200311111239 -0.0031770558052629135 0.00081563616398938566 -0.00050506781015463814 0.0045840202510137543 0.00086330751972970524
leaf_weight=6926 656 41312 3683 199425 3339 432 47143 117123 1657 1396 1463 864657 108686 1868 1850 51221 34251 25731 9644 8733 7407 38569 20447 28967 1555 8830 20765 23861 1666 48170
leaf_count=6926 656 41312 3683 199425 3339 432 47143 117123 1657 1396 1463 864657 108686 1868 1850 51221 34251 25731 9644 8733 7407 38569 20447 28967 1555 8830 20765 23861 1666 48170
internal_value=2.08895e-06 -9.04973e-05 7.27629e-05 -0.000667724 -1.41361e-05 0.00173687 0.000694938 4.88864e-05 0.0027321 0.00229969 0.00527858 -3.48435e-05 -0.000494026 0.00115684 0.00346745 0.000612224 0.000959281 -0.000730825 0.0030148 0.00395923 0.000491929 -0.0016523 0.000990147 0.000882041 0.00359411 -0.00244523 0.000219385 -0.00102976 0.00327645 0.000488753
internal_weight=1.73143e+06 1.64369e+06 1.28126e+06 362436 1.12419e+06 87741 157063 1.03329e+06 32287 27612 4675 867996 308111 55454 3718 153380 81394 90904 19773 10129 7839 54325 51736 49414 3212 15756 71986 65173 2322 165293
internal_count=1731433 1643692 1281256 362436 1124193 87741 157063 1033289 32287 27612 4675 867996 308111 55454 3718 153380 81394 90904 19773 10129 7839 54325 51736 49414 3212 15756 71986 65173 2322 165293
is_linear=0
shrinkage=0.03


Tree=13
num_leaves=31
num_cat=0
split_feature=1 1 12 1 17 19 3 3 16 0 0 17 12 3 15 0 7 17 17 19 12 16 4 17 16 7 7 0 0 3
split_gain=291.98 148.769 92.6112 85.8421 52.3163 48.7975 38.3173 38.238 34.4461 33.1146 32.411 26.285 26.0987 29.409 27.2114 25.1251 24.7508 24.0039 23.7284 23.2566 22.4372 22.4208 21.2325 17.8781 14.7418 14.282 14.2414 13.8579 13.8563 12.4644
threshold=0.068876020610332503 -0.10548492893576621 -131346.05468749997 0.12772612273693087 0.11265076696872713 1.8429999947547915 0.11571799963712694 -0.056117998436093323 -0.071775499731302247 -3.4580142498016353 -2.4266861677169795 0.078552819788455977 -328402.04687499994 0.056728500872850425 -0.12448665127158164 -4.2997581958770743 -13.145423412322996 0.033298915252089507 0.21963693201541903 -3.6690000295639034 -79074.367187499985 -0.44696579873561854 -1.0000000180025095e-35 0.49162302911281591 -0.55892607569694508 -13.586898803710936 -12.210775375366209 -3.4151766300201412 -7.0234062671661368 -0.019090500660240647
decision_type=2 2 2 2 2 2 2 2 2 2 2 2 2 2 2 2 2 2 2 2 2 2 2 2 2 2 2 2 2 2
left_child=1 17 4 7 28 6 -5 -2 24 11 -10 26 -9 29 -15 19 23 20 -18 -8 25 -13 -17 -11 -6 -1 -4 -7 -3 -14
right_child=3 2 9 5 8 27 15 12 10 16 -12 21 13 14 -16 22 18 -19 -20 -21 -22 -23 -24 -25 -26 -27 -28 -29 -30 -31
leaf_value=-0.0013818243353238035 0.0039287434324689471 -0.003766563805819381 0.00013755151897126911 0.00093174791193571295 -0.0008900107607230554 0.0070823810148926006 0.00026435886621082612 -0.00011286361620292326 0.0008466990348490489 -0.00030574001576339827 -0.00013872756874073444 0.00016947611778589291 0.0018041921798275832 0.0019250350972905216 0.0007076690728975907 0.0039907076592737584 3.0471018976846506e-05 -0.00081285190263024232 0.00048560654631379452 0.0046495121343347332 -0.00083723769769103397 0.0022415110499050734 0.0017593169670059449 0.00011679833239547436 -0.00030912686443486799 -0.0027117714109405997 0.0015716360150638117 0.0028213197675053645 -0.00094044771446105246 0.00019295522391241874
leaf_weight=11587 3293 1594 39808 19641 45194 2218 5446 31197 44050 185255 94330 6783 4749 31343 35191 12401 224730 48327 190706 1365 15776 15547 5645 175369 306588 20062 7403 1038 95964 48833
leaf_count=11587 3293 1594 39808 19641 45194 2218 5446 31197 44050 185255 94330 6783 4749 31343 35191 12401 224730 48327 190706 1365 15776 15547 5645 175369 306588 20062 7403 1038 95964 48833
internal_value=2.03102e-06 -0.000139676 -6.317e-05 0.00107294 -0.000352438 0.00218502 0.0019245 0.000729239 -0.000226083 0.000137845 0.000174747 0.000765047 0.000659385 0.000860205 0.00128162 0.00270766 8.16033e-05 -0.00128457 0.000239474 0.00114815 -0.0017646 0.00161349 0.0032945 -0.00010018 -0.000383842 -0.00222587 0.00036309 0.00573447 -0.000986969 0.000336351
internal_weight=1.73143e+06 1.52907e+06 1.43332e+06 202360 587720 47754 44498 154606 490162 845601 138380 69541 151313 120116 66534 24857 776060 95752 415436 6811 47425 22330 18046 360624 351782 31649 47211 3256 97558 53582
internal_count=1731433 1529073 1433321 202360 587720 47754 44498 154606 490162 845601 138380 69541 151313 120116 66534 24857 776060 95752 415436 6811 47425 22330 18046 360624 351782 31649 47211 3256 97558 53582
is_linear=0
shrinkage=0.03


Tree=14
num_leaves=31
num_cat=0
split_feature=1 1 1 12 17 19 5 11 3 16 0 3 5 0 5 17 12 16 11 4 12 3 14 0 3 1 7 17 0 12
split_gain=275.348 138.121 86.6801 86.5488 54.6491 45.9163 44.2896 38.2554 36.12 35.3294 37.1898 28.5139 25.8951 38.7602 25.8745 22.5847 21.1087 20.9 20.7854 17.1063 16.9923 17.1724 15.6426 14.1791 13.4725 13.468 13.4336 13.3422 27.3672 22.8418
threshold=0.065089326351881041 -0.10548492893576621 0.12772612273693087 -114126.36328124999 0.11265076696872713 1.8429999947547915 -2.0025500059127803 0.023803499527275566 0.12188749760389329 -0.096658937633037553 -2.4266861677169795 -0.036953000351786607 -3.0926500558853145 -3.4373056888580318 -2.5666500329971309 0.033298915252089507 -79074.367187499985 -0.16676279902458188 0.047601999714970596 -1.0000000180025095e-35 -311267.76562499994 -0.052442999556660645 -0.066178388893604265 -7.0234062671661368 0.043247999623417861 0.18519944697618487 -13.586898803710936 0.1556016877293587 -3.3528763055801387 -33360.615234374993
decision_type=2 2 2 2 2 2 2 2 2 2 2 2 2 2 2 2 2 2 2 2 2 2 2 2 2 2 2 2 2 2
left_child=1 15 6 4 23 8 20 27 -4 18 -11 -8 -9 -14 -10 16 26 -13 -6 -16 -2 -22 -19 -3 -23 -7 -1 29 -29 -5
right_child=2 3 5 7 9 25 11 12 14 10 -12 17 13 -15 19 -17 -18 22 -20 -21 21 24 -24 -25 -26 -27 -28 28 -30 -31
leaf_value=-0.0013403731890365893 -0.00049291795734930925 -0.0037587672655995923 0.00096519284271865606 -0.00020285123812706525 -0.00019981338913202507 0.0037987625395145769 0.0042031801135419778 -0.00037909589763567621 0.0014599625929089444 0.0007826334198654185 -0.00014532026873019749 0.0004258199944706435 0.0016551179975557667 3.8082410223174737e-05 0.0042470515832590313 -0.00078846684976426474 -0.00081212213426718209 0.0019570067559232275 -0.00067271608848719084 0.0020027335694019358 0.0033454714696747267 -0.00014737120703626843 0.00081674137087619581 -0.00089982656894285642 0.00068093471961889421 0.0077378445096450438 -0.0026304223204194734 0.0022864399702901377 0.00046648218842193045 0.00052748427135211812
leaf_weight=11587 20820 1591 21117 76363 229029 1807 2813 140923 9427 56033 126791 25267 14090 251669 9305 48327 15776 27382 132026 4649 1826 26633 18104 105378 52220 1449 20062 7743 193487 77739
leaf_count=11587 20820 1591 21117 76363 229029 1807 2813 140923 9427 56033 126791 25267 14090 251669 9305 48327 15776 27382 132026 4649 1826 26633 18104 105378 52220 1449 20062 7743 193487 77739
internal_value=1.97465e-06 -0.000143402 0.000986391 -6.86509e-05 -0.000322729 0.0021196 0.000677095 0.000148322 0.00186686 -0.000200745 0.000138923 0.00123769 -5.03027e-05 0.000123933 0.00267985 -0.00124606 -0.0017117 0.00111931 -0.000372823 0.00350167 0.000270474 0.000467851 0.00150385 -0.000942664 0.000400791 0.0055628 -0.00215913 0.000375735 0.000536671 0.000165384
internal_weight=1.73143e+06 1.50861e+06 222819 1.41286e+06 650848 47754 175065 762014 44498 543879 182824 73566 406682 265759 23381 95752 47425 70753 361055 13954 101499 80679 45486 106969 78853 3256 31649 355332 201230 154102
internal_count=1731433 1508614 222819 1412862 650848 47754 175065 762014 44498 543879 182824 73566 406682 265759 23381 95752 47425 70753 361055 13954 101499 80679 45486 106969 78853 3256 31649 355332 201230 154102
is_linear=0
shrinkage=0.03


Tree=15
num_leaves=31
num_cat=0
split_feature=3 16 12 3 16 0 12 5 17 5 5 0 5 14 2 12 17 12 5 15 16 18 3 4 12 2 18 7 0 7
split_gain=185.641 138.272 74.3566 70.223 57.5071 78.9404 49.4226 44.4751 40.2024 37.4431 33.5754 36.6664 32.6398 31.1864 26.1518 17.3482 17.1342 16.9881 16.0568 14.9839 19.9134 14.4973 14.107 12.9236 12.2383 9.86579 8.99305 8.8399 8.74779 8.40179
threshold=0.049337500706315048 -0.41960750520229334 -311267.76562499994 0.12917400151491168 1.0000000180025095e-35 -2.7488017082214351 -155704.14062499997 -1.5819500088691709 0.036998160183429725 -2.0688500404357906 -3.0687500238418575 -3.4580142498016353 -2.8453500270843501 -1.0000000180025095e-35 0.86845403909683239 -128623.20312499999 0.15931511670351031 -475075.68749999994 -1.0535500049591062 -0.045702314004302018 -0.015915734693408009 35.924999237060554 0.090858500450849547 -4.877999782562255 -58903.447265624993 0.68019697070121776 -18.865000724792477 -14.37449264526367 -2.414240717887878 -12.548289775848387
decision_type=2 2 2 2 2 2 2 2 2 2 2 2 2 2 2 2 2 2 2 2 2 2 2 2 2 2 2 2 2 2
left_child=1 8 16 9 6 12 13 19 26 29 21 -12 27 17 -14 -10 -2 -3 -7 20 -5 -8 -11 25 -21 -9 -1 -6 -20 -4
right_child=2 4 3 7 5 18 10 23 15 22 11 -13 14 -15 -16 -17 -18 -19 28 24 -22 -23 -24 -25 -26 -27 -28 -29 -30 -31
leaf_value=-0.0046934885788181202 -0.0010022111666356077 -0.0007303636625063931 0.00026700487475927423 0.0014223901774026344 -1.3127435598518929e-06 -0.00010396295761576653 -0.00026488492047886393 0.0079844555252706773 -0.0008338045971602459 0.0010760542850597723 0.0011291039623822748 0.00012234008514706398 0.0035638125711193627 -0.0019501500111074905 0.0014963973683945881 -0.00025450650805370614 0.00011737132440081475 -0.00020861046084881416 0.00277955615363857 -4.4026199465713818e-05 0.004441915892133488 0.0027666578840607283 0.0020962530502195865 0.0025721829798926086 0.0019465364201764754 0.0044738502555489966 -0.001670686840366421 0.0014096218443668813 0.00063680716064129701 0.00093452282950900025
leaf_weight=922 16372 72992 82077 5361 7994 70616 227817 885 135863 60193 34869 493573 10577 11052 11644 71020 49360 244977 1884 6040 3146 1426 15417 3021 5104 4760 32675 7907 20403 21480
leaf_count=922 16372 72992 82077 5361 7994 70616 227817 885 135863 60193 34869 493573 10577 11052 11644 71020 49360 244977 1884 6040 3146 1426 15417 3021 5104 4760 32675 7907 20403 21480
internal_value=1.88187e-07 -0.000134256 0.000717855 0.000996437 -4.4111e-06 0.000589285 -7.60216e-05 0.0023852 -0.000791633 0.000776767 5.72641e-05 0.00018883 0.00173885 -0.000383049 0.00248193 -0.000635087 -0.00016104 -0.000328479 0.000117232 0.00159305 0.00254297 -0.000245884 0.0012845 0.00417761 0.000865061 0.00503086 -0.00175467 0.000698453 0.000819404 0.00040576
internal_weight=1.73143e+06 1.45821e+06 273216 207484 1.21773e+06 131025 1.08671e+06 28317 240480 179167 757685 528442 38122 329021 22221 206883 65732 317969 92903 19651 8507 229243 75610 8666 11144 5645 33597 15901 22287 103557
internal_count=1731427 1458211 273216 207484 1217731 131025 1086706 28317 240480 179167 757685 528442 38122 329021 22221 206883 65732 317969 92903 19651 8507 229243 75610 8666 11144 5645 33597 15901 22287 103557
is_linear=0
shrinkage=0.03


Tree=16
num_leaves=31
num_cat=0
split_feature=3 16 16 15 3 16 0 7 17 17 0 5 0 3 18 3 7 5 16 5 18 19 0 19 3 7 17 18 0 14
split_gain=174.793 129.841 67.4012 66.5043 54.7423 52.9435 74.9318 37.9202 37.7438 37.5441 35.763 30.5623 28.6734 29.4863 20.468 17.2754 17.0242 16.7815 15.9125 15.0151 14.9114 14.5631 13.7905 12.6467 12.5929 10.96 10.6717 9.99211 9.06962 9.03423
threshold=0.047473998740315444 -0.41960750520229334 1.0000000180025095e-35 -0.073450621217489229 0.11044349893927576 1.0000000180025095e-35 -2.7488017082214351 -12.256563663482664 0.033298915252089507 0.28426393866539007 -3.5260857343673702 -2.3805500268936153 -5.0862741470336905 0.1837125048041344 35.924999237060554 0.16294299811124804 -15.060055732727049 -2.0688500404357906 -0.28583954274654383 -1.1432500481605528 -23.945000648498532 -1.5949999690055845 -4.8474938869476309 -2.6089999675750728 -0.13369350135326383 -14.147304058074949 0.27660681307315832 17.175000190734867 -2.414240717887878 -0.92206451296806324
decision_type=2 2 2 2 2 2 2 2 2 2 2 2 2 2 2 2 2 2 2 2 2 2 2 2 2 2 2 2 2 2
left_child=1 8 12 4 -4 7 11 9 -1 14 -11 25 21 17 -3 -5 -6 -14 -19 -8 -15 -2 24 -17 -9 -7 -13 -10 -21 -18
right_child=2 5 3 15 16 6 19 22 27 10 -12 26 13 20 -16 23 29 18 -20 28 -22 -23 -24 -25 -26 -27 -28 -29 -30 -31
leaf_value=-0.0017549693856073138 -0.00080401498626941057 -0.00034636173677869404 0.0017101477542882074 -0.00016171808894086125 0.0010030310558646147 0.00015299305449755827 -0.00014000344914840635 -0.0014842338227240056 -0.00065911696746368453 0.0011167943794119801 -1.5294316948090345e-05 0.0015853504900286734 0.00027806823924813928 -0.0019745470332808938 0.0020135703426232203 0.0016244044522061329 0.00034577568926973134 0.00026844373702085563 0.0011192319888329049 0.002579059855147768 0.0030906066880147798 0.0017665827241703904 0.00040793832041921687 0.0077173673288422296 0.0029902183790940125 0.0016051055191125517 0.003083667793111756 0.00079395551183524297 0.00054204910574818176 0.0051731910787045973
leaf_weight=30794 20398 460276 24040 15636 1149 10036 65513 674 203010 26477 486757 6799 119937 569 3327 1848 380 30385 57283 2156 5586 2190 95999 373 3275 8845 12066 4331 23777 7541
leaf_count=30794 20398 460276 24040 15636 1149 10036 65513 674 203010 26477 486757 6799 119937 569 3327 1848 380 30385 57283 2156 5586 2190 95999 373 3275 8845 12066 4331 23777 7541
internal_value=1.86168e-07 -0.000134246 0.000675978 0.00166568 0.00246157 -7.81449e-06 0.000566014 -7.66904e-05 -0.000774401 -0.000133661 4.30521e-05 0.00169061 0.000462423 0.000569906 -0.000329357 0.000188209 0.0044495 0.000509051 0.000824704 0.000101476 0.00261724 -0.00055339 0.000479806 0.00266419 0.00221876 0.000834888 0.00254537 -0.000628616 0.00071265 0.00494546
internal_weight=1.73143e+06 1.44411e+06 287315 50967 33110 1.20598e+06 129192 1.07678e+06 238135 976837 513234 37746 236348 213760 463603 17857 9070 207605 87668 91446 6155 22588 99948 2221 3949 18881 18865 207341 25933 7921
internal_count=1731427 1444112 287315 50967 33110 1205977 129192 1076785 238135 976837 513234 37746 236348 213760 463603 17857 9070 207605 87668 91446 6155 22588 99948 2221 3949 18881 18865 207341 25933 7921
is_linear=0
shrinkage=0.03


Tree=17
num_leaves=31
num_cat=0
split_feature=1 16 1 5 16 0 7 1 3 5 5 5 7 4 1 3 5 2 18 1 3 18 19 3 0 16 18 3 3 19
split_gain=240.886 133.097 65.3566 48.4482 47.9155 60.2061 46.0439 38.9462 33.2075 22.8691 22.6221 20.8449 18.4722 16.6007 16.901 16.4321 16.396 15.1992 13.821 15.3192 15.2368 13.6109 13.2176 15.7149 11.171 9.7483 9.31897 8.59108 8.49093 8.47521
threshold=0.10217882692813875 -0.41960750520229334 -0.068586427718400941 -1.8230499625205991 1.0000000180025095e-35 -2.8397636413574214 -12.880053997039793 -0.14859451353549954 0.11571799963712694 -1.2092500329017637 -1.8107500076293943 -3.363049983978271 -13.804514884948729 -5.5860998630523673 0.18519944697618487 -0.017525999806821343 -2.9078500270843501 0.9071750044822694 -32.42499923706054 0.16538413614034655 0.1837125048041344 -8.0650000572204572 14.234000205993654 -0.061457499861717217 -6.1511595249176017 -0.60545691847801197 -32.42499923706054 -0.084373999387025819 0.035284500569105155 -1.4610000252723692
decision_type=2 2 2 2 2 2 2 2 2 2 2 2 2 2 2 2 2 2 2 2 2 2 2 2 2 2 2 2 2 2
left_child=1 7 17 18 6 11 10 12 15 -7 -4 -6 -1 14 -10 -5 -8 27 -2 -20 29 -14 23 -19 -9 -26 -15 -3 -27 -21
right_child=3 2 4 8 5 9 16 24 13 -11 -12 -13 21 26 -16 -17 -18 22 19 20 -22 -23 -24 -25 25 28 -28 -29 -30 -31
leaf_value=-0.00096169347096689093 -0.0028351845165003639 -0.0029923719125583919 -0.00026598530363269895 0.0046942768602065464 0.0006537483609092259 8.8263430936297343e-06 1.6522738014113511e-05 -0.0019536596858144221 0.0035459729928694578 0.00092867896524131564 7.0493896696462814e-05 0.0023059100100129978 -0.0044240502167284569 -0.0028477843529529797 0.0065227503079910822 0.0013046646436771228 0.00043679836712460135 -0.00091698407676811186 0.00079261537619050397 0.00073565946203278415 0.0034925313207642642 -0.0020733179621980576 0.001569597083269198 -0.00014470340404554237 -0.00082198097962624041 -0.00053111685499099043 0.0024746378185899675 -0.001144322980086756 -4.2624995467125944e-05 0.0031030898448849925
leaf_weight=11675 827 3384 376419 1410 10208 78749 123309 5131 6957 35240 344118 21411 2931 310 2333 15848 260048 57484 43109 6459 4101 9608 2591 40541 76101 135430 4698 7130 42122 1745
leaf_count=11675 827 3384 376419 1410 10208 78749 123309 5131 6957 35240 344118 21411 2931 310 2333 15848 260048 57484 43109 6459 4101 9608 2591 40541 76101 135430 4698 7130 42122 1745
internal_value=1.87405e-07 -8.15787e-05 4.15197e-05 0.00153124 0.000103548 0.000615078 3.60474e-05 -0.00067353 0.0024727 0.00029347 -0.000105246 0.00177351 -0.00182459 0.00354358 0.00429738 0.00158359 0.000301693 -0.000655626 0.00100243 0.0010603 0.00199551 -0.0026255 -0.000541767 -0.000597896 -0.000565704 -0.000537502 0.00213868 -0.00174221 -0.000415398 0.00124319
internal_weight=1.73143e+06 1.64363e+06 1.36063e+06 87797 1.2495e+06 145608 1.10389e+06 282998 31556 113989 720537 31619 24214 14298 9290 17258 383357 111130 56241 55414 12305 12539 100616 98025 258784 253653 5008 10514 177552 8204
internal_count=1731427 1643630 1360632 87797 1249502 145608 1103894 282998 31556 113989 720537 31619 24214 14298 9290 17258 383357 111130 56241 55414 12305 12539 100616 98025 258784 253653 5008 10514 177552 8204
is_linear=0
shrinkage=0.03


Tree=18
num_leaves=31
num_cat=0
split_feature=3 16 12 5 3 16 0 12 17 5 0 7 17 2 11 16 15 3 12 5 0 18 17 15 14 11 12 19 17 18
split_gain=158.968 115.542 68.2026 61.1359 55.3494 49.3556 67.2067 49.9562 32.6726 31.3962 53.2869 28.537 25.3408 23.3248 21.0274 18.2576 22.8417 15.382 14.8268 13.5211 13.2615 13.2224 12.9002 12.8946 11.4979 11.4259 10.8452 9.70362 9.19296 8.64999
threshold=0.049337500706315048 -0.44696579873561854 -334358.24999999994 -1.7874500155448911 0.11044349893927576 1.0000000180025095e-35 -2.7488017082214351 -177363.57812499997 0.036998160183429725 -1.8722500205039976 -3.2184120416641231 -14.147304058074949 0.11265076696872713 0.88775789737701427 0.024207999929785732 1.0000000180025095e-35 -0.029923312366008755 0.12917400151491168 -120548.80859374999 -1.0535500049591062 -3.5726126432418819 -32.42499923706054 0.15931511670351031 -0.045702314004302018 -1.0000000180025095e-35 0.04829750023782254 -55764.505859374993 1.0589999556541445 0.47547745704650884 -18.865000724792477
decision_type=2 2 2 2 2 2 2 2 2 2 2 2 2 2 2 2 2 2 2 2 2 2 2 2 2 2 2 2 2 2
left_child=1 8 22 17 -5 7 11 12 29 14 -11 28 24 -13 -9 27 -17 25 -10 -8 -14 -19 -2 -23 -3 26 -4 -6 -7 -1
right_child=2 5 3 4 15 6 19 9 18 10 -12 13 20 -15 -16 16 -18 21 -20 -21 -22 23 -24 -25 -26 -27 -28 -29 -30 -31
leaf_value=-0.0046481744819109379 -0.00097262711726951831 -0.00081924708738625996 0.00043214530300878548 0.0011922572715076794 0.0020748617237174661 7.5687003303808787e-05 -0.00010189615767211118 0.00011126984491706702 -0.00079881276850897302 0.0015956753100099153 0.00015477635162586758 0.0030312736734341879 0.00022932324134676023 0.001116158424409674 -0.00029642376507503818 0.0054851101029593993 0.0011042335845054781 -0.0032408292218785027 -0.00020994404157183397 0.00074542487230348786 -0.0003763657714385512 0.0024206748255205038 3.1735382739089371e-05 0.00078904303792603613 -0.0020619057105547255 8.6584856954380676e-05 0.0012498120912345122 0.0056401343753716797 0.0017843425433403436 -0.0015807836011371853
leaf_weight=861 15427 44830 49189 57349 8530 10496 70616 201266 124458 24863 326911 13870 38459 9854 261936 4752 1407 541 55930 22287 209218 7766 45110 10116 7933 51385 20884 760 3902 30521
leaf_count=861 15427 44830 49189 57349 8530 10496 70616 201266 124458 24863 326911 13870 38459 9854 261936 4752 1407 541 55930 22287 209218 7766 45110 10116 7933 51385 20884 760 3902 30521
internal_value=1.83009e-07 -0.000124227 0.000664295 0.000917203 0.00162247 -1.41302e-05 0.00053664 -7.8855e-05 -0.000772094 4.30119e-05 0.000256707 0.00159734 -0.000409531 0.00223716 -0.000119212 0.00321736 0.00448953 0.000549938 -0.0006164 0.000101055 -0.000282193 0.00135842 -0.000223729 0.00149942 -0.00100669 0.000427048 0.000676279 0.00237034 0.000540925 -0.00166604
internal_weight=1.73143e+06 1.45821e+06 273216 212679 72798 1.24644e+06 131025 1.11542e+06 211770 814976 351774 38122 300440 23724 463202 15449 6159 139881 180388 92903 247677 18423 60537 17882 52763 121458 70073 9290 14398 31382
internal_count=1731427 1458211 273216 212679 72798 1246441 131025 1115416 211770 814976 351774 38122 300440 23724 463202 15449 6159 139881 180388 92903 247677 18423 60537 17882 52763 121458 70073 9290 14398 31382
is_linear=0
shrinkage=0.03


Tree=19
num_leaves=31
num_cat=0
split_feature=1 12 17 3 3 1 0 16 11 16 12 6 17 1 7 1 15 3 1 15 7 0 12 11 3 16 0 15 7 12
split_gain=218.662 121.8 73.1727 50.7486 37.9632 32.1242 47.4948 40.0195 31.9355 31.043 23.9831 23.1668 19.0098 19.0064 20.2689 16.2271 21.4469 15.8114 14.3481 15.9068 12.9883 12.1182 11.9311 10.8549 10.5157 9.9681 25.1944 12.4841 9.95943 9.94603
threshold=0.10217882692813875 -195292.84374999997 0.11265076696872713 0.035942001268267638 0.12188749760389329 -0.074249938130378709 -3.549965381622314 1.0000000180025095e-35 0.023461000062525276 -0.13768626004457471 -295748.98437499994 -3.2157499790191646 0.033298915252089507 -0.094596892595291124 -13.635592460632322 0.050918098539114005 -0.093005396425724016 -0.02839849982410669 0.22000194340944293 -0.089428752660751329 -13.635592460632322 -3.5726126432418819 -50752.658203124993 0.04829750023782254 -0.077771499752998338 1.0000000180025095e-35 -3.3136808872222896 -0.045702314004302018 -14.843270778656004 -565652.49999999988
decision_type=2 2 2 2 2 2 2 2 2 2 2 2 2 2 2 2 2 2 2 2 2 2 2 2 2 2 2 2 2 2
left_child=1 2 13 5 17 12 7 -7 -8 29 -6 -12 24 14 -1 23 -17 20 19 -13 -2 28 -18 -5 -3 -19 27 -27 -11 -4
right_child=4 3 9 15 10 6 8 -9 -10 21 11 18 -14 -15 -16 16 22 25 -20 -21 -22 -23 -24 -25 -26 26 -28 -29 -30 -31
leaf_value=-0.0010171588109569583 -9.0523184876332153e-05 -0.0013177088227383604 -0.00086061860583222971 0.00048400248782862611 0.00089075735862898875 0.00058355953564655824 0.00019280842613187711 0.0030314276939283629 -0.0001869803767866821 -0.00050770177682948664 0.0015176237183865357 0.0041055125315284302 -9.3431533030228538e-05 -0.00086147613566299843 -0.0023819850528129499 0.0012557338727933107 -0.00013169121854225672 0.00061158751897773765 0.0055903190246212953 0.0019718463852055712 0.0040918541631447735 -3.1836057396991055e-05 0.00080560382155953796 -0.00014452823622293205 -0.00037276663152035523 0.0043533040225055674 0.00070547483810572966 -1.4904726427982417e-05 0.0011614361627044132 -0.00038484923367460038
leaf_weight=20146 895 28980 50489 71313 8352 56446 374478 6737 425865 4108 8635 6499 43323 70785 19267 47437 23256 39037 2448 6252 2484 120996 25653 37762 16875 3258 9235 702 14474 185240
leaf_count=20146 895 28980 50489 71313 8352 56446 374478 6737 425865 4108 8635 6499 43323 70785 19267 47437 23256 39037 2448 6252 2484 120996 25653 37762 16875 3258 9235 702 14474 185240
internal_value=1.81927e-07 -7.77201e-05 -0.000476592 8.94678e-05 0.0014589 -2.71552e-06 5.32352e-05 0.000845086 -9.24087e-06 -0.000276916 0.00227959 0.00276495 -0.000544827 -0.00115636 -0.00168516 0.000517141 0.000800998 0.000983331 0.00347148 0.00306193 0.00297549 7.74728e-05 0.000359317 0.000266129 -0.000970633 0.000853825 0.0015681 0.00357156 0.000790811 -0.000486881
internal_weight=1.73143e+06 1.64363e+06 485505 1.15812e+06 87797 952704 863526 63183 800343 375307 32186 23834 89178 110198 39413 205421 96346 55611 15199 12751 3379 139578 48909 109075 45855 52232 13195 3960 18582 235729
internal_count=1731427 1643630 485505 1158125 87797 952704 863526 63183 800343 375307 32186 23834 89178 110198 39413 205421 96346 55611 15199 12751 3379 139578 48909 109075 45855 52232 13195 3960 18582 235729
is_linear=0
shrinkage=0.03


Tree=20
num_leaves=31
num_cat=0
split_feature=1 1 12 1 19 3 0 16 15 11 3 19 0 3 0 15 7 12 7 12 0 6 0 12 2 16 0 15 12 2
split_gain=209.724 111.985 72.1985 63.2509 40.8896 33.5943 32.7006 32.4136 42.0815 29.9572 28.6292 26.0556 24.2319 23.2776 25.9238 23.6938 19.4934 17.4 16.1167 15.7378 14.8848 17.5398 14.1261 13.6434 11.9513 11.5532 11.5522 12.0783 11.2977 10.7746
threshold=0.070053961127996459 -0.10548492893576621 -114126.36328124999 0.14274609833955768 0.23499999940395358 -0.039427500218152993 -3.1805976629257198 -0.30185477435588831 -1.0000000180025095e-35 0.023803499527275566 0.16294299811124804 -19.862999916076657 -2.8093309402465816 0.049337500706315048 -4.0681135654449454 -0.12448665127158164 -13.610979557037352 -347275.65624999994 -13.674162864685057 -565652.49999999988 -3.8371077775955196 -2.9383499622344966 -4.2997581958770743 -650301.18749999988 0.9011005461215974 -0.24837031960487363 -3.5260857343673702 -0.022538835182785984 -34019.257812499993 0.72172975540161144
decision_type=2 2 2 2 2 2 2 2 2 2 2 2 2 2 2 2 2 2 2 2 2 2 2 2 2 2 2 2 2 2
left_child=1 16 7 5 10 25 18 19 12 26 -5 29 -9 -7 -15 -16 23 -18 -6 -3 21 -11 -13 -1 -19 -2 27 -4 -28 -12
right_child=3 2 9 4 6 13 -8 8 -10 20 11 22 -14 14 15 -17 17 24 -20 -21 -22 -23 -24 -25 -26 -27 28 -29 -30 -31
leaf_value=-0.0015973837625896531 -2.2380742506514226e-05 -0.0010865908449863215 0.0019576001747003005 0.00096170007060521472 0.00013881439926201659 9.469511520648083e-05 0.00041503809068587521 0.00032590944120045772 -0.0014444056475693512 2.0161692051694894e-05 -0.0030508386114660394 0.0017662508067456651 -0.00019747074210041155 -0.00020288405921287998 0.0015496431473986454 0.00054655009109302085 -0.0026988399348958818 -0.0028173885393701715 0.0071643315682668662 -0.00044476253629780198 -7.1812852260419663e-05 0.0017907416269727792 0.0041602017111294614 -0.00038082364609983631 -0.0010814893426471979 0.0036287946850399396 0.00018490887216866995 0.00051192116942739142 0.00056480587727565754 0.003249616181145549
leaf_weight=10904 924 41127 7736 18108 338 54444 1117 111436 20440 12263 869 3360 278675 17062 45051 40251 9328 3993 2809 212704 393255 8584 6858 35168 35989 4494 236938 16138 100519 335
leaf_count=10904 924 41127 7736 18108 338 54444 1117 111436 20440 12263 869 3360 278675 17062 45051 40251 9328 3993 2809 212704 393255 8584 6858 35168 35989 4494 236938 16138 100519 335
internal_value=-7.94258e-07 -0.0001188 -5.28299e-05 0.000923248 0.00210437 0.000677007 0.00485412 -0.000282352 -0.000117493 0.000143783 0.00170615 0.00288355 -4.78888e-05 0.00059651 0.000863112 0.00107668 -0.0011143 -0.00152933 0.00641958 -0.000548877 -3.03308e-05 0.000750709 0.00337618 -0.00066943 -0.00125567 0.00300069 0.000343408 0.00098169 0.00029816 -0.00127167
internal_weight=1.73122e+06 1.5352e+06 1.43982e+06 196020 33794 162226 4264 664382 410551 775433 29530 11422 390111 156808 102364 85302 95382 49310 3147 253831 414102 20847 10218 46072 39982 5418 361331 23874 337457 1204
internal_count=1731217 1535197 1439815 196020 33794 162226 4264 664382 410551 775433 29530 11422 390111 156808 102364 85302 95382 49310 3147 253831 414102 20847 10218 46072 39982 5418 361331 23874 337457 1204
is_linear=0
shrinkage=0.03


Tree=21
num_leaves=31
num_cat=0
split_feature=16 12 0 3 17 5 5 3 12 12 17 5 15 16 3 5 3 15 0 17 15 11 16 18 0 18 17 0 18 16
split_gain=139.819 113.562 80.6585 79.929 68.7193 48.8989 35.6187 33.6484 30.2335 29.4173 28.2902 26.3182 22.7499 22.2065 21.0431 19.3918 19.0782 17.0734 17.0309 15.812 15.6268 14.0603 13.5988 11.5484 10.9039 10.5416 10.0151 9.67036 9.39389 9.00451
threshold=1.0000000180025095e-35 -195292.84374999997 -2.8093309402465816 0.049337500706315048 0.082227438688278212 -2.995649933815002 -3.0687500238418575 0.097522500902414336 -44324.314453124993 -286357.01562499994 0.078552819788455977 -2.8258500099182124 -0.19281463325023648 0.43567641079425817 0.029151000082492832 -1.1202500462532041 0.090858500450849547 -0.037580408155918114 -3.9954309463500972 0.011159016750752928 -0.011153359431773422 0.038831999525427825 -0.30185477435588831 -23.945000648498532 -3.3136808872222896 35.924999237060554 0.45204426348209387 -3.6731158494949336 4.5450000762939462 -0.17452004551887509
decision_type=2 2 2 2 2 2 2 2 2 2 2 2 2 2 2 2 2 2 2 2 2 2 2 2 2 2 2 2 2 2
left_child=1 4 5 6 19 26 21 15 10 -7 -8 -5 -9 17 22 -4 -13 -11 -10 23 -15 -3 -6 -1 -25 -23 -2 -24 -18 -16
right_child=2 3 7 11 14 9 8 12 18 13 -12 16 -14 20 29 -17 28 -19 -20 -21 -22 25 27 24 -26 -27 -28 -29 -30 -31
leaf_value=-0.0068223437688858151 0.00020732811132079997 -9.5462257325826976e-05 1.2956547657492321e-05 0.00027928037129087377 -0.00071968456265282716 0.00098052462720045583 -0.00050633747458650685 0.0038925867749654581 0.0023302130037000097 0.0030528620402754149 8.6840260293779642e-05 0.00083594609141031818 0.00072675384516135975 0.0068357124544277418 -0.00013862702770867316 0.00088939411221494312 0.001678658852618854 0.00063954766117848281 0.00037571874900141025 -0.00098791536957426119 0.00034570096803450797 -0.00052894465153054972 0.00033735119318264317 -0.0020461195944874956 -0.00013424536265679545 0.00307477969811756 0.0016500179579178268 -0.0003719674949928404 0.0037474319537366021 0.00044428924695553355
leaf_weight=423 14949 154185 86581 57853 107924 8729 90017 3897 4105 18786 368797 55244 4353 2018 91736 30838 18644 3108 189825 63127 412 140528 19913 20970 3118 731 6132 129807 2243 32224
leaf_count=423 14949 154185 86581 57853 107924 8729 90017 3897 4105 18786 368797 55244 4353 2018 91736 30838 18644 3108 189825 63127 412 140528 19913 20970 3118 731 6132 129807 2243 32224
internal_value=-7.67068e-07 -9.25678e-05 0.000791156 7.64231e-05 -0.00048236 0.00175941 -2.04645e-05 0.000373816 0.000103204 0.00247978 -2.94737e-05 0.000762303 0.0022261 0.00301651 -0.000308272 0.000243398 0.00112896 0.00271169 0.000417257 -0.00124004 0.00574828 -0.000293795 -0.000462801 -0.00188808 -0.0017999 -0.000510062 0.000628456 -0.000277425 0.00190242 1.26652e-05
internal_weight=1.73122e+06 1.55141e+06 179803 1.08217e+06 469242 54134 948188 125669 652744 33053 458814 133984 8250 24324 381604 117419 76131 21894 193930 87638 2430 295444 257644 24511 24088 141259 21081 149720 20887 123960
internal_count=1731217 1551414 179803 1082172 469242 54134 948188 125669 652744 33053 458814 133984 8250 24324 381604 117419 76131 21894 193930 87638 2430 295444 257644 24511 24088 141259 21081 149720 20887 123960
is_linear=0
shrinkage=0.03


Tree=22
num_leaves=31
num_cat=0
split_feature=3 12 12 3 17 5 0 17 5 12 17 5 3 17 7 18 0 3 12 15 18 17 15 0 12 11 0 5 0 15
split_gain=131.929 84.2873 57.7237 53.6686 50.2167 39.9178 62.4903 43.0374 32.8351 28.9288 30.4127 28.8046 16.6772 15.5729 15.5601 16.2978 17.3651 14.8069 14.426 14.1467 13.6185 13.5876 13.0825 12.4661 12.3818 12.1375 10.9165 13.0994 9.49917 9.0599
threshold=0.049337500706315048 -195292.84374999997 -354216.62499999994 0.13818800449371341 0.082227438688278212 -2.8649500608444209 -3.2366186380386348 0.19341456145048144 -2.1257499456405635 -44324.314453124993 0.066920157521963133 -2.5458500385284419 -0.14146299660205838 0.20802271366119388 -12.210775375366209 35.924999237060554 -1.0000000180025095e-35 0.090858500450849547 -71211.652343749985 -1.0000000180025095e-35 7.1449999809265146 0.17125787585973742 -0.87289676070213307 -4.6552760601043692 -565652.49999999988 0.04829750023782254 -3.6467684507369991 -2.7040499448776241 -3.6467684507369991 -0.077459152787923799
decision_type=2 2 2 2 2 2 2 2 2 2 2 2 2 2 2 2 2 2 2 2 2 2 2 2 2 2 2 2 2 2
left_child=1 4 21 8 20 14 7 12 25 10 -8 -5 -7 18 15 16 -3 -10 -13 -11 23 -2 -15 -1 -6 -4 27 -26 -9 -19
right_child=2 5 3 11 24 6 9 28 17 19 -12 13 -14 22 -16 -17 -18 29 -20 -21 -22 -23 -24 -25 26 -27 -28 -29 -30 -31
leaf_value=-0.001933817379461485 -0.00099905325386555723 -0.00030376879101110909 0.00058893243311649082 0.00097933107994748999 -0.00067411815754843483 -0.00097745184442838795 -0.00072531902109832912 0.002570936975961557 0.00088517638310037737 0.00076532600112918343 2.9828459248869839e-05 0.00050224483684965739 0.00068944115497165991 0.00094967723956803371 0.00036382165719121178 0.0025135185902124659 -0.0071725261612467081 0.0023864058343279963 0.0034082685232540021 0.00019951147743464191 -0.00030388285240194948 3.880873853459526e-05 0.0044591471283482653 -0.0010456713521127814 -0.00032185850005980802 -5.3287077609454982e-05 -0.0003157176008545699 0.00065360721867589028 0.0013915553940881515 0.0010458166473888422
leaf_weight=21727 15689 317461 60840 10892 69595 6254 54895 13091 65071 59549 381626 3204 39085 1145 35892 1846 331 11232 3006 120389 13723 40889 6599 42072 24173 46762 219113 25369 11907 7790
leaf_count=21727 15689 317461 60840 10892 69595 6254 54895 13091 65071 59549 381626 3204 39085 1145 35892 1846 331 11232 3006 120389 13723 40889 6599 42072 24173 46762 219113 25369 11907 7790
internal_value=-7.37473e-07 -0.000114099 0.000604352 0.000827317 -0.000475249 2.99314e-05 0.000163532 0.00101073 0.000657051 6.68179e-05 -6.50684e-05 0.00213969 0.000458834 0.00304314 -0.000228068 -0.000294626 -0.00031104 0.00110132 0.00191408 0.000386933 -0.00116408 -0.000248471 0.00394431 -0.00134863 -0.000317287 0.000309558 -0.000224736 0.000177046 0.00201045 0.00183906
internal_weight=1.73122e+06 1.4581e+06 273119 216541 415772 1.04233e+06 686796 70337 191695 616459 436521 24846 45339 13954 355530 319638 317792 84093 6210 179938 77522 56578 7744 63799 338250 107602 268655 49542 24998 19022
internal_count=1731217 1458098 273119 216541 415772 1042326 686796 70337 191695 616459 436521 24846 45339 13954 355530 319638 317792 84093 6210 179938 77522 56578 7744 63799 338250 107602 268655 49542 24998 19022
is_linear=0
shrinkage=0.03


Tree=23
num_leaves=31
num_cat=0
split_feature=16 12 17 0 3 7 17 3 3 15 16 3 6 0 18 0 0 14 3 18 16 11 15 3 6 12 3 15 7 3
split_gain=128.627 103.362 98.875 75.0356 60.4678 43.1471 31.0084 27.593 24.7004 24.6372 21.7541 21.0841 20.3104 32.6818 17.8938 15.3711 15.1262 14.6847 14.4862 14.1113 13.7675 13.613 13.4204 13.2862 13.008 12.693 10.5018 10.3406 10.1255 9.97633
threshold=1.0000000180025095e-35 -111678.00781249999 0.078552819788455977 -2.5782629251480098 0.049337500706315048 -14.147304058074949 0.30295962095260626 0.042469000443816192 0.1837125048041344 -0.049607696011662476 -0.44297596812248224 0.097522500902414336 -3.3642500638961788 -3.9304406642913814 -28.775000572204586 -3.7527601718902583 -3.6731158494949336 -0.082238558679819093 0.14881649613380435 12.795000076293947 0.43567641079425817 0.023461000062525276 -0.26341450214385981 -0.15099850296974179 -2.3744499683380123 -418601.60937499994 -0.13369350135326383 -0.0076142151374369851 -12.53716468811035 0.093911498785018935
decision_type=2 2 2 2 2 2 2 2 2 2 2 2 2 2 2 2 2 2 2 2 2 2 2 2 2 2 2 2 2 2
left_child=1 2 14 5 12 22 15 10 9 -8 -4 -5 26 -14 -1 20 -12 -13 -6 23 -7 -15 -2 -16 -20 -9 -3 -10 -28 -27
right_child=3 4 7 11 18 6 8 25 27 -11 16 17 13 21 19 -17 -18 -19 24 -21 -22 -23 -24 -25 -26 29 28 -29 -30 -31
leaf_value=-0.0063878880307311186 0.0012655880841276588 -0.001158372838603745 -0.00066512430815443319 0.00019731564398781546 0.00075524932062902576 0.0016165539651306598 0.002936652654720812 -0.00024880494901513442 0.0064482932384261667 0.0002751323575344339 0.00033215179146627304 0.0031571706867903741 0.0014945110255395837 0.00031047130649153028 -0.0020066125525386906 0.00019123939290045059 -0.00025120504787387365 0 0.0010711466286136605 2.6153333711763715e-06 0.0056895720480540993 -3.0310649287473355e-05 -0.00013587777743463236 -0.0010464778992104529 0.0036393370001752317 0.00022596468041238658 -0.00023633786733163166 3.1899234025194393e-05 0.00019257742980710574 0.00097918980478290188
leaf_weight=575 12315 9087 107817 108090 86706 6918 19370 39901 2091 3764 45222 3785 16355 196567 14963 8080 344228 2067 4324 9980 846 227402 12213 101951 3068 72844 182179 264 67960 20285
leaf_count=575 12315 9087 107817 108090 86706 6918 19370 39901 2091 3764 45222 3785 16355 196567 14963 8080 344228 2067 4324 9980 846 227402 12213 101951 3068 72844 182179 264 67960 20285
internal_value=-7.11023e-07 -8.87616e-05 -0.000339376 0.000758855 0.000150485 0.00156504 0.00215681 -0.000185209 0.00280542 0.00250494 -0.0002879 0.000292587 5.43987e-05 0.00017846 -0.00110144 0.00111135 -0.000183389 0.00204685 0.000864486 -0.0010772 0.00206491 0.000127617 0.000566569 -0.00116963 0.00214146 0.000198423 -0.000156217 0.00574206 -0.000119686 0.00039036
internal_weight=1.73122e+06 1.55141e+06 757766 179803 793648 65861 41333 630297 25489 23134 497267 113942 699550 440324 127469 15844 389450 5852 94098 126894 7764 423969 24528 116914 7392 133030 259226 2355 250139 93129
internal_count=1731217 1551414 757766 179803 793648 65861 41333 630297 25489 23134 497267 113942 699550 440324 127469 15844 389450 5852 94098 126894 7764 423969 24528 116914 7392 133030 259226 2355 250139 93129
is_linear=0
shrinkage=0.03


Tree=24
num_leaves=31
num_cat=0
split_feature=16 12 17 0 3 7 2 3 3 15 16 15 16 0 6 0 17 18 3 17 18 15 3 6 12 12 18 12 3 15
split_gain=121.039 97.2556 93.0331 71.0086 56.897 44.5946 30.7465 29.874 25.9694 23.6981 31.4253 22.3752 20.5586 21.1334 19.1102 30.7502 18.6355 16.8364 13.6312 13.3619 13.2796 12.8059 12.4988 12.2354 11.5226 10.1986 11.0266 9.7513 9.69324 9.57492
threshold=1.0000000180025095e-35 -111678.00781249999 0.078552819788455977 -2.8704499006271358 0.049337500706315048 -14.049516201019285 0.80795985460281383 0.097522500902414336 0.041653499007225044 -0.014883244410157202 0.29690495133399969 -0.11272622272372244 -0.22458034753799436 -2.7063823938369747 -3.3642500638961788 -3.9304406642913814 0.23840361088514331 -28.775000572204586 0.14881649613380435 0.28426393866539007 12.795000076293947 -0.26738518476486201 -0.15099850296974179 -2.3744499683380123 -418601.60937499994 -14913.583496093748 35.924999237060554 -565652.49999999988 0.093911498785018935 -1.0000000180025095e-35
decision_type=2 2 2 2 2 2 2 2 2 2 2 2 2 2 2 2 2 2 2 2 2 2 2 2 2 2 2 2 2 2
left_child=1 2 17 5 14 21 9 -5 12 10 -7 -9 27 -14 25 -16 -8 -1 -6 -17 22 -2 -19 -20 -10 29 -27 -4 -26 -3
right_child=3 4 8 7 18 6 16 11 24 -11 -12 -13 13 -15 15 19 -18 20 23 -21 -22 -23 -24 -25 28 26 -28 -29 -30 -31
leaf_value=-0.0061965840878610836 0.0013207541132239072 -1.5779495614522688e-05 -0.00094309614064249855 0.00023462114823925446 0.00073259210545869051 0.0029958829748708365 0.00026445108370054619 0.0033328419532898932 -0.00023578477830868793 5.4018579959962084e-05 0.0064993499192966273 0.00026393061919909874 0.00039014528009535321 -0.00024961659574789598 0.0014496784408361725 -4.0777992876611344e-05 0.0022970523151996818 -0.0019464182067686058 0.001039019668915052 0.00029603739389545431 2.5368768777699679e-06 -0.000189677389545718 -0.0010150838702124214 0.0035301924766687025 0.00020987649173787932 0.00026165951406949289 0.0045370096805594715 -0.00039534022342477081 0.00094981555853197567 -0.00040816219019844678
leaf_weight=575 10263 105308 33833 119674 86706 8621 6373 5108 40564 1619 3182 3716 63092 176210 16355 216733 11358 14963 4324 207236 9980 9889 101951 3068 75156 33502 552 221157 20285 119864
leaf_count=575 10263 105308 33833 119674 86706 8621 6373 5108 40564 1619 3182 3716 63092 176210 16355 216733 11358 14963 4324 207236 9980 9889 101951 3068 75156 33502 552 221157 20285 119864
internal_value=-6.83179e-07 -8.60976e-05 -0.000329196 0.000736137 0.000145972 0.0016798 0.00239145 0.000359122 -0.000179652 0.00347653 0.0039434 0.00204402 -0.000280686 -8.0817e-05 5.27655e-05 0.000173106 0.00156823 -0.00106841 0.000838572 0.000123787 -0.00104489 0.000578093 -0.00113455 0.00207736 0.000187323 -0.00015153 0.000331973 -0.00046814 0.000367466 -0.000224788
internal_weight=1.73122e+06 1.55141e+06 757766 179803 793648 51305 31153 128498 630297 13422 11803 8824 494292 239302 699550 440324 17731 127469 94098 423969 126894 20152 116914 7392 136005 259226 34054 254990 95441 225172
internal_count=1731217 1551414 757766 179803 793648 51305 31153 128498 630297 13422 11803 8824 494292 239302 699550 440324 17731 127469 94098 423969 126894 20152 116914 7392 136005 259226 34054 254990 95441 225172
is_linear=0
shrinkage=0.03


Tree=25
num_leaves=31
num_cat=0
split_feature=1 1 12 1 19 3 5 0 5 12 18 3 18 7 18 16 3 0 18 16 16 16 7 3 12 0 12 7 2 19
split_gain=174.828 89.5973 58.0491 50.7777 37.3333 36.957 36.518 44.0143 30.3315 26.9279 25.3839 31.8984 23.1109 22.9896 17.7804 17.6735 15.2886 16.5465 15.1521 15.0755 14.5857 13.5818 13.4388 13.1805 12.7429 11.855 11.0538 10.9182 9.3403 9.14991
threshold=0.067563746124506011 -0.1099177338182926 -268947.34374999994 0.14274609833955768 2.3029999732971196 -0.04121850058436393 -1.8230499625205991 -3.2366186380386348 -1.3862499594688413 -58093.291015624993 -28.775000572204586 0.16294299811124804 -14.194999694824217 -12.271458148956297 12.324999809265138 -0.14821732789278028 0.037321500480175025 -2.3118383884429927 35.924999237060554 -0.11267573013901709 -0.25141339004039759 -0.31509670615196222 -13.635592460632322 0.087991498410701766 -625915.90624999988 -4.2997581958770743 -650301.18749999988 -13.494500637054442 0.71070984005928051 14.234000205993654
decision_type=2 2 2 2 2 2 2 2 2 2 2 2 2 2 2 2 2 2 2 2 2 2 2 2 2 2 2 2 2 2
left_child=1 12 15 5 10 20 13 21 16 -9 28 -12 -1 18 22 -3 -7 -18 -4 -10 -2 -8 26 -21 -24 -13 -14 -6 -5 -16
right_child=3 2 6 4 27 8 7 9 19 -11 11 25 14 -15 29 -17 17 -19 -20 23 -22 -23 24 -25 -26 -27 -28 -29 -30 -31
leaf_value=-0.0029730705357259527 -0.00051473047546106811 -0.00062789278158127898 -0.00018076314023545551 -0.005328624659341764 8.6595422540116916e-05 -0.00023050504567147655 0.00027653946397044297 -1.7717710233654894e-05 0.00052161719330471592 0.00047985688477004485 0.0010192604370945603 0.0016115001113983811 -0.0016402793554165143 0.00038382665772589386 -0.00023955107974928786 -0.00011370246400928746 0.00023813330553948902 0.001078900268400255 0.0026097906404433566 0.0012891336679462643 0.0036623466256974083 0.001491794592073609 -0.003692590293932868 0.0028767548080498441 -0.0013827540439018933 0.0037016123144769228 -0.00040179610417544453 0.0064438838214238613 0.00011566152786372185 0.0020237301300036169
leaf_weight=5267 880 179603 598145 608 289 34564 11461 303394 14399 144438 19077 3669 8609 75193 11804 90698 67110 30796 1754 15821 4724 30415 2325 6786 31769 7705 26754 1938 511 1859
leaf_count=5267 880 179603 598145 608 289 34564 11461 303394 14399 144438 19077 3669 8609 75193 11804 90698 67110 30796 1754 15821 4724 30415 2325 6786 31769 7705 26754 1938 511 1859
internal_value=-4.8964e-06 -0.000116506 -5.93875e-05 0.000809002 0.00187402 0.000603232 3.25013e-05 0.000229746 0.000523749 0.000142697 0.00160775 0.00177145 -0.00104356 -0.000110535 -0.000920895 -0.000455471 0.00031132 0.000502908 -0.00017255 0.00128334 0.00300109 0.00115992 -0.00111552 0.00176713 -0.00154125 0.00303023 -0.000704187 0.00563277 -0.00281778 6.6323e-05
internal_weight=1.73236e+06 1.52349e+06 1.4351e+06 208877 33797 175080 1.1648e+06 489708 169476 447832 31570 30451 88387 675092 83120 270301 132470 97906 599899 37006 5604 41876 69457 22607 34094 11374 35363 2227 1119 13663
internal_count=1732365 1523488 1435101 208877 33797 175080 1164800 489708 169476 447832 31570 30451 88387 675092 83120 270301 132470 97906 599899 37006 5604 41876 69457 22607 34094 11374 35363 2227 1119 13663
is_linear=0
shrinkage=0.03


Tree=26
num_leaves=31
num_cat=0
split_feature=1 1 12 1 11 3 5 5 5 0 17 12 0 18 18 17 0 3 11 3 18 11 18 7 12 0 12 1 3 12
split_gain=164.515 83.6164 54.229 50.0372 38.7098 33.8261 28.4646 24.8362 24.7817 24.057 22.1272 29.1679 25.936 21.7442 16.9058 16.3381 15.5584 15.5107 15.0164 14.5426 14.3611 13.0411 12.8305 12.6919 12.6965 12.4455 18.2383 11.607 11.4625 10.4732
threshold=0.065089326351881041 -0.1099177338182926 -268947.34374999994 0.12218483909964563 0.025516499765217308 -0.04121850058436393 -1.8348500132560728 -1.4193499684333799 -1.3862499594688413 -3.2545455694198604 0.2272012606263161 -34019.257812499993 -3.3528763055801387 -14.644999980926512 12.324999809265138 0.15157840400934222 -2.3118383884429927 0.13818800449371341 0.0021535000996664171 0.042469000443816192 35.924999237060554 0.015735000371932987 -22.244999885559078 -13.635592460632322 -195292.84374999997 -3.549965381622314 -249104.50781249997 0.16538413614034655 0.16294299811124804 -650301.18749999988
decision_type=2 2 2 2 2 2 2 2 2 2 2 2 2 2 2 2 2 2 2 2 2 2 2 2 2 2 2 2 2 2
left_child=1 13 15 5 10 -2 22 20 16 -9 11 -4 -12 -1 23 -3 -7 25 -19 -18 -6 -10 -5 29 -25 26 -8 -24 -29 -15
right_child=3 2 4 6 7 8 17 9 21 -11 12 -13 -14 14 -16 -17 19 18 -20 -21 -22 -23 27 24 -26 -27 -28 28 -30 -31
leaf_value=-0.0029753699635633856 0.0028218273467916434 -0.00083319963437222279 -0.00027294435212860146 -0.0013948476975567774 -0.00025681878295555219 -3.9893337100651722e-06 0.0011587858125149371 0.0017900271775948956 0.00051731081768666848 0.00011130166542549037 0.001341204060865427 0.0004293835686745561 0.00029128659535257749 -0.0015954737851132442 6.4271364544555345e-05 -0.00030379993829310993 -0.00018700354294504739 0.0015617943176397329 0.0041861064932157315 0.0010593294062835399 0.0031349653467637835 0.0016689569084965485 0.00072767963797206066 -0.0021953690210667945 -0.0010172550660949547 0.00075863760086675267 0.0048801880894799986 0.0011116881734622138 0.0030189631082202075 -0.00039457621194613219
leaf_weight=4814 5472 71908 147303 1859 453333 85685 2714 8169 16990 130141 22760 83316 308155 8685 13663 195363 11731 2919 6279 29563 1124 18694 20533 14033 20309 6040 2143 6851 4933 26883
leaf_count=4814 5472 71908 147303 1859 453333 85685 2714 8169 16990 130141 22760 83316 308155 8685 13663 195363 11731 2919 6279 29563 1124 18694 20533 14033 20309 6040 2143 6851 4933 26883
internal_value=-4.74617e-06 -0.000116964 -6.12747e-05 0.000756985 2.78607e-05 0.000501064 0.00154927 -0.000141199 0.000422792 0.000210681 0.000206377 -1.90827e-05 0.000363593 -0.00101229 -0.000898822 -0.000446347 0.000226195 0.00244632 0.0033568 0.000704543 -0.000248357 0.0011215 0.00102088 -0.00108747 -0.00149959 0.00167482 0.00280758 0.00116081 0.00191284 -0.000688692
internal_weight=1.73236e+06 1.50996e+06 1.42157e+06 222406 1.1543e+06 168135 54271 592767 162663 138310 561534 230619 330915 88387 83573 267271 126979 20095 9198 41294 454457 35684 34176 69910 34342 10897 4857 32317 11784 35568
internal_count=1732365 1509959 1421572 222406 1154301 168135 54271 592767 162663 138310 561534 230619 330915 88387 83573 267271 126979 20095 9198 41294 454457 35684 34176 69910 34342 10897 4857 32317 11784 35568
is_linear=0
shrinkage=0.03


Tree=27
num_leaves=31
num_cat=0
split_feature=1 1 12 5 3 17 5 17 3 16 11 11 1 18 16 3 18 12 18 3 16 18 11 12 3 1 18 18 1 14
split_gain=154.947 79.8897 49.262 45.4286 32.9813 29.3049 28.0968 25.2916 23.0533 21.4778 20.1483 19.996 19.6781 19.2667 18.6739 17.548 17.0263 15.8852 15.1956 12.1162 12.0631 12.0076 11.757 11.5041 10.904 10.3176 10.2441 10.0704 13.0592 9.59564
threshold=0.067563746124506011 -0.085844326764345155 -114126.36328124999 -1.8107500076293943 0.12188749760389329 0.15157840400934222 -1.8107500076293943 0.11657702550292016 -0.027127499692142006 -0.067214224487543092 0.028065999969840053 0.023803499527275566 0.16538413614034655 -22.244999885559078 -0.2791497260332107 -0.058716999366879456 -19.295000076293942 -273105.51562499994 35.924999237060554 -0.12144000083208083 -0.32155685126781458 18.464999198913578 0.0062235000077635058 -44324.314453124993 0.16294299811124804 0.22000194340944293 17.175000190734867 12.324999809265138 -0.20885167270898816 -0.11783029511570929
decision_type=2 2 2 2 2 2 2 2 2 2 2 2 2 2 2 2 2 2 2 2 2 2 2 2 2 2 2 2 2 2
left_child=1 7 5 12 8 26 11 16 -5 10 -7 -4 15 -14 -6 -2 -1 -17 -13 -11 -10 -9 -16 -8 -15 -24 -3 28 -18 -22
right_child=3 2 6 4 14 9 23 21 20 19 -12 18 13 24 22 17 27 -19 -20 -21 29 -23 25 -25 -26 -27 -28 -29 -30 -31
leaf_value=-0.003961851297498418 0.0029053896807373762 -0.0006950870227061661 0.00020886867524505661 0.0033962373333704427 0.00064560163643947652 -2.8720754560911454e-05 0.00021452529250977923 -0.0003286637012979097 0 0.0031930800541782713 -0.00047842722903647161 -0.00020607332677181396 -0.0029401561914241029 0.0010791210861069431 0.0018461057893464832 -0.00033670828876557435 -0.0019961311285877346 0.00046215132008502126 0.0039643268407201912 0.00014224863358912261 0.00144800543119445 0.0017939433480742386 0.0034362096526224743 0.00060839441433474799 0.0029291889871406584 0.0066747790540102863 0.00095837579451212311 -0.00027080287954500475 -0.00097427342098013367 0.00055225568430623828
leaf_weight=1817 2303 121112 190921 3526 3366 173642 195180 40898 10953 1181 185734 264923 799 6925 3898 29927 13767 88705 787 148318 28376 2544 6494 101734 4990 1056 3453 13700 63777 17559
leaf_count=1817 2303 121112 190921 3526 3366 173642 195180 40898 10953 1181 185734 264923 799 6925 3898 29927 13767 88705 787 148318 28376 2544 6494 101734 4990 1056 3453 13700 63777 17559
internal_value=-4.5993e-06 -0.000109672 -4.14967e-05 0.000761626 0.00135151 -0.000236517 0.0001224 -0.000802169 0.0010396 -0.000135486 -0.000261224 -2.5255e-05 0.000429361 0.00155261 0.00262134 0.000311012 -0.00108125 0.000260371 -0.000193593 0.000166571 0.000892953 -0.000203633 0.00319953 0.000349582 0.00185663 0.00389398 -0.000649004 -0.00102351 -0.0011561 0.00110627
internal_weight=1.73236e+06 1.52349e+06 1.38698e+06 208877 75228 633440 753545 136503 60414 508875 359376 456631 133649 12714 14814 120935 93061 118632 265710 149499 56888 43442 11448 296914 11915 7550 124565 91244 77544 45935
internal_count=1732365 1523488 1386985 208877 75228 633440 753545 136503 60414 508875 359376 456631 133649 12714 14814 120935 93061 118632 265710 149499 56888 43442 11448 296914 11915 7550 124565 91244 77544 45935
is_linear=0
shrinkage=0.03


Tree=28
num_leaves=31
num_cat=0
split_feature=1 1 1 5 19 0 3 5 18 3 11 0 18 11 0 3 0 0 17 11 1 18 9 11 17 18 0 19 1 3
split_gain=145.943 74.5793 45.3077 37.028 32.367 36.7599 30.4235 23.2662 19.9374 18.1118 20.1846 16.172 14.9307 14.8524 13.559 13.7346 13.3555 15.0657 36.4404 18.4572 13.3096 13.0747 12.4801 12.123 11.2807 9.13034 9.78335 8.7777 8.24314 8.06062
threshold=0.065089326351881041 -0.1099177338182926 0.12218483909964563 -2.9078500270843501 -0.56900000572204579 -3.4151766300201412 -0.056117998436093323 -1.3862499594688413 -14.194999694824217 0.12188749760389329 0.0021535000996664171 -4.0681135654449454 12.795000076293947 0.046982500702142722 -2.3118383884429927 0.042469000443816192 -7.0234062671661368 -2.9173097610473628 0.25700931251049047 0.021898499689996246 0.18519944697618487 -32.42499923706054 0.25118549168109899 0.024689499288797382 0.2879836112260819 20.085000038146976 -1.0000000180025095e-35 14.234000205993654 -0.20885167270898816 0.097522500902414336
decision_type=2 2 2 2 2 2 2 2 2 2 2 2 2 2 2 2 2 2 2 2 2 2 2 2 2 2 2 2 2 2
left_child=1 8 6 13 9 20 -2 14 28 -4 21 -12 22 24 -8 -16 -5 18 -18 -19 -6 -11 -10 -9 -3 26 -15 -14 -1 -7
right_child=2 3 4 16 5 29 7 23 12 10 11 -13 27 25 15 -17 17 19 -20 -21 -22 -23 -24 -25 -26 -27 -28 -29 -30 -31
leaf_value=-0.0045659438476794816 0.0032200324529400911 -0.0003009632668937467 0.00056170318529508861 -0.0035138910142991416 0.0036038218149097162 -0.0007896956166124991 7.7251795570536735e-06 0.00061060802922068751 -0.0013623413661660096 -0.004250682320441841 0.0009473790302419559 0.0029749528926972992 -0.00022582250287928854 -0.00049759826049276053 -0.00019632220510328678 0.0010131523588064297 -3.9149915291179309e-05 0.00014984245375426701 0.00078298843751082019 -0.00014575382628856932 0.0068923216795491763 0.00076349451691236662 -0.00055052261984743294 0.0017261088045900284 9.9763324974038619e-05 0.0015367788876133489 -0.0058843075852902209 0.0020083293293478755 -0.0019519974208263334 0.0022413885556108399
leaf_weight=1591 3545 153169 22917 946 2886 1574 87090 20893 40084 502 5262 11152 11264 186915 11778 29563 125287 349508 79124 416820 1875 6539 29933 15266 107518 1981 304 1839 3676 1564
leaf_count=1591 3545 153169 22917 946 2886 1574 87090 20893 40084 502 5262 11152 11264 186915 11778 29563 125287 349508 79124 416820 1875 6539 29933 15266 107518 1981 304 1839 3676 1564
internal_value=-4.45654e-06 -0.000110152 0.000712991 -5.75564e-05 0.00146691 0.00324408 0.000469453 0.000410008 -0.000955716 0.00116348 0.00175012 0.00232688 -0.000841753 -0.000282581 0.000220452 0.000667852 4.65987e-05 5.0103e-05 0.000278941 -1.08987e-05 0.00490639 0.000401187 -0.00101572 0.00108243 -0.000135572 -0.000484976 -0.000506537 8.55796e-05 -0.002748 0.000711692
internal_weight=1.73236e+06 1.50996e+06 222406 1.42157e+06 54271 7899 168135 164590 88387 46372 23455 16414 83120 449887 128431 41341 971685 970739 204411 766328 4761 7041 70017 36159 260687 189200 187219 13103 5267 3138
internal_count=1732365 1509959 222406 1421572 54271 7899 168135 164590 88387 46372 23455 16414 83120 449887 128431 41341 971685 970739 204411 766328 4761 7041 70017 36159 260687 189200 187219 13103 5267 3138
is_linear=0
shrinkage=0.03


Tree=29
num_leaves=31
num_cat=0
split_feature=1 12 1 5 17 3 0 17 5 5 12 11 16 0 18 15 14 16 12 0 11 16 18 0 17 16 17 12 18 17
split_gain=137.385 73.2924 44.6054 34.2931 31.5804 29.9996 28.706 29.519 25.6267 22.8025 22.3367 21.6314 18.1818 23.9807 18.9318 18.3031 17.0708 15.1395 14.2531 13.5232 13.1189 13.4161 13.0913 17.3254 12.9113 12.1054 11.7505 11.2277 10.5959 10.2193
threshold=0.062736507505178465 -268947.34374999994 0.12218483909964563 -1.8107500076293943 0.11265076696872713 -0.056117998436093323 -2.9173097610473628 0.21963693201541903 -2.7849500179290767 -1.3862499594688413 -58093.291015624993 0.024207999929785732 -0.0805026739835739 -3.1278917789459224 -11.65499973297119 -0.085596058517694459 -0.97365033626556385 -0.31824019551277155 -52181.525390624993 -2.1012604236602779 0.023803499527275566 -0.11509126797318457 35.924999237060554 -1.0000000180025095e-35 0.2155856862664223 -0.04917642101645469 1.0000000180025095e-35 -1.0000000180025095e-35 17.175000190734867 0.1556016877293587
decision_type=2 2 2 2 2 2 2 2 2 2 2 2 2 2 2 2 2 2 2 2 2 2 2 2 2 2 2 2 2 2
left_child=1 4 5 11 28 -2 7 18 -4 19 24 16 26 14 -14 -15 -3 -9 -5 -7 -11 -22 23 -13 -8 -6 -10 -24 -1 -18
right_child=2 3 8 6 25 9 10 17 12 20 -12 22 13 15 -16 -17 29 -19 -20 -21 21 -23 27 -25 -26 -27 -28 -29 -30 -31
leaf_value=-0.0011094729061219694 0.0030717724084743611 -0.001152280317393165 0.00062223417592466117 -8.4496754804340326e-05 -0.00045659041319947517 3.4793836175792659e-05 -0.00054481432521523248 0.00037755108985348121 -0.0052979092058008425 0.00054398061324653928 0.00040935675165011318 -0.00028719166202255517 0.00074453570940378165 0.0027646928763059046 0.0039964545728584048 0.00020067207699031082 -0.00010076653501066492 0.0018912012442761903 0.0014097500400028931 0.00072134909194006887 0.00060630556998138958 0.0023359205152401912 0.00056546706227191652 -0.0057179508211886295 2.7978831816276278e-05 8.8698923822352218e-05 0.001125330051900447 0.0059578432222592535 0.00049456294976777369 0.00025221926860787751
leaf_weight=77685 3826 10259 21700 29997 173270 104469 41531 8301 260 22396 138072 398281 1980 4739 9255 5374 134874 21463 7097 34343 6743 10265 1013 529 240083 46356 10963 540 3865 162836
leaf_count=77685 3826 10259 21700 29997 173270 104469 41531 8301 260 22396 138072 398281 1980 4739 9255 5374 134874 21463 7097 34343 6743 10265 1013 529 240083 46356 10963 540 3865 162836
internal_value=-4.32068e-06 -0.000110518 0.000667863 -5.07153e-06 -0.000528761 0.000442575 0.000188821 0.000766222 0.00142298 0.000385945 9.67653e-05 -0.000138296 0.00195551 0.00247034 0.00342614 0.00140531 5.06457e-05 0.00147009 0.000200611 0.000204872 0.00102304 0.00165204 -0.00028371 -0.000294485 -5.63889e-05 -0.000341361 0.000973393 0.0024624 -0.00103308 9.22026e-05
internal_weight=1.73236e+06 1.49605e+06 236313 1.19488e+06 301176 182042 486544 66858 54271 178216 419686 708332 32571 21348 11235 10113 307969 29764 37094 138812 39404 17008 400363 398810 281614 219626 11223 1553 81550 297710
internal_count=1732365 1496052 236313 1194876 301176 182042 486544 66858 54271 178216 419686 708332 32571 21348 11235 10113 307969 29764 37094 138812 39404 17008 400363 398810 281614 219626 11223 1553 81550 297710
is_linear=0
shrinkage=0.03


Tree=30
num_leaves=31
num_cat=0
split_feature=1 1 12 5 5 1 19 11 12 18 17 18 1 18 18 12 12 14 15 12 17 19 12 14 12 15 15 2 1 19
split_gain=133.557 70.953 52.3783 38.7128 34.2556 32.2331 26.8403 25.5095 20.45 19.7706 15.3238 15.0334 14.9023 13.037 12.6466 12.45 12.3476 11.9906 11.1609 12.5092 8.93754 8.53852 8.37983 7.0107 6.91577 8.7367 6.3459 6.10175 5.70026 6.00847
threshold=0.072823856025934233 -0.12570912390947339 -429122.01562499994 -2.7632499933242793 -1.7991500496864317 0.12772612273693087 2.0249999761581425 0.025516499765217308 -64470.339843749993 8.5850000381469744 0.20082495361566546 -20.865000724792477 -0.20885167270898816 -9.5850000381469709 35.924999237060554 -418601.60937499994 -334358.24999999994 -0.90776708722114552 -0.049607696011662476 -58093.291015624993 0.070856090635061278 14.234000205993654 -57292.572265624993 -0.91834065318107594 -231937.50781249997 -0.12448665127158164 -0.053763467818498605 0.71070984005928051 0.12772612273693087 -19.862999916076657
decision_type=2 2 2 2 2 2 2 2 2 2 2 2 2 2 2 2 2 2 2 2 2 2 2 2 2 2 2 2 2 2
left_child=1 9 20 24 7 15 11 17 10 12 -6 23 13 -1 -9 -5 -13 -4 22 -20 -3 -11 -17 -7 25 -2 -10 -8 -26 -30
right_child=3 2 4 5 8 6 27 14 26 21 -12 16 -14 -15 -16 18 -18 -19 19 -21 -22 -23 -24 -25 28 -27 -28 -29 29 -31
