tree
version=v4
num_class=1
num_tree_per_iteration=1
label_index=0
max_feature_idx=34
objective=regression
feature_names=Column_0 Column_1 Column_2 Column_3 Column_4 Column_5 Column_6 Column_7 Column_8 Column_9 Column_10 Column_11 Column_12 Column_13 Column_14 Column_15 Column_16 Column_17 Column_18 Column_19 Column_20 Column_21 Column_22 Column_23 Column_24 Column_25 Column_26 Column_27 Column_28 Column_29 Column_30 Column_31 Column_32 Column_33 Column_34
feature_infos=[-553.50921630859375:0] [-1.0814718008041382:0.51986825466156006] [0:1] [-3.442579984664917:0.43629199266433716] [-200:0] [-50:0] [-50:0] [-19.499210357666016:-10.139351844787598] [-5:5] [-5:5] [-0.9925839900970459:5] [-1:1] [-20460476:0] none [-1:0] [-1:0] [-0.8896641731262207:0.84311604499816895] [0:1] [-100:100] [-79.875999450683594:74.648002624511719] [-1:inf] [0:20] [0:12.101916313171387] [-282.4925537109375:74.835639953613281] [0:10.688270568847656] [0:5] [-0.28551909327507019:0.38293147087097168] [0:3] [-0.33215045928955078:0.10273972898721695] [0:6380.17529296875] [8.1629159467411228e-06:0.99988967180252075] [0:13.998739242553711] [-0.69627523422241211:0.24965140223503113] [0:5.8462629318237305] [0:27.881349563598633]
tree_sizes=2244 2425 2395 2402 2392 2415 2422 2430 2419 2419 2396 2409 2398 2410 2423 2436 2401 2411 2413 2427 2414 2421 2420 2416 2404 2423 2427 2402 2414 2398 2423 2420 2440 2410 2438 2401 2420 2419 2406 2430 2424 2416 2431 2417 2378 2388 2418 2442 2423 2402 2426 2396 2412 2426 2409 2439 2427 2429 2432 2427 2434 2397 2435 2422 2412 2332 2397 2395 2392 2403 2417 2439 2410 2394 2415 2361 2437 2441 2426 2438 2395 2419 2375 2393

Tree=0
num_leaves=23
num_cat=0
split_feature=34 31 34 34 34 28 31 31 16 16 31 23 28 23 22 18 31 28 31 34 31 16
split_gain=474.376 102.997 69.8902 36.3808 30.4665 26.7725 24.9406 23.101 21.674 20.708 18.902 15.1018 13.1152 13.0736 12.4259 10.2274 6.90826 5.92318 5.12173 5.0618 4.83587 4.341
threshold=2.917464137077332 1.8432987332344057 1.7874818444252016 4.1158256530761728 5.0258810520172128 -0.042019193992018693 2.4836579561233525 1.8432987332344057 -0.44289810955524439 -0.31264685094356531 3.8828147649765019 -0.060600683093070977 -0.014775526244193314 0.11539975553750993 0.33723644912242895 -0.14299942553043363 5.1264526844024667 0.076586998999118819 2.4836579561233525 3.8340218067169194 5.1264526844024667 -0.68718889355659474
decision_type=2 2 2 2 2 2 2 2 2 2 2 2 2 2 2 2 2 2 2 2 2 2
left_child=2 3 5 11 10 14 9 8 -7 21 19 -2 15 -11 -1 -5 -8 -9 -6 -3 -12 -4
right_child=1 4 6 12 18 7 16 17 -10 13 20 -13 -14 -15 -16 -17 -18 -19 -20 -21 -22 -23
leaf_value=0.49548822196716052 0.50055155545145313 0.4991157923615222 0.49931778137733818 0.49652395565331764 0.49796892228626072 0.50009744949797086 0.49932220411324063 0.49979015481136618 0.50054037972936127 0.50042501272856199 0.49803800611412019 0.49962901179128411 0.49918941084589119 0.50006526155756104 0.4991785501089937 0.49857256499922642 0.49756895949220659 0.49778831358308234 0.49701445921284565 0.4985421693409145 0.49660866132735371 0.49986027497393853
leaf_weight=502 7832 16131 6902 1216 5317 48097 10372 13830 495188 73246 3895 65353 25229 89582 1745 8453 1060 638 6292 12245 1760 55738
leaf_count=502 7832 16131 6902 1216 5317 48097 10372 13830 495188 73246 3895 65353 25229 89582 1745 8453 1060 638 6292 12245 1760 55738
internal_value=0.500153 0.499136 0.500349 0.499474 0.498338 0.500471 0.500061 0.50048 0.500501 0.500108 0.498647 0.499729 0.498941 0.500226 0.498301 0.498303 0.49915 0.499694 0.497442 0.498864 0.497573 0.499799
internal_weight=950623 153723 796900 108083 45640 560000 236900 557753 543285 225468 34031 73185 34898 162828 2247 9669 11432 14468 11609 28376 5655 62640
internal_count=950623 153723 796900 108083 45640 560000 236900 557753 543285 225468 34031 73185 34898 162828 2247 9669 11432 14468 11609 28376 5655 62640
is_linear=0
shrinkage=1


Tree=1
num_leaves=23
num_cat=0
split_feature=34 31 0 23 31 34 34 32 31 12 30 31 12 11 30 30 30 18 0 1 0 0
split_gain=455.988 89.83 87.6497 55.6447 36.4936 33.0579 22.0269 20.8517 18.7045 18.6323 18.1122 15.2847 15.2664 14.2516 12.5373 9.98383 9.60838 9.14685 8.8415 7.85201 7.64853 6.35095
threshold=3.1068083047866826 1.9544650912284853 -2.1462663412094112 0.065189659595489516 1.8432987332344057 4.8700876235961923 5.0258810520172128 -0.061346763744950288 4.3355991840362558 -402366.85937499994 0.42939472198486334 5.1264526844024667 -195706.00781249997 0.029516000300645832 0.10377449542284013 0.45728759467601782 0.96199631690979015 -0.083275027573108659 -3.2381389141082759 0.062827985733747496 -1.51793897151947 -2.6832252740859981
decision_type=2 2 2 2 2 2 2 2 2 2 2 2 2 2 2 2 2 2 2 2 2 2
left_child=2 5 3 7 13 12 11 19 9 -5 -9 18 14 20 -2 -14 -15 -7 -3 -1 -4 -10
right_child=1 6 4 8 -6 17 -8 10 21 -11 -12 -13 15 16 -16 -17 -18 -19 -20 -21 -22 -23
leaf_value=0.00038975788874500957 -2.6305376506871646e-05 -0.0019170287947711188 0.00040110008781405078 -0.00060787319464729751 -0.00040170231107304144 -0.0026800639308949326 -0.0027276059363891764 0.00036748910571567312 -0.0028007078187059589 -0.00014754657349256518 -0.00012029995443676002 -0.0036052533594073412 0.00035401298644618565 0.00030812910543283627 -0.00099728102552686581 -0.0004543524334325444 -0.00035093857062032163 -0.0013408446053652259 -0.0011264282778062184 0.00095940065063844905 0.00063616331031068787 -0.00048609657343158096
leaf_weight=28416 6533 11328 121703 45232 23511 2573 10494 52686 1555 162938 71723 1529 7740 177814 34724 27190 9167 15841 13455 15542 108078 851
leaf_count=28416 6533 11328 121703 45232 23511 2573 10494 52686 1555 162938 71723 1529 7740 177814 34724 27190 9167 15841 13455 15542 108078 851
internal_value=-4.55301e-06 -0.00109832 0.000170777 -5.19798e-05 0.000362729 -0.000770322 -0.00193842 0.000218728 -0.0002689 -0.000248061 8.54767e-05 -0.0016194 -0.000584324 0.000406097 -0.000845973 -0.000272342 0.000275274 -0.00153408 -0.00149215 0.000593524 0.000512109 -0.00202621
internal_weight=950623 131407 819216 378943 440273 94601 36806 168367 210576 208170 124409 26312 76187 416762 41257 34930 186981 18414 24783 43958 229781 2406
internal_count=950623 131407 819216 378943 440273 94601 36806 168367 210576 208170 124409 26312 76187 416762 41257 34930 186981 18414 24783 43958 229781 2406
is_linear=0
shrinkage=0.02


Tree=2
num_leaves=23
num_cat=0
split_feature=34 7 0 31 7 34 34 7 22 23 29 31 31 7 29 22 0 1 31 10 7 7
split_gain=438.42 148.66 113.98 95.3573 33.9336 28.1507 28.098 26.2928 24.4138 24.3047 15.7247 15.456 14.4378 14.2313 11.9844 10.7205 10.3239 9.77596 9.4724 9.4298 7.68596 6.57587
threshold=2.917464137077332 -12.639728069305418 -2.3336668014526363 1.8432987332344057 -12.298110008239744 4.3777868747711191 4.8700876235961923 -13.120963573455809 1.8389957547187807 0.10209073871374132 0.0010510082356631758 5.1264526844024667 4.3355991840362558 -13.44075298309326 0.0069147835019975909 1.4652191996574404 -3.2381389141082759 0.043451396748423583 2.4836579561233525 0.073714997619390502 -11.807313919067381 -11.574941635131834
decision_type=2 2 2 2 2 2 2 2 2 2 2 2 2 2 2 2 2 2 2 2 2 2
left_child=1 2 7 4 6 11 19 12 13 14 -9 16 -1 -4 17 -11 -5 -3 -7 -2 -16 -6
right_child=3 9 8 5 21 18 -8 10 -10 15 -12 -13 -14 -15 20 -17 -18 -19 -20 -21 -22 -23
leaf_value=-0.00041500764263362004 -0.00079378631530001374 0.00095738614229767891 0.00019785578881670974 -0.0017275381623320975 0.00028917565753975303 -0.0018313836091616009 -0.0015393234163268339 0.00026494032295227974 -0.0004231390629739866 0.00054590062344406622 -0.00037635328798782972 -0.0034130881423764582 -0.0026070305822159761 0.00045132557184759194 0.00045234663125556736 -0.00018544283860681498 -0.00088513577788026183 0.0015481470283021522 -0.002802984953474758 -0.00034872502535071369 0.0015937477562832042 0.0022208720005952231
leaf_weight=167581 49537 51080 251122 10114 9071 8367 16054 43071 20173 49382 23666 1408 1224 139074 23027 9341 15820 15423 9931 32633 2736 788
leaf_count=167581 49537 51080 251122 10114 9071 8367 16054 43071 20173 49382 23666 1408 1224 139074 23027 9341 15820 15423 9931 32633 2736 788
internal_value=-4.48049e-06 0.000184057 5.18166e-05 -0.000982485 -0.000657258 -0.00175033 -0.00076991 -0.000298665 0.000253229 0.000749083 3.6018e-05 -0.0013351 -0.000431571 0.000288459 0.00095241 0.000427858 -0.00121779 0.001096 -0.00236479 -0.000618284 0.000577729 0.000454756
internal_weight=950623 796900 645911 153723 108083 45640 98224 235542 410369 150989 66737 27342 168805 390196 92266 58723 25934 66503 18298 82170 25763 9859
internal_count=950623 796900 645911 153723 108083 45640 98224 235542 410369 150989 66737 27342 168805 390196 92266 58723 25934 66503 18298 82170 25763 9859
is_linear=0
shrinkage=0.02


Tree=3
num_leaves=23
num_cat=0
split_feature=34 7 34 22 34 23 3 7 22 34 22 22 7 22 7 26 18 7 23 34 10 30
split_gain=425.812 149.672 81.4803 77.5906 41.1231 39.6119 25.4497 21.812 20.9606 18.154 13.4891 13.3888 12.9205 11.6889 11.186 11.1112 10.213 9.52226 8.98338 8.8362 7.70937 7.20486
threshold=3.1068083047866826 -12.858014583587645 1.5755225419998171 2.0418553352355961 4.8700876235961923 0.05021877400577069 0.038243500515818603 -12.811564922332762 1.8743458390235903 4.8700876235961923 1.9933652281761172 2.5233781337738042 -12.370059967041014 4.6414194107055673 -12.370059967041014 -0.081377297639846788 -0.13653590530157086 -13.596764564514158 -0.057924298569560044 2.2826091051101689 0.086155001074075713 0.069525808095932021
decision_type=2 2 2 2 2 2 2 2 2 2 2 2 2 2 2 2 2 2 2 2 2 2
left_child=1 2 6 4 7 12 10 20 14 13 -1 19 -3 -5 -7 -13 -6 -8 -9 -4 -2 -18
right_child=3 5 11 9 16 8 17 18 -10 -11 -12 15 -14 -15 -16 -17 21 -19 -20 -21 -22 -23
leaf_value=0.00029425259542198548 -0.00096789592733150832 0.00071168702779360901 -0.0001612226651885541 -0.0014855865364599679 -0.0030963844590560807 0.0002881749509101638 -0.0003217744226246056 0.00097638620056308913 -0.00058587277917556888 -0.0027471010114120896 -0.00074768244462275707 -0.0036134985030256495 0.0011734847164276405 -0.0034243993662957791 0.000719184794934811 -0.00083961492850345503 8.1720677950206407e-06 0.0001264923223142533 -0.00020369596444494678 -0.00042428161856830529 -0.00048907686508581805 -0.0015317607556185103
leaf_weight=281796 36468 65546 137512 18750 1737 74491 44863 2993 8659 8814 5002 648 40635 1431 36622 8329 1162 32422 18261 83187 23106 18656
leaf_count=281796 36468 65546 137512 18750 1737 74491 44863 2993 8659 8814 5002 648 40635 1431 36622 8329 1162 32422 18261 83187 23106 18656
internal_value=0 0.000169439 2.55449e-06 -0.00105701 -0.000796648 0.000607527 0.000188804 -0.000587614 0.000356775 -0.00197263 0.000275719 -0.000292252 0.000889404 -0.00162883 0.000431158 -0.00105288 -0.00157554 -0.000132431 -3.26217e-05 -0.000260837 -0.000783919 -0.00143645
internal_weight=951090 819712 593759 131378 102383 225953 364083 80828 119772 28995 286798 229676 106181 20181 111113 8977 21555 77285 21254 220699 59574 19818
internal_count=951090 819712 593759 131378 102383 225953 364083 80828 119772 28995 286798 229676 106181 20181 111113 8977 21555 77285 21254 220699 59574 19818
is_linear=0
shrinkage=0.02


Tree=4
num_leaves=23
num_cat=0
split_feature=34 31 0 23 22 34 30 12 34 31 1 30 12 30 31 30 0 23 30 0 23 34
split_gain=409.005 82.3147 81.2707 44.3704 36.7269 35.8341 22.0796 28.6201 17.9881 17.5824 13.8602 13.2369 14.9586 12.5157 12.3977 12.1726 10.7994 7.58934 7.31712 6.44404 5.61306 5.38387
threshold=3.1068083047866826 2.1986054182052617 -2.3336668014526363 0.11930871009826662 1.4229106307029726 4.8700876235961923 0.55905872583389293 -276733.71874999994 4.3777868747711191 4.3355991840362558 0.074117250740528121 0.11695807427167894 -195706.00781249997 0.35220281779766088 5.1264526844024667 0.93215373158454906 -1.4881541132926939 0.40237507224082952 0.069525808095932021 -2.9835760593414302 0.078095752745866789 6.0069169998168954
decision_type=2 2 2 2 2 2 2 2 2 2 2 2 2 2 2 2 2 2 2 2 2 2
left_child=2 5 3 6 15 11 7 -1 14 13 -8 20 -13 -5 -3 16 -4 -6 -7 -11 -2 -20
right_child=1 8 4 9 17 18 10 -9 -10 19 -12 12 -14 -15 -16 -17 -18 -19 21 -21 -22 -23
leaf_value=-9.7478152654291677e-05 0.00090664349394312918 -0.001340169725270148 0.00033074532311002665 -3.2436347875461679e-05 8.6076962975045218e-06 0 -0.00023599227049674133 0.00059176472673351554 -0.0025290025068017041 -0.0032319500394692459 0.00044082746044698363 -0.00095645272293952909 -0.00037125137563022599 -0.00044025731473142083 -0.0035592299856676449 -5.85359304365225e-05 0.00054138822025394493 -0.00048480896716816862 -0.001334983246385717 -0.00087482522647385267 -0.00017033689639236628 -0.0020798007831536619
leaf_weight=38926 2623 14936 238139 44406 44706 1330 67782 62315 13251 1112 14654 36052 35416 97159 1148 22164 170207 17087 12610 1055 7063 6949
leaf_count=38926 2623 14936 238139 44406 44706 1330 67782 62315 13251 1112 14654 36052 35416 97159 1148 22164 170207 17087 12610 1055 7063 6949
internal_value=0 -0.00103596 0.000166045 -7.79025e-05 0.000328487 -0.000765871 0.000127659 0.000325779 -0.00197177 -0.000341284 -0.000114447 -0.000573666 -0.000667901 -0.000313044 -0.00150583 0.000393989 0.000418796 -0.000126242 -0.00150748 -0.00213508 0.000111311 -0.00160518
internal_weight=951090 131378 819712 327409 492303 102043 183677 101241 29335 143732 82436 81154 71468 141565 16084 430510 408346 61793 20889 2167 9686 19559
internal_count=951090 131378 819712 327409 492303 102043 183677 101241 29335 143732 82436 81154 71468 141565 16084 430510 408346 61793 20889 2167 9686 19559
is_linear=0
shrinkage=0.02


Tree=5
num_leaves=23
num_cat=0
split_feature=34 34 22 34 12 22 16 22 17 34 23 16 12 17 11 29 22 26 22 34 12 17
split_gain=392.878 75.7224 71.9988 41.4613 27.3195 26.1378 21.2009 15.3978 15.2322 14.5501 13.684 11.8828 11.7545 16.6752 11.5346 10.1202 9.61888 9.54845 9.17373 6.98586 6.18144 4.99824
threshold=3.1068083047866826 1.7757461667060854 2.2117919921875004 4.8700876235961923 -265232.84374999994 2.5233781337738042 -0.38058486580848688 1.9933652281761172 0.71117302775383007 4.8700876235961923 0.05021877400577069 -0.52145579457283009 -195706.00781249997 0.10786807164549829 0.01136399991810322 0.14521523565053943 4.6414194107055673 -0.077056404203176485 1.155674993991852 6.0069169998168954 -553579.78124999988 0.46786436438560491
decision_type=2 2 2 2 2 2 2 2 2 2 2 2 2 2 2 2 2 2 2 2 2 2
left_child=1 4 3 12 11 6 20 14 17 16 -8 -1 13 -2 -6 -13 21 -7 -14 -5 -3 -4
right_child=2 5 9 19 7 8 10 -9 -10 -11 -12 15 18 -15 -16 -17 -18 -19 -20 -21 -22 -23
leaf_value=-0.00048833455884916767 -0.0011503772240135316 -0.00079130178885080987 -0.0015764102451322095 -0.0012606227073002024 0.00054344218056108073 -0.0033315944934696386 0.00028095204052392845 -0.00046705825959949626 0.0016711199291314122 -0.0027715761516265269 -8.3790541080703797e-05 4.2825560473642294e-05 -8.7366044806384474e-06 -0.00036802030865896838 0.00031652683179141236 0.00064248707056182241 -0.0032931590790394693 -0.0010459038094235451 -0.00062771645734228758 -0.0020226004419857859 -0.00029205591052075173 0.00021861379551912913
leaf_weight=14972 25113 13285 14836 14573 134289 839 59206 8453 742 7312 134388 102271 19226 20095 283554 12722 1431 10182 19763 8484 44809 545
leaf_count=14972 25113 13285 14836 14573 134289 839 59206 8453 742 7312 134388 102271 19226 20095 283554 12722 1431 10182 19763 8484 44809 545
internal_value=0 0.000162714 -0.00101535 -0.000791694 0.000295053 -0.000116331 -7.28268e-05 0.000372471 -0.00103825 -0.00200522 2.72449e-05 4.03414e-05 -0.000583942 -0.00080491 0.000389699 0.000110062 -0.00166523 -0.00123041 -0.000325094 -0.00154571 -0.000408003 -0.00150626
internal_weight=951090 819712 131378 107254 556261 263451 251688 426296 11763 24124 193594 129965 84197 45208 417843 114993 16812 11021 38989 23057 58094 15381
internal_count=951090 819712 131378 107254 556261 263451 251688 426296 11763 24124 193594 129965 84197 45208 417843 114993 16812 11021 38989 23057 58094 15381
is_linear=0
shrinkage=0.02


Tree=6
num_leaves=23
num_cat=0
split_feature=34 7 34 34 23 3 7 17 7 32 17 7 29 7 32 34 10 1 7 18 23 26
split_gain=366.509 145.714 78.2568 62.3262 23.2767 22.1646 21.7325 20.3201 17.3718 16.5838 16.467 16.3824 15.0943 11.7229 11.2375 10.7149 10.0928 9.77292 7.87196 5.39598 5.38774 5.34192
threshold=3.1068083047866826 -12.618583202362059 1.7757461667060854 4.8700876235961923 0.17732046544551852 0.041377499699592597 -12.11839723587036 0.19543725252151492 -13.461341857910154 0.088809929788112654 0.11564799025654794 -13.596764564514158 0.0017156142275780442 -13.184837341308592 0.12152945995330812 6.0069169998168954 0.086155001074075713 0.048611609265208251 -11.807313919067381 -0.10804804414510726 0.18203156441450122 0.0071019399911165246
decision_type=2 2 2 2 2 2 2 2 2 2 2 2 2 2 2 2 2 2 2 2 2 2
left_child=1 2 5 6 12 9 10 14 -9 -1 16 -7 17 -12 -4 19 -2 -3 -14 -5 -8 -6
right_child=3 4 7 15 21 11 20 8 -10 -11 13 -13 18 -15 -16 -17 -18 -19 -20 -21 -22 -23
leaf_value=0.000290557715806086 -0.0011638240630388033 0.00092199433812195815 -0.00038716042793815285 -0.002529235688803901 0.00044684058177430044 -0.00037936563445029292 0.0011656805121544665 -0.00026263297917095591 0.00030850109369313824 -0.00014792149805301381 -0.00063199311127309899 0.0001656241415423644 0.00042462324798000448 0.00030860929511025757 -0.00095705772922125986 -0.0022851427794746662 -0.00064852109951487572 0.0015262112466985112 0.0014347209359248704 -0.0013424997624811184 -0.0001037814958394858 -6.7101410177490965e-05
leaf_weight=337786 43079 61525 93950 1948 27394 44040 2583 65248 31520 38107 20210 43915 32161 7020 16633 11315 25333 13820 3537 16731 2497 11028
leaf_count=337786 43079 61525 93950 1948 27394 44040 2583 65248 31520 38107 20210 43915 32161 7020 16633 11315 25333 13820 3537 16731 2497 11028
internal_value=3.50696e-06 0.00016028 3.43621e-05 -0.000979954 0.000725049 0.000178883 -0.000739872 -0.000288447 -7.55592e-05 0.000245838 -0.000807994 -0.000106127 0.000872329 -0.000385818 -0.000473823 -0.00178258 -0.00097453 0.00103424 0.000527693 -0.00147226 0.000522541 0.000296736
internal_weight=951380 820664 671199 130716 149465 463848 100722 207351 96768 375893 95642 87955 111043 27230 110583 29994 68412 75345 35698 18679 5080 38422
internal_count=951380 820664 671199 130716 149465 463848 100722 207351 96768 375893 95642 87955 111043 27230 110583 29994 68412 75345 35698 18679 5080 38422
is_linear=0
shrinkage=0.02


Tree=7
num_leaves=23
num_cat=0
split_feature=3 7 17 17 12 12 23 17 7 3 17 7 7 32 21 33 17 7 32 16 26 17
split_gain=242.757 146.136 74.3676 46.3809 42.7269 36.4059 35.6084 24.1171 20.0048 24.9098 18.1916 17.9979 17.3898 17.0148 13.6689 11.587 10.4335 9.73961 9.20775 7.43674 7.37099 7.65698
threshold=-0.058987000957131379 -12.811564922332762 0.43989785015583044 0.16759919375181201 -527949.74999999988 -169420.15624999997 0.17732046544551852 0.024359301663935188 -13.631483554840086 0.034089500084519393 0.08014202862977983 -12.497638702392576 -13.048715591430662 0.086204305291175856 2.1531617641448979 1.2836635112762453 0.48731607198715216 -12.280055046081541 0.13785130530595782 -0.54008612036705006 -0.12201873958110808 0.74676489830017101
decision_type=2 2 2 2 2 2 2 2 2 2 2 2 2 2 2 2 2 2 2 2 2 2
left_child=3 2 4 5 10 7 11 -1 9 -4 -2 16 20 -6 17 -9 -3 -7 -8 -10 -5 -22
right_child=1 6 8 12 13 14 18 15 19 -11 -12 -13 -14 -15 -16 -17 -18 -19 -20 -21 21 -23
leaf_value=-0.002085860708266947 -0.0015629525116125087 0.00035307105612956269 0.00021137946907767859 -0.0016755661473842338 -5.8236262325353357e-05 -0.00059316032339901137 0.00023335443862328091 -0.00076900225654663481 -0.00026241660818497023 -0.00035812246046339002 -0.00058132469426257606 0.00093744464904468004 0.00057945149802923215 -0.00045637257698068835 -0.0011720818821236102 -0.0016531172492442292 0.00091878115105486157 0.00030187839009075153 -0.00062683946059032371 0.00050225211538153843 -0.00044061187109956324 0.00087776581542914594
leaf_weight=15831 9632 51881 152110 1820 226515 31617 49059 17428 5228 38398 38709 85449 8957 53232 15471 9653 17982 5585 5486 85921 23562 1854
leaf_count=15831 9632 51881 152110 1820 226515 31617 49059 17428 5228 38398 38709 85449 8957 53232 15471 9653 17982 5585 5486 85921 23562 1854
internal_value=3.42801e-06 0.000131637 -2.48805e-05 -0.000793191 -0.000229676 -0.00102429 0.000586868 -0.00145871 0.000213321 9.60617e-05 -0.000779125 0.000741412 -0.000180037 -0.00013436 -0.000668373 -0.00108808 0.000500165 -0.000456081 0.000144956 0.000457284 -0.000433539 -0.000340354
internal_weight=951380 819602 609745 131778 328088 95585 209857 42912 281657 190508 48341 155312 36193 279747 52673 27081 69863 37202 54545 91149 27236 25416
internal_count=951380 819602 609745 131778 328088 95585 209857 42912 281657 190508 48341 155312 36193 279747 52673 27081 69863 37202 54545 91149 27236 25416
is_linear=0
shrinkage=0.02


Tree=8
num_leaves=23
num_cat=0
split_feature=1 7 0 23 0 7 33 23 7 0 21 32 0 21 2 19 30 30 1 0 7 14
split_gain=285.225 127.222 124.225 41.8739 41.6984 39.59 31.7926 24.5475 16.4897 14.7065 14.2868 11.5393 11.4527 11.3316 10.6979 8.95162 8.85131 8.59866 8.53806 7.99781 7.42821 5.15868
threshold=-0.068323846906423555 -12.811564922332762 -2.1462663412094112 0.17970522493124011 -2.9835760593414302 -12.204611778259276 1.0166293978691103 0.11732084676623346 -12.436263561248778 -5.9248039722442618 1.599156975746155 -0.061346763744950288 -2.8089021444320674 2.4827357530593877 0.9265711009502412 -0.05402483977377414 0.0078342414926737564 0.11242418363690378 0.047658501192927367 -1.8179489970207212 -11.869338512420653 -0.96858373284339894
decision_type=2 2 2 2 2 2 2 2 2 2 2 2 2 2 2 2 2 2 2 2 2 2
left_child=4 2 7 8 5 6 17 11 15 -8 -6 -2 -9 14 -4 -3 -5 -1 -10 -18 -7 -12
right_child=1 3 13 16 10 20 9 12 18 -11 21 -13 -14 -15 -16 -17 19 -19 -20 -21 -22 -23
leaf_value=5.404008416323153e-05 0.00016178084750901483 5.8378613001410709e-05 0.00010676057070120696 0.0015983135140829286 -3.1944667216875043e-05 9.5540485284739582e-05 -0.0035590350529903737 -0.00068642729262269537 0.00080751306945714082 -0.0015990481681031011 -0.0017055242706360807 -0.00025263894480845284 -0.00029204451633427594 -0.00020487712135924572 0.00035411294516279028 0.00062296866489449417 -8.9819670118815e-05 -0.00096080320478540162 0.001301615840866544 0.0004465353764869161 0.0019173889013463982 -0.00064750345223589978
leaf_weight=3468 35419 13914 105399 1525 22700 3308 1697 77104 53933 35002 2233 108433 49495 20879 216014 68511 41250 36849 20354 15150 1294 17449
leaf_count=3468 35419 13914 105399 1525 22700 3308 1697 77104 53933 35002 2233 108433 49495 20879 216014 68511 41250 36849 20354 15150 1294 17449
internal_value=3.34605e-06 0.000137514 -9.10848e-06 0.000556547 -0.000891042 -0.00115592 -0.00126403 -0.000329631 0.000726476 -0.00169288 -0.000378507 -0.000149904 -0.000533047 0.000243851 0.000273314 0.000528884 9.50656e-05 -0.000871032 0.000944318 5.25083e-05 0.000631043 -0.000773022
internal_weight=951380 827380 612743 214637 124000 81618 77016 270451 156712 36699 42382 143852 126599 342292 321413 82425 57925 40317 74287 56400 4602 19682
internal_count=951380 827380 612743 214637 124000 81618 77016 270451 156712 36699 42382 143852 126599 342292 321413 82425 57925 40317 74287 56400 4602 19682
is_linear=0
shrinkage=0.02


Tree=9
num_leaves=23
num_cat=0
split_feature=34 0 31 23 34 31 30 0 31 31 28 31 11 30 18 23 32 30 0 10 31 34
split_gain=348.145 75.0697 69.4375 45.6361 28.8672 28.462 22.0262 19.7066 16.9652 13.7089 13.7267 12.5114 12.2062 12.1031 8.24197 7.8877 7.65663 7.44157 6.79104 6.61139 5.99688 5.47461
threshold=3.1068083047866826 -2.1579240560531612 1.499255955219269 0.12321346998214723 5.2116754055023202 1.6297255754470827 0.61517783999443065 -4.2785296440124503 3.8828147649765019 4.3355991840362558 -0.042019193992018693 0.97048291563987743 0.026306499727070335 0.14021731913089755 -0.14299942553043363 -0.050219159573316567 -0.033726982772350304 0.93858531117439281 -3.1062511205673213 0.08395750075578691 2.4009721279144292 5.6896407604217538
decision_type=2 2 2 2 2 2 2 2 2 2 2 2 2 2 2 2 2 2 2 2 2 2
left_child=1 3 7 6 8 12 11 13 19 10 -5 -1 -3 -2 -15 -9 -8 -14 -11 -4 -6 -17
right_child=2 5 4 9 20 -7 16 15 -10 18 -12 -13 17 14 -16 21 -18 -19 -20 -21 -22 -23
leaf_value=0.00039629647382516224 6.9784913265623588e-05 0.0004861703240361238 -0.0012720682127056238 -0.0022270172477154839 -0.00187269587977253 -0.00020359661960702252 0.00015986564465434672 0.00049810843049972163 -0.0023056899710206112 -0.0031071095225000105 -0.00026600344638577368 -9.5463313680413218e-05 0.00030075659363198212 -0.0022904645336273371 -0.0009727683296139989 -0.00031568520312459138 -0.00024726987475057985 -0.00015450864974693779 -0.00079602169026829863 -0.00071063566137145482 -0.0027983634190013639 -0.0018422006285100626
leaf_weight=105156 4005 207604 25212 1451 7722 36425 27065 4755 5237 1005 157726 25379 184292 2207 24242 36776 56842 15271 1353 14203 5946 992
leaf_count=105156 4005 207604 25212 1451 7722 36425 27065 4755 5237 1005 157726 25379 184292 2207 24242 36776 56842 15271 1353 14203 5946 992
internal_value=6.87823e-07 0.000153968 -0.000955313 -5.37153e-05 -0.0014708 0.00033022 0.000137203 -0.000541918 -0.00121954 -0.00030778 -0.000284577 0.000299921 0.000378222 -0.000931527 -0.00108691 -0.000260461 -0.000114751 0.000265415 -0.00182784 -0.00107241 -0.00228358 -0.000358666
internal_weight=950866 819569 131297 375977 58320 443592 214442 72977 44652 161535 159177 130535 407167 30454 26449 42523 83907 199563 2358 39415 13668 37768
internal_count=950866 819569 131297 375977 58320 443592 214442 72977 44652 161535 159177 130535 407167 30454 26449 42523 83907 199563 2358 39415 13668 37768
is_linear=0
shrinkage=0.02


Tree=10
num_leaves=23
num_cat=0
split_feature=31 0 0 31 0 31 3 32 0 0 2 5 32 2 22 17 22 24 18 29 11 17
split_gain=266.275 133.212 70.5072 44.9403 30.9495 25.0977 18.0243 16.4788 15.5579 13.4325 16.618 12.2776 11.6232 10.0201 9.21701 7.09752 9.94593 6.73086 6.35236 6.2765 4.34129 4.02158
threshold=1.8432987332344057 -2.502404928207397 -3.1247512102127071 0.80280184745788585 -5.2003471851348868 3.8828147649765019 0.10584849864244462 -0.10867981985211371 -4.5597369670867911 -1.4881541132926939 0.69651696085929882 -3.1299500465393062 0.12344963476061822 0.95061519742012035 1.1628478765487673 0.43608637154102331 2.7496316432952885 3.5272481441497807 -0.14299942553043363 0.00016907743702176961 0.023899500258266929 0.099923789501190199
decision_type=2 2 2 2 2 2 2 2 2 2 2 2 2 2 2 2 2 2 2 2 2 2
left_child=1 3 5 7 18 8 -6 19 21 14 -11 -9 15 -12 20 16 -4 -10 -5 -1 -3 -2
right_child=2 9 12 4 6 -7 -8 11 17 10 13 -13 -14 -15 -16 -17 -18 -19 -20 -21 -22 -23
leaf_value=0.00084280526448341029 -0.0025086737892843366 0.00036289124972873737 -0.00040029748617634433 -0.0027844467343783124 -0.00040042083154050753 -0.0030463231519009528 0.00066410244247993081 -0.00029740959698269158 -0.0013876352639237857 -0.0031102978278932094 0.00027463587964430988 6.9210903637664638e-05 -0.0015490835392193236 0.00057074198336469885 6.2245193763948896e-06 0 -0.0011154359980396888 -0.0003659222620927857 -0.0012077744852888716 0.0002200268241224522 0.00019606493871602581 -0.0011053499710143987
leaf_weight=10854 6616 133974 27080 1249 143823 5317 6584 56734 17651 513 77862 101899 4718 117025 60048 9182 11394 3353 11996 17576 124157 1261
leaf_count=10854 6616 133974 27080 1249 143823 5317 6584 56734 17651 513 77862 101899 4718 117025 60048 9182 11394 3353 11996 17576 124157 1261
internal_value=6.46771e-07 0.000106678 -0.00105671 -0.000193612 -0.00043568 -0.00176449 -0.000353136 1.76324e-05 -0.00152455 0.000311936 0.000443018 -6.12833e-05 -0.000592526 0.000452964 0.000231116 -0.000495575 -0.000614801 -0.00122942 -0.001365 0.000461414 0.000283043 -0.00229755
internal_weight=950866 864294 86572 350715 163652 34198 150407 187063 28881 513579 195400 158633 52374 194887 318179 47656 38474 21004 13245 28430 258131 7877
internal_count=950866 864294 86572 350715 163652 34198 150407 187063 28881 513579 195400 158633 52374 194887 318179 47656 38474 21004 13245 28430 258131 7877
is_linear=0
shrinkage=0.02


Tree=11
num_leaves=23
num_cat=0
split_feature=1 7 0 22 0 22 7 7 0 12 0 22 22 2 22 2 22 20 2 1 1 0
split_gain=254.163 121.02 111.234 57.2382 40.541 32.2088 26.7614 22.0569 19.5352 17.1569 16.0949 16.0303 14.2511 15.1729 13.843 12.2198 11.6852 10.0792 9.72464 9.24155 7.7509 6.95512
threshold=-0.066757623106241212 -12.876234054565428 -2.1462663412094112 1.5102890133857729 -4.0851950645446768 1.6260134577751162 -12.185566425323485 -12.436263561248778 -2.8089021444320674 -673014.06249999988 -2.1691197156906123 3.9497833251953129 1.6260134577751162 0.92463111877441417 0.77469646930694591 0.99997267127037059 2.7496316432952885 0.70192432403564464 0.67443153262138378 0.04681238345801831 0.11320851743221284 -3.1247512102127071
decision_type=2 2 2 2 2 2 2 2 2 2 2 2 2 2 2 2 2 2 2 2 2 2
left_child=3 2 9 6 16 7 8 10 15 18 -3 17 13 -4 -11 -1 -5 -6 -2 -9 -7 -13
right_child=1 5 12 4 11 20 -8 19 -10 14 -12 21 -14 -15 -16 -17 -18 -19 -20 -21 -22 -23
leaf_value=-0.00082631780744586117 0.00085251528924200001 0.00018847417549038641 4.9090584325592238e-05 -0.0018103027512375173 -0.00096904892892408047 -0.00047994854496441198 0.0011314706405535747 0.0006952360003705029 7.7148579276240637e-05 -0.00010321344223173171 0.00064016446574811361 -0.0031273121261392984 -0.00024509112183500683 0.00035197792393251904 -0.000425742784557342 0.00033242318264937586 -0.0031152282429946178 -9.4209031827460987e-05 -0.00077171027787887648 0.0011719046541998359 0.0012196809329925455 -0.0014438358355510666
leaf_weight=43484 1469 67039 98101 11535 33625 14763 4109 69117 15768 107937 61051 1726 24375 208502 107019 3841 4070 6554 39846 22539 1124 3272
leaf_count=43484 1469 67039 98101 11535 33625 14763 4109 69117 15768 107937 61051 1726 24375 208502 107019 3841 4070 6554 39846 22539 1124 3272
internal_value=6.22415e-07 0.000129683 -2.3792e-05 -0.000828374 -0.00127391 0.000512594 -0.000423847 0.00057564 -0.000526805 -0.000336756 0.000404559 -0.000966134 0.000218231 0.000255394 -0.000264261 -0.000730134 -0.00215794 -0.000828863 -0.000711443 0.000813601 -0.000353062 -0.00204774
internal_weight=950866 822882 587249 127984 60782 235633 67202 219746 63093 256271 128090 45177 330978 306603 214956 47325 15605 40179 41315 91656 15887 4998
internal_count=950866 822882 587249 127984 60782 235633 67202 219746 63093 256271 128090 45177 330978 306603 214956 47325 15605 40179 41315 91656 15887 4998
is_linear=0
shrinkage=0.02


Tree=12
num_leaves=23
num_cat=0
split_feature=34 22 34 28 34 16 34 16 22 22 22 22 28 22 22 16 21 4 28 5 22 9
split_gain=320.337 66.0694 57.0282 25.2311 21.0263 20.6127 20.4824 17.5147 14.137 13.6865 12.71 12.5843 11.4462 5.60262 5.3565 5.34151 5.14591 4.7761 4.20903 3.95681 3.84189 3.82479
threshold=3.0410166978836064 1.5102890133857729 1.823163688182831 -0.042019193992018693 5.0258810520172128 -0.38058486580848688 4.1954443454742441 -0.34418445825576777 1.1228892803192141 1.3707135915756228 3.2880494594573979 0.40532380342483526 -0.021767863072454926 2.434375643730164 1.8743458390235903 -0.66567271947860707 0.18501229584217074 -4.2250499725341788 -0.011092567816376684 -3.0782500505447383 3.2880494594573979 -0.25773701071739191
decision_type=2 2 2 2 2 2 2 2 2 2 2 2 2 2 2 2 2 2 2 2 2 2
left_child=2 6 3 11 10 13 19 21 17 -9 18 -1 16 15 -10 -4 -8 -7 -3 -2 -6 -5
right_child=1 4 5 7 20 8 12 9 14 -11 -12 -13 -14 -15 -16 -17 -18 -19 -20 -21 -22 -23
leaf_value=-0.0044089950964871609 -0.00049811950411806326 -0.001498076656604221 -0.00081476466199824642 -0.0002236551550640611 -0.0019664455898430215 3.3531875991646159e-05 -0.0039289019351785017 0.00034658602856221077 -0.00013757645939194141 -2.7554388430105843e-05 -0.0020229132245885724 -0.00088562772746376224 -0.0007894011163619135 -0.0011187419169318455 -0.00056840649143728576 -0.00027968654296522152 -0.001614493994586806 0.00030378898809152791 -0.00091392050014245027 -0.00015543934145120683 -0.0030808103275798133 8.2087242028515829e-05
leaf_weight=579 26153 7011 9411 22448 11844 81868 506 444414 46103 42344 6568 1713 23185 4608 15877 43107 4348 39155 26725 30206 1841 60363
leaf_count=579 26153 7011 9411 22448 11844 81868 506 444414 46103 42344 6568 1713 23185 4608 15877 43107 4348 39155 26725 30206 1841 60363
internal_value=-6.42894e-07 -0.000890162 0.000150839 0.000259501 -0.00143764 -0.000107521 -0.000538696 0.000268088 -3.43742e-06 0.000313833 -0.00120162 -0.00182689 -0.000982091 -0.000439174 -0.00024959 -0.000377543 -0.00188013 0.000121804 -0.00103849 -0.000316262 -0.00212473 0
internal_weight=950377 138387 811990 571861 53989 240129 84398 569569 183003 486758 40304 2292 28039 57126 61980 52518 4854 121023 33736 56359 13685 82811
internal_count=950377 138387 811990 571861 53989 240129 84398 569569 183003 486758 40304 2292 28039 57126 61980 52518 4854 121023 33736 56359 13685 82811
is_linear=0
shrinkage=0.02


Tree=13
num_leaves=23
num_cat=0
split_feature=34 7 34 31 31 28 31 3 7 23 7 1 7 7 3 31 28 1 26 28 31 7
split_gain=307.82 125.973 82.1435 53.5208 27.2614 22.5806 18.469 18.4185 16.6862 14.2162 13.0386 12.3073 11.708 9.93337 7.5594 7.54137 7.42815 7.12775 7.06928 6.54888 5.45388 4.67964
threshold=3.4097815752029423 -12.607719421386717 1.6456991434097292 2.4009721279144292 1.7501165866851809 -0.011092567816376684 1.9544650912284853 0.044747499749064452 -13.120963573455809 0.048312187194824226 -13.094555377960203 0.098528593778610243 -12.185566425323485 -12.995524406433104 -0.21343299746513364 1.4689611196517947 -0.066991075873374925 0.053465314209461219 -0.13517103344202039 -0.042019193992018693 2.6879069805145268 -15.115328311920164
decision_type=2 2 2 2 2 2 2 2 2 2 2 2 2 2 2 2 2 2 2 2 2 2
left_child=1 2 7 5 9 11 8 13 -4 17 -9 16 15 -1 -8 -7 -2 -3 -5 -11 -6 -20
right_child=3 4 6 18 20 12 14 10 -10 19 -12 -13 -14 -15 -16 -17 -18 -19 21 -21 -22 -23
leaf_value=0.00019196365421453516 -0.0032506990314152789 0.00079427225257727014 -0.00031211291704761441 -0.0030010492437305887 -2.2905771688122784e-05 -0.00048738202603635972 -0.0021603330304738782 -0.0002666316702338384 6.0094420972335568e-05 -0.0016340816801107224 0.00033531930916160804 0.00047309513975172038 0.00051554396298133587 0.00047383796886031658 -0.00066874711726981368 -0.000984169698507805 -0.001370439100237238 0.0012657999917549036 -0.00025007232687128406 0.00053327404372831364 -0.0010397776224942981 -0.0018844183549112437
leaf_weight=294946 964 51612 172219 2611 6896 35068 1504 54160 66309 535 19489 1320 3445 61099 26549 20087 20782 18589 882 71541 3177 16593
leaf_count=294946 964 51612 172219 2611 6896 35068 1504 54160 66309 535 19489 1320 3445 61099 26549 20087 20782 18589 882 71541 3177 16593
internal_value=-6.62037e-07 0.000123871 9.74003e-06 -0.00104022 0.000644802 -0.000810565 -0.000265903 0.000180982 -0.000208224 0.000716222 -0.000105974 -0.00134413 -0.000598742 0.000240621 -0.00075265 -0.000670194 -0.00145912 0.000920637 -0.00196855 0.000515687 -0.000353904 -0.00180775
internal_weight=950377 848625 696275 101752 152350 81666 266581 429694 238528 142277 73649 23066 58600 356045 28053 55155 21746 70201 20086 72076 10073 17475
internal_count=950377 848625 696275 101752 152350 81666 266581 429694 238528 142277 73649 23066 58600 356045 28053 55155 21746 70201 20086 72076 10073 17475
is_linear=0
shrinkage=0.02


Tree=14
num_leaves=23
num_cat=0
split_feature=34 7 31 34 7 34 31 17 7 7 34 29 32 28 22 17 17 28 31 6 31 22
split_gain=296.361 117.976 66.7692 63.5916 24.4621 21.1629 16.4959 16.246 19.8915 16.2385 14.1475 13.8624 11.3867 11.3352 10.9612 8.90398 8.33284 8.28942 7.90523 7.67641 6.2287 5.52799
threshold=3.0410166978836064 -12.607719421386717 1.9544650912284853 1.6250432729721072 -12.185566425323485 4.7310709953308114 1.499255955219269 0.1754654943943024 -13.243124008178709 -13.13917303085327 4.1158256530761728 0.0016243453137576582 -1.0000000180025095e-35 -0.042019193992018693 2.3476138114929204 0.51140975952148449 0.087928850203752532 -0.021767863072454926 5.1264526844024667 -6.7582499980926505 3.8828147649765019 3.9497833251953129
decision_type=2 2 2 2 2 2 2 2 2 2 2 2 2 2 2 2 2 2 2 2 2 2
left_child=1 3 4 9 5 16 11 14 -9 12 18 19 -1 -13 -5 -11 -2 -7 -4 -3 -12 -8
right_child=2 6 10 7 -6 17 21 8 -10 15 20 13 -14 -15 -16 -17 -18 -19 -20 -21 -22 -23
leaf_value=0.00021966966448339965 -0.00067514438535061071 0.00035347154278062947 -0.0010483322762542724 -0.00034506912491446824 0.00060941702295168917 -0.0020237365735472457 8.0139077950379671e-05 -0.00021156565002422375 0.00036906762301209276 0.00025188276314387382 -0.0017743593829227747 -0.0023350642835964328 -1.9716293601849066e-05 0.00046588831878118414 -0.0011523696524902646 0.00063626798089883366 -0.0002314059039247686 -0.0010118790953698074 -0.0029082271178618902 0.00093956863634390368 -0.0028152027297256043 -0.0018120366758387105
leaf_weight=171147 45175 10736 17581 108473 6357 4487 12544 96083 31208 66243 16538 570 147070 41662 7307 39241 28417 15608 1036 79062 3188 644
leaf_count=171147 45175 10736 17581 108473 6357 4487 12544 96083 31208 66243 16538 570 147070 41662 7307 39241 28417 15608 1036 79062 3188 644
internal_value=-6.58551e-07 0.00014504 -0.000856246 3.23753e-05 -0.000582635 -0.000664615 0.000661635 -0.000225311 -6.8417e-05 0.000180443 -0.00156737 0.000729011 0.00010872 0.000425445 -0.00039693 0.000395849 -0.000505184 -0.00124324 -0.00115795 0.000870634 -0.00194831 -5.33211e-06
internal_weight=950377 811990 138387 666772 100044 93687 145218 243071 127291 423701 38343 132030 318217 42232 115780 105484 73592 20095 18617 89798 19726 13188
internal_count=950377 811990 138387 666772 100044 93687 145218 243071 127291 423701 38343 132030 318217 42232 115780 105484 73592 20095 18617 89798 19726 13188
is_linear=0
shrinkage=0.02


Tree=15
num_leaves=23
num_cat=0
split_feature=22 0 0 12 30 22 22 12 29 30 33 30 12 30 29 16 30 12 22 8 16 0
split_gain=199.749 98.6151 87.2646 47.0487 52.524 28.5872 17.0069 16.2487 14.6252 13.9531 13.4619 11.7767 11.3829 15.068 12.0496 9.24415 12.0147 7.41657 6.33653 5.94617 4.88853 4.78437
threshold=1.5281190276145937 -2.502404928207397 -3.3869683742523189 -402366.85937499994 0.55091190338134777 2.7496316432952885 2.3476138114929204 -89613.550781249985 0.00082253289292566489 0.93215373158454906 0.27627094089984899 0.11695807427167894 -165360.54687499997 0.42939472198486334 0.047176005318760879 -0.50794601440429676 0.31834518909454351 -171452.10156249997 4.6414194107055673 0.58518898487091076 -0.58012861013412464 -0.67525789141654957
decision_type=2 2 2 2 2 2 2 2 2 2 2 2 2 2 2 2 2 2 2 2 2 2
left_child=1 3 5 10 8 15 17 -6 -5 12 20 -12 14 -14 -3 -2 -17 -4 -8 21 -1 -11
right_child=2 9 6 4 7 -7 18 -9 -10 19 11 -13 13 -15 -16 16 -18 -19 -20 -21 -22 -23
leaf_value=-0.00065569786802997961 -0.0017786714823329181 0.00012273816765008105 -0.00051243778589366419 0.00052559206749472928 -0.00048106491851440089 -0.0025915660471439207 -0.00072600729366513407 -3.8997769280652207e-05 6.2880826814854153e-05 -0.00022027521815121067 -0.000148767891948608 -0.00085993188467026985 0.00058630081763153289 0.00028826860319943924 0.00064570612515583536 -0.00017841061832979288 -0.001317933288385757 -6.2493791496490161e-05 -0.0018642694375987745 0.00056873310889877301 -3.5747641502904117e-05 -0.001996975145316313
leaf_weight=6776 9182 144081 23285 60355 70845 8561 25307 63682 50915 21857 12037 47399 107871 189609 20253 5563 12516 41187 2268 3856 22001 637
leaf_count=6776 9182 144081 23285 60355 70845 8561 25307 63682 50915 21857 12037 47399 107871 189609 20253 5563 12516 41187 2268 3856 22001 637
internal_value=1.24608e-06 0.00011572 -0.000733991 -0.000148883 -6.26712e-06 -0.00157242 -0.000406543 -0.000272553 0.000314775 0.000296969 -0.000545111 -0.000717614 0.000322579 0.000396684 0.000187816 -0.00124829 -0.000972972 -0.000226576 -0.000823574 -0.000148049 -0.000185288 -0.000275466
internal_weight=950043 822174 127869 334010 245797 35822 92047 134527 111270 488164 88213 59436 461814 297480 164334 27261 18079 64472 27575 26350 28777 22494
internal_count=950043 822174 127869 334010 245797 35822 92047 134527 111270 488164 88213 59436 461814 297480 164334 27261 18079 64472 27575 26350 28777 22494
is_linear=0
shrinkage=0.02


Tree=16
num_leaves=23
num_cat=0
split_feature=31 7 0 0 33 7 28 0 31 2 31 12 29 4 29 7 0 2 0 20 29 28
split_gain=212.924 139.265 133.011 61.67 27.9058 27.0397 19.7503 18.9105 15.3688 14.5335 13.2431 12.8852 12.3754 11.6466 10.7682 10.6057 9.84538 9.26165 7.52631 8.90143 4.88377 4.81486
threshold=1.9544650912284853 -12.876234054565428 -2.3336668014526363 -3.6735651493072505 0.52509504556655895 -12.436263561248778 -0.016220950521528717 -2.576662421226501 3.5524629354476933 0.91883578896522533 5.1264526844024667 -7144.7380371093741 0.0022147581912577157 -15.126749992370604 0.001762968779075891 -11.807313919067381 -1.702036380767822 0.85990419983863842 -2.7609598636627193 0.54681187868118297 0.0010510082356631758 0.076586998999118819
decision_type=2 2 2 2 2 2 2 2 2 2 2 2 2 2 2 2 2 2 2 2 2 2
left_child=1 2 4 8 13 7 -6 12 -2 11 18 -4 -3 -1 17 -16 -11 -7 19 -5 -9 -20
right_child=3 5 9 10 6 14 -8 20 -10 16 -12 -13 -14 -15 15 -17 -18 -19 21 -21 -22 -23
leaf_value=-0.00011698533072815953 -0.0016750192497765543 0.00022801986594346208 0 -0.0011861537294482487 -0.0014918850547383847 0.0013332212392923946 -0.00056810360397707336 0.00061615866463851014 -0.0030648607978608728 7.7192297386092777e-05 -0.0021644367118707404 -0.0029868437314340564 -0.00039601741999435182 -0.00047871438047512594 0.0003076686527572579 0.0012751326944913115 0.0003461925662477729 0.00075777745314940651 -0.00046747758738020388 -0.00014444330864096287 0.0002761642187982069 0.0011494210446888118
leaf_weight=105936 15007 43395 104207 14230 10433 15123 96013 56243 4389 80413 2351 576 17926 54462 31074 5436 175537 52331 33667 4562 26018 714
leaf_count=105936 15007 43395 104207 14230 10433 15123 96013 56243 4389 80413 2351 576 17926 54462 31074 5436 175537 52331 33667 4562 26018 714
internal_value=1.19899e-06 8.89126e-05 -6.94053e-05 -0.00102197 -0.000408052 0.000490676 -0.000659651 0.000311584 -0.00199538 0.000180826 -0.000679977 -1.66844e-05 4.39467e-05 -0.000240442 0.000737028 0.000454609 0.000262073 0.000888362 -0.000612265 -0.000938691 0.000509862 -0.000430829
internal_weight=950043 875123 627577 74920 266844 247546 106446 143582 19396 360733 55524 104783 61321 160398 103964 36510 255950 67454 53173 18792 82261 34381
internal_count=950043 875123 627577 74920 266844 247546 106446 143582 19396 360733 55524 104783 61321 160398 103964 36510 255950 67454 53173 18792 82261 34381
is_linear=0
shrinkage=0.02


Tree=17
num_leaves=23
num_cat=0
split_feature=34 7 0 31 23 34 7 7 24 31 33 0 22 34 2 7 12 0 1 30 12 0
split_gain=258.484 112.343 82.0752 57.5783 28.2548 22.9339 20.4077 15.211 15.0194 14.3922 13.5586 12.8505 11.6862 11.2562 9.12688 7.25942 7.10211 6.77353 6.68027 6.11665 7.75239 5.97822
threshold=3.1068083047866826 -12.885721206665037 -2.1462663412094112 1.4836428761482241 0.13956410437822345 5.0258810520172128 -12.811564922332762 -12.423162937164305 2.071358442306519 3.8828147649765019 0.35305328667163854 -2.9835760593414302 1.6478284001350405 6.0069169998168954 0.91883578896522533 -12.508302688598631 -567808.12499999988 -3.3225630521774288 0.053465314209461219 0.2031873241066933 -195706.00781249997 -3.5230972766876216
decision_type=2 2 2 2 2 2 2 2 2 2 2 2 2 2 2 2 2 2 2 2 2 2
left_child=1 2 10 6 7 9 13 -3 14 21 -1 -12 15 16 -4 -6 -2 -11 -9 -8 -21 -5
right_child=3 4 8 5 12 -7 19 18 -10 17 11 -13 -14 -15 -16 -17 -18 -19 -20 20 -22 -23
leaf_value=-0.00012512436480995262 -0.0009181543003115969 0.00049061396977495878 5.0357969933479012e-05 -0.0012290473304740275 0.00010186136075412597 -0.0019409396654241982 0.0006470498285020439 0.00077726549790637994 -0.0001999152564946547 -0.0030170755636581966 -0.00063912876381922942 -0.00024707611032286401 -0.00037938596277610075 -0.0018230572321294128 0.00030169525360503052 0.00052197370649114555 -0.00039717396832187165 -0.0013910036539542528 0.0012699070464105597 -0.00098637370919450263 0.00015278666814838297 -0.00069603005036692779
leaf_weight=111902 16024 90414 79720 14816 36373 16006 6049 49101 35223 2002 61512 75995 11904 3111 220308 31180 33952 2912 15467 3145 9572 23355
leaf_count=111902 16024 90414 79720 14816 36373 16006 6049 49101 35223 2002 61512 75995 11904 3111 220308 31180 33952 2912 15467 3145 9572 23355
internal_value=1.16754e-06 0.000133175 -1.49792e-05 -0.000823797 0.000503073 -0.00128713 -0.000441303 0.000660554 0.000189227 -0.00104172 -0.000289869 -0.0004232 0.000194623 -0.000641991 0.000235248 0.000297274 -0.000566294 -0.0020762 0.000896914 0.000121112 -0.000121352 -0.000905673
internal_weight=950043 819099 584660 130944 234439 59091 71853 154982 335251 43085 249409 137507 79457 53087 300028 67553 49976 4914 64568 18766 12717 38171
internal_count=950043 819099 584660 130944 234439 59091 71853 154982 335251 43085 249409 137507 79457 53087 300028 67553 49976 4914 64568 18766 12717 38171
is_linear=0
shrinkage=0.02


Tree=18
num_leaves=23
num_cat=0
split_feature=22 7 0 0 17 17 7 22 7 0 0 17 17 0 22 28 7 0 7 32 16 22
split_gain=180.677 118.787 119.725 81.7999 24.7308 23.234 26.4327 22.0686 19.1841 17.5507 15.3833 12.9489 12.6556 12.5428 11.5136 10.6886 8.2258 7.68584 7.51142 5.86115 5.21986 5.19128
threshold=1.5458557009696963 -12.867290973663328 -2.3336668014526363 -2.9034792184829707 0.17160958796739581 0.41186916828155523 -12.409205436706541 2.7496316432952885 -13.631483554840086 -4.2785296440124503 -1.8083648681640623 0.45995944738388067 0.35697895288467413 -4.6146576404571524 2.3476138114929204 -0.042019193992018693 -11.965503215789793 -3.6232252120971675 -13.44075298309326 0.10887397080659868 -0.22701598703861234 0.33723644912242895
decision_type=2 2 2 2 2 2 2 2 2 2 2 2 2 2 2 2 2 2 2 2 2 2
left_child=1 2 4 7 9 6 10 13 -6 -1 -3 21 14 -2 -5 -8 -15 -9 -13 -16 -7 -4
right_child=3 5 11 12 8 20 15 17 -10 -11 -12 18 -14 16 19 -17 -18 -19 -20 -21 -22 -23
leaf_value=-0.00096636970126755587 -0.0017827995320197083 2.6120715438548106e-05 -0.0017015228987586723 -0.0002458553857856137 -0.00036997016679546824 0.00048372133068585023 -0.0014524330166941224 -0.0025226263263916 0.00013259961523229597 -0.00042904917865211641 0.00057104401858602783 0.000240177546143727 0.00011845140092937353 -0.00094161786114492583 -0.00071464004778076611 0.00068727796320305792 0.00093658715791351821 -0.0014856564681497947 0.00054816500442426356 -0.0017797271253863808 0.00099929612694828955 6.4744925469829138e-05
leaf_weight=34251 8220 76462 660 35291 81102 11104 911 6985 48207 88831 28644 153081 21543 28600 14089 78229 907 6099 40971 2639 36777 146686
leaf_count=34251 8220 76462 660 35291 81102 11104 911 6985 48207 88831 28644 153081 21543 28600 14089 78229 907 6099 40971 2639 36777 146686
internal_value=-2.801e-06 0.000104111 -4.57024e-05 -0.000713543 -0.000376128 0.000487762 0.000384776 -0.00133119 -0.000181839 -0.000579419 0.000175597 0.000198286 -0.000285496 -0.00107984 -0.000454703 0.000661294 -0.000880347 -0.00204764 0.000305732 -0.000889125 0.000881881 5.60972e-05
internal_weight=950289 825916 593789 124373 252391 232127 184246 50811 129309 123082 105106 341398 73562 37727 52019 79140 29507 13084 194052 16728 47881 147346
internal_count=950289 825916 593789 124373 252391 232127 184246 50811 129309 123082 105106 341398 73562 37727 52019 79140 29507 13084 194052 16728 47881 147346
is_linear=0
shrinkage=0.02


Tree=19
num_leaves=23
num_cat=0
split_feature=34 0 31 23 31 34 31 30 30 18 30 0 12 12 17 30 34 18 15 18 8 3
split_gain=264.613 63.0782 40.9431 38.4694 22.2544 22.1805 19.1173 14.8849 13.848 11.8268 10.7406 10.5348 10.4123 10.3065 9.40297 8.32132 8.14889 6.26007 6.21966 6.17084 5.20676 4.02088
threshold=3.5025651454925542 -2.502404928207397 2.4009721279144292 0.061508974060416229 1.4532783627510073 5.4302966594696054 2.0894093513488774 0.25128227472305303 0.74124920368194591 -0.037949908524751656 0.93538734316825878 -1.4881541132926939 -719238.93749999988 -410332.15624999994 0.099923789501190199 0.056512149050831802 5.2116754055023202 0.25782224535942083 -0.87756133079528797 -0.13025862723588941 0.58518898487091076 -0.13515049964189527
decision_type=2 2 2 2 2 2 2 2 2 2 2 2 2 2 2 2 2 2 2 2 2 2
left_child=1 3 5 6 10 12 8 13 -1 -9 11 -3 17 -5 -14 -7 -4 -2 -6 -17 -12 -20
right_child=2 4 16 7 18 15 -8 9 -10 -11 20 -13 14 -15 -16 19 -18 -19 21 -21 -22 -23
leaf_value=0.00030947525518992169 -0.0013058354183837901 0.00023271752707751452 -0.0015369905162097076 -0.00035938489535422205 -0.00052650942656002481 0.00044656214611383068 -0.0015657544494373816 -0.00070370703159631717 -0.00016201069893425021 -0.00028850993833641296 -0.00024841424612923377 0.00043346409949392292 -0.00065559134340927917 0.00026620482825810373 -6.2123378011255464e-06 -0.0031442448500781841 -0.0024773087796081802 0.00040365713004120521 0.0012863988692859291 -0.0014914963485878052 0.00058663883513311512 -3.4432092495419423e-05
leaf_weight=92813 10803 277346 13130 17363 11306 730 2536 38228 33751 103391 20359 171868 37774 26705 12085 1120 5999 834 931 11976 3446 55795
leaf_count=92813 10803 277346 13130 17363 11306 730 2536 38228 33751 103391 20359 171868 37774 26705 12085 1120 5999 834 931 11976 3446 55795
internal_value=-2.74599e-06 0.000108021 -0.00100744 -0.00011687 0.000239048 -0.000795149 0.000147767 -0.000301397 0.000182952 -0.000401313 0.000287746 0.000309749 -0.000629543 1.74378e-05 -0.000500214 -0.00152402 -0.00183768 -0.00117461 -9.8073e-05 -0.00164162 -0.000123235 -1.08801e-05
internal_weight=950289 855838 94451 314787 541051 75322 129100 185687 126564 141619 473019 449214 61496 44068 49859 13826 19129 11637 68032 13096 23805 56726
internal_count=950289 855838 94451 314787 541051 75322 129100 185687 126564 141619 473019 449214 61496 44068 49859 13826 19129 11637 68032 13096 23805 56726
is_linear=0
shrinkage=0.02


Tree=20
num_leaves=23
num_cat=0
split_feature=1 7 17 31 23 17 28 31 29 7 3 28 31 28 7 7 22 22 6 1 28 17
split_gain=192.825 93.4014 52.6014 46.7172 34.916 31.8755 19.5993 22.9586 18.5072 17.9786 17.3777 16.7739 16.6196 15.877 14.6137 11.9167 10.3422 10.2509 9.64392 8.574 8.13942 7.25659
threshold=-0.068323846906423555 -12.867290973663328 0.43989785015583044 1.499255955219269 0.17970522493124011 0.16759919375181201 -0.04999404959380626 0.31048111617565161 0.0010779883596114816 -13.777275085449217 0.03679149970412255 -0.013604255858808754 3.8828147649765019 -0.009448246564716099 -12.243356227874754 -11.807313919067381 0.31410421431064611 1.3959836363792422 -7.5450000762939444 -0.24057430773973462 -0.042019193992018693 0.70736047625541698
decision_type=2 2 2 2 2 2 2 2 2 2 2 2 2 2 2 2 2 2 2 2 2 2
left_child=3 2 13 6 8 11 -1 -8 18 10 -4 -5 -13 16 -9 -10 -2 20 -3 -7 -6 -21
right_child=1 4 9 5 17 19 7 14 15 -11 -12 12 -14 -15 -16 -17 -18 -19 -20 21 -22 -23
leaf_value=-0.0038331000457271624 -0.0033284593013192007 0.00014689576738595813 0.00014245700970000327 -0.0020772138664696804 -0.0022020667010672029 -0.0017609246453636194 0.0031097783467405635 -0.00040991279600168299 0.00022982684080157553 0.00038281598067172677 -0.00038453888560925474 -0.00097314437922968553 -0.0020807099279425687 -0.0001499545900428954 0.00083436318530243981 0.0013580137456191558 -0.00054579791762919083 -0.00040817641236486963 0.00080966748952101349 -0.00029195085279778711 0.00021749114817631865 0.0010658212970100734
leaf_weight=623 553 10039 142271 9863 551 1395 784 50689 55340 104187 30314 36659 6620 277978 4027 4068 36897 15021 100281 11768 48564 1797
leaf_count=623 553 10039 142271 9863 551 1395 784 50689 55340 104187 30314 36659 6620 277978 4027 4068 36897 15021 100281 11768 48564 1797
internal_value=-2.70481e-06 0.00010767 -2.58144e-05 -0.00073745 0.000446106 -0.00109011 -0.000307681 -0.000265964 0.000596376 0.000175216 4.9304e-05 -0.00132015 -0.00114509 -0.000202525 -0.000316441 0.000308871 -0.000589996 4.68611e-05 0.000750272 -0.000266076 0.00018809 -0.000104387
internal_weight=950289 826064 592200 124225 233864 68102 56123 55500 169728 276772 172585 53142 43279 315428 54716 59408 37450 64136 110320 14960 49115 13565
internal_count=950289 826064 592200 124225 233864 68102 56123 55500 169728 276772 172585 53142 43279 315428 54716 59408 37450 64136 110320 14960 49115 13565
is_linear=0
shrinkage=0.02


Tree=21
num_leaves=23
num_cat=0
split_feature=34 7 0 34 7 17 22 22 22 10 7 18 28 2 7 22 18 22 17 22 0 25
split_gain=228.45 100.558 86.2893 35.2487 26.0384 29.7321 22.7139 17.1165 15.9694 14.6142 11.3874 12.6187 11.146 8.83573 8.79736 7.33072 4.35441 4.65868 4.31417 4.24015 3.7979 3.41524
threshold=3.5025651454925542 -12.497638702392576 -2.1462663412094112 5.6896407604217538 -13.120963573455809 0.30225487053394323 2.2737221717834477 1.1490533351898196 1.4652191996574404 0.032858500257134444 -12.185566425323485 -0.092630524188280092 -0.042019193992018693 0.94011220335960399 -11.869338512420653 2.2117919921875004 -0.13025862723588941 2.2117919921875004 0.16759919375181201 2.8989096879959111 -3.1062511205673213 1.0000000180025095e-35
decision_type=2 2 2 2 2 2 2 2 2 2 2 2 2 2 2 2 2 2 2 2 2 2
left_child=1 2 4 6 9 -6 10 13 12 -1 11 -2 -3 -4 -14 -9 -5 -18 -8 21 -21 -10
right_child=3 8 7 16 5 -7 18 15 19 -11 -12 -13 14 -15 -16 -17 17 -19 -20 20 -22 -23
leaf_value=-0.00050361580336766288 -0.0014985771787990544 -0.0014487117796274502 0.00017485395232015851 -0.0029948024182447366 -0.00017941678184197539 0.00054306408303802037 -0.0016259583204429246 4.7081190045821825e-05 0.00055511837706110961 -0.00018186624534225808 0.00041996015788088223 -0.00057075366574430594 0.00067157929789387705 0.00039586145283903576 0.0012722612788884627 -0.00050406867825229806 -0.0014657240055839041 -0.0023989418522402115 -0.00039427481409894544 -0.0022393239758675917 -0.00019270238573000395 -0.00016414828432427905
leaf_weight=115728 6772 906 143228 1395 79349 31935 12561 93014 4334 112858 3928 54109 93877 151169 11399 10758 10393 3367 1498 600 1232 6446
leaf_count=115728 6772 906 143228 1395 79349 31935 12561 93014 4334 112858 3928 54109 93877 151169 11399 10758 10393 3367 1498 600 1232 6446
internal_value=-4.62941e-06 9.79589e-05 1.08937e-05 -0.000940537 -0.000223032 2.7029e-05 -0.000768505 0.00021082 0.000638009 -0.000345206 -0.000607738 -0.000675716 0.000717963 0.000288683 0.000737627 -9.11422e-06 -0.00182866 -0.00170213 -0.00150202 -2.72193e-05 -0.000921701 0.000115877
internal_weight=950856 856833 738039 94023 339870 111284 78868 398169 118794 228586 64809 60881 106182 294397 105276 103772 15155 13760 14059 12612 1832 10780
internal_count=950856 856833 738039 94023 339870 111284 78868 398169 118794 228586 64809 60881 106182 294397 105276 103772 15155 13760 14059 12612 1832 10780
is_linear=0
shrinkage=0.02


Tree=22
num_leaves=23
num_cat=0
split_feature=1 12 30 28 17 32 15 17 12 19 1 33 21 30 19 2 1 12 30 17 10 33
split_gain=176.352 42.7227 35.9453 35.9327 29.0576 22.4496 21.959 21.7283 28.5023 17.5583 10.7584 9.83399 8.89356 8.744 7.13214 7.45179 6.22855 5.95497 8.00698 5.77849 5.19786 4.82598
threshold=-0.063768897205591188 -492384.79687499994 0.44553814828395849 -0.02356770075857639 0.19543725252151492 0.086204305291175856 -0.79372310638427723 0.11954026296734811 -154219.47656249997 -0.029872672632336613 -0.15101648122072217 0.97956320643424999 1.599156975746155 0.0078342414926737564 -0.18206922709941861 0.67443153262138378 0.13905998319387439 -298679.67187499994 0.15375635772943499 0.10366010665893556 0.2020324990153313 0.46127903461456304
decision_type=2 2 2 2 2 2 2 2 2 2 2 2 2 2 2 2 2 2 2 2 2 2
left_child=3 4 6 10 16 9 19 8 11 -4 -1 -5 -10 -8 -6 -16 20 -9 -19 -3 -2 -7
right_child=1 2 5 7 14 21 13 17 12 -11 -12 -13 -14 -15 15 -17 -18 18 -20 -21 -22 -23
leaf_value=-0.002629965114171664 -0.0011153274617892184 -0.00051015473222623914 -0.00017777724882245179 -0.00081231789602756021 0.00057471319203757456 -0.00013891090348726372 0.001159609346422759 -0.00047062135019215447 -0.00019265759407637067 0.00017350029578695847 -0.0012270322100252904 -0.0014804046932310898 -0.00077413220945232817 0.00038687125495277509 0.0014270156982551603 -0.00017458156407957302 0.00075005159861466744 0.00070755331985838845 -0.00019233712663503763 4.5084764215256633e-05 -0.00027650862045948529 -0.00049718706841120558
leaf_weight=4233 18083 9249 70831 17181 5854 33237 6143 19680 26900 285368 5438 20531 17972 240706 1164 72623 806 5035 18366 38410 3937 29109
leaf_count=4233 18083 9249 70831 17181 5854 33237 6143 19680 26900 285368 5438 20531 17972 240706 1164 72623 806 5035 18366 38410 3937 29109
internal_value=-4.55074e-06 0.000106301 0.000161264 -0.000673249 -0.000275195 4.18743e-05 0.000330595 -0.000581632 -0.000772041 0.000103366 -0.00185247 -0.00117883 -0.000427837 0.00040653 -9.34646e-05 -0.000147866 -0.000904724 -0.000214258 0 -6.06126e-05 -0.00096999 -0.000307818
internal_weight=950856 815520 713053 135336 102467 418545 294508 125665 82584 356199 9671 37712 44872 246849 79641 73787 22826 43081 23401 47659 22020 62346
internal_count=950856 815520 713053 135336 102467 418545 294508 125665 82584 356199 9671 37712 44872 246849 79641 73787 22826 43081 23401 47659 22020 62346
is_linear=0
shrinkage=0.02


Tree=23
num_leaves=23
num_cat=0
split_feature=34 34 34 28 12 30 22 30 22 16 0 0 18 18 12 12 28 23 30 18 21 22
split_gain=212.962 57.0942 33.0825 26.0534 22.4824 24.6667 21.4914 18.2388 14.9372 13.9925 13.7716 10.7723 10.977 10.5778 7.41167 6.77671 5.67751 5.64582 4.37668 4.55389 3.90934 3.6018
threshold=3.5025651454925542 2.0724874734878544 5.6896407604217538 -0.042019193992018693 -265232.84374999994 0.61517783999443065 2.2737221717834477 0.35220281779766088 0.35577900707721716 -0.19671287387609479 -1.760201036930084 -2.7769451141357417 -0.083275027573108659 -0.092630524188280092 -540039.68749999988 -799091.59374999988 -0.04999404959380626 -0.038053428754210465 0.052395977079868324 -0.13025862723588941 1.6966340541839602 3.2880494594573979
decision_type=2 2 2 2 2 2 2 2 2 2 2 2 2 2 2 2 2 2 2 2 2 2
left_child=1 3 6 8 10 -6 13 9 -1 15 -5 12 -9 16 -15 -3 -2 -11 -4 -20 -13 -8
right_child=2 7 18 4 5 -7 21 11 -10 17 -12 20 -14 14 -16 -17 -18 -19 19 -21 -22 -23
leaf_value=-0.0045175383492337988 -0.0033491681331253289 -0.0008917058606206969 -6.3385336006195758e-05 -0.00016393294157151242 0.00038454976948717692 9.5268818527811201e-05 -0.0011796980060675886 -0.001054148394834024 -0.00089859765404064185 0.00086808899363641115 0.00022733849198635107 -1.2453672104977864e-05 -0.00037219979505049265 -0.00088598185541824144 -0.00035393174045154517 -9.0984005188140589e-05 -0.001122592804275396 0.00022417173475336585 -0.0030775305495576825 -0.0017133556947716815 -0.00034163087742784983 -0.0019098353309952769
leaf_weight=608 548 5188 696 94153 283773 203572 8907 11189 2273 6916 58184 44741 69681 14470 42889 25003 6902 29764 1298 13161 21788 5152
leaf_count=608 548 5188 696 94153 283773 203572 8907 11189 2273 6916 58184 44741 69681 14470 42889 25003 6902 29764 1298 13161 21788 5152
internal_value=-4.47291e-06 9.45731e-05 -0.000908101 0.000188926 0.000197619 0.00026392 -0.000741375 -0.000187909 -0.00170348 8.48654e-05 -1.38307e-05 -0.000312337 -0.000467849 -0.000584935 -0.000489961 -0.000232016 -0.00130192 0.00034841 -0.00176863 -0.00184375 -0.000121779 -0.00145496
internal_weight=950856 856833 94023 642563 639682 487345 78868 214270 2881 66871 152337 147399 80870 64809 57359 30191 7450 36680 15155 14459 66529 14059
internal_count=950856 856833 94023 642563 639682 487345 78868 214270 2881 66871 152337 147399 80870 64809 57359 30191 7450 36680 15155 14459 66529 14059
is_linear=0
shrinkage=0.02


Tree=24
num_leaves=23
num_cat=0
split_feature=34 7 34 34 2 22 22 7 7 23 28 18 1 22 7 2 23 18 30 22 22 18
split_gain=212.087 89.555 52.8325 37.454 19.1564 18.8045 18.0899 16.6783 12.7511 11.6081 11.5665 10.0192 8.57607 8.47941 8.31346 9.30392 7.61809 7.41852 6.22999 5.69838 5.50288 5.60582
threshold=2.8062350749969487 -12.629344940185545 4.1158256530761728 1.6456991434097292 0.94183084368705761 2.2117919921875004 1.8389957547187807 -12.314022064208983 -13.538722991943358 0.048312187194824226 -0.011092567816376684 -0.14299942553043363 0.052472138777375228 4.6414194107055673 -13.13917303085327 0.94566938281059276 -0.060600683093070977 -0.10131824389100073 0.26529429852962499 1.694870173931122 1.4652191996574404 -0.11138916015624999
decision_type=2 2 2 2 2 2 2 2 2 2 2 2 2 2 2 2 2 2 2 2 2 2
left_child=1 3 6 4 8 10 7 16 -1 12 11 -4 18 -8 15 -5 -2 -16 -3 -6 21 -11
right_child=2 9 5 14 19 -7 13 -9 -10 20 -12 -13 -14 -15 17 -17 -18 -19 -20 -21 -22 -23
leaf_value=-9.8450864509200061e-05 0.00024468068145273983 0.00093228780086895911 -0.0028638369784666773 -0.00039426949960653956 0.00032943420249624734 -0.001841887812196262 -0.00078356885174866314 0.00056302635016049608 0.00018718251434355596 0 -0.00070564204270503496 -0.0012018699387440822 0.0011345559446517073 -0.0024507745440042286 -0.00058322024213628776 -7.4691196342325706e-05 -0.00041674770244301649 0.00010035965443927697 0.00046240366753119922 -0.00016332806576217028 -4.7110539425946261e-05 0.0005435101693209985
leaf_weight=140473 7516 18240 1751 89963 164029 12445 22712 8768 112416 8936 28925 13617 19161 1357 7228 62721 71506 51594 33919 9675 9098 55452
leaf_count=140473 7516 18240 1751 89963 164029 12445 22712 8768 112416 8936 28925 13617 19161 1357 7228 62721 71506 51594 33919 9675 9098 55452
internal_value=-4.77826e-06 0.000133682 -0.000648315 3.16152e-05 0.000139641 -0.00114634 -0.000394771 -0.000259951 2.81267e-05 0.000582738 -0.000948463 -0.00139861 0.000766086 -0.000882209 -0.00018579 -0.000263652 -0.000352561 1.46196e-05 0.000628713 0.000301409 0.000403393 0.000468601
internal_weight=951502 782905 168597 638099 426593 56738 111859 87790 252889 144806 44293 15368 71320 24069 211506 152684 79022 58822 52159 173704 73486 64388
internal_count=951502 782905 168597 638099 426593 56738 111859 87790 252889 144806 44293 15368 71320 24069 211506 152684 79022 58822 52159 173704 73486 64388
is_linear=0
shrinkage=0.02


Tree=25
num_leaves=23
num_cat=0
split_feature=1 7 0 31 0 7 0 31 17 17 7 17 11 17 7 0 3 31 1 31 1 32
split_gain=166.426 84.5185 68.2605 40.0785 27.4843 25.4304 21.0471 20.7869 19.2997 17.121 16.8596 18.359 15.0145 13.0301 11.983 11.2258 10.7421 8.28604 6.57575 5.66968 5.51384 4.91909
threshold=-0.063768897205591188 -12.876234054565428 -2.3336668014526363 2.4836579561233525 -3.5230972766876216 -11.965503215789793 -2.7609598636627193 1.4108734130859377 0.19148390740156176 0.2626903653144837 -12.436263561248778 0.48731607198715216 0.039598498493433006 0.50761035084724437 -13.631483554840086 -5.2003471851348868 0.036065500229597099 0.31048111617565161 0.054496398195624358 3.8828147649765019 0.11969199031591417 0.10224485397338869
decision_type=2 2 2 2 2 2 2 2 2 2 2 2 2 2 2 2 2 2 2 2 2 2
left_child=3 2 8 5 19 6 15 10 12 -6 11 -3 -2 17 -10 -1 -15 -4 -12 -5 21 -9
right_child=1 7 13 4 9 -7 -8 20 14 -11 18 -13 -14 16 -16 -17 -18 -19 -20 -21 -22 -23
leaf_value=-0.0012874089862219365 -0.0006961473087036303 0.00019736742984365996 -0.0023778216530748217 -0.0017234286784224716 -0.0010931625427650505 0.0014537381839095159 -5.2370369548049281e-05 -8.1579260972326255e-05 -0.00028474382755726063 0.00047321087679998402 0.00060728660971166588 0.0007795977447703612 -0.00019620326919834812 0.00031827837336408863 0.00013519469697812571 -0.00058939579943958001 -0.00010074801478951425 2.3852955075964914e-05 0.0010417674906893248 -0.0027531196195689361 0.0013399304839464877 -0.00098283775840169656
leaf_weight=11190 63380 93318 571 8116 15088 2653 28455 20177 72080 3323 69064 28545 39764 162921 43259 63027 28392 172058 18651 3703 957 2810
leaf_count=11190 63380 93318 571 8116 15088 2653 28455 20177 72080 3323 69064 28545 39764 162921 43259 63027 28392 172058 18651 3703 957 2810
internal_value=-4.68905e-06 0.000103017 -2.57118e-05 -0.000653722 -0.00129746 -0.000467956 -0.000518654 0.0004245 -0.000305302 -0.000804966 0.000488381 0.000334595 -0.000504398 0.00014186 -0.000126376 -0.000696065 0.000255569 1.52611e-05 0.000700865 -0.00205553 -0.000130448 -0.000196291
internal_weight=951502 815947 582425 135555 30230 105325 102672 233522 218483 18411 209578 121863 103144 363942 115339 74217 191313 172629 87715 11819 23944 22987
internal_count=951502 815947 582425 135555 30230 105325 102672 233522 218483 18411 209578 121863 103144 363942 115339 74217 191313 172629 87715 11819 23944 22987
is_linear=0
shrinkage=0.02


Tree=26
num_leaves=23
num_cat=0
split_feature=34 7 0 34 7 31 31 7 31 19 28 31 27 33 28 18 7 32 0 19 0 0
split_gain=197.547 83.8131 52.3559 49.5997 23.0718 18.7917 17.6319 15.8563 14.3478 11.3181 10.8008 9.61782 9.29537 8.97701 8.78453 8.41767 7.99723 7.09044 7.03019 6.70835 6.15013 6.06991
threshold=2.8062350749969487 -13.013353824615477 -2.3336668014526363 4.1158256530761728 -12.370059967041014 2.4009721279144292 1.9965090155601504 -12.314022064208983 1.4689611196517947 -0.077666249126195894 -0.011092567816376684 5.1264526844024667 1.5000000000000002 0.36674296855926519 -0.042019193992018693 -0.14299942553043363 -11.807313919067381 -0.10637302696704863 -3.5230972766876216 -0.03073184750974178 -1.672231078147888 -3.9529279470443721
decision_type=2 2 2 2 2 2 2 2 2 2 2 2 2 2 2 2 2 2 2 2 2 2
left_child=1 2 13 6 8 10 7 -2 9 -3 15 18 -4 17 -6 -5 -16 -1 -8 -15 -14 -10
right_child=3 4 12 5 14 -7 11 -9 21 -11 -12 -13 20 19 16 -17 -18 -19 -20 -21 -22 -23
leaf_value=0.00025615202672482 -0.00034157188118002233 -3.0695343625802099e-05 3.9169773282637126e-05 -0.0026750847040965804 -0.0012692655891525298 -0.0017863782293942167 -0.0013916477965129031 0.00054252592245816311 -0.0016936992857477708 0.00042321648406946281 -0.00066714741145870325 -0.0025552216333065781 7.5656019934151791e-05 -0.00083063860387942918 0.00066188417537086167 -0.001155825585113196 0.0013370034119548021 -0.00023298801738805389 -0.00054283616532399461 -0.00036049773152007405 0.00035558318078067095 -0.00013613228506284745
leaf_weight=13868 80241 25375 203242 1780 842 12927 5572 8943 1081 146421 28404 1337 50838 15187 66656 13627 8253 75664 15766 72005 86652 16821
leaf_count=13868 80241 25375 203242 1780 842 12927 5572 8943 1081 146421 28404 1337 50838 15187 66656 13627 8253 75664 15766 72005 86652 16821
internal_value=-4.60009e-06 0.000129025 -1.90031e-05 -0.000625688 0.000417958 -0.00110825 -0.000379985 -0.000251772 0.000299209 0.000355591 -0.000905702 -0.000879691 0.000125673 -0.000298507 0.000713973 -0.00133865 0.000737684 -0.000156096 -0.000769446 -0.000443576 0.000252812 -0.000236216
internal_weight=951502 782905 517456 168597 265449 56738 111859 89184 189698 171796 43811 22675 340732 176724 75751 15407 74909 89532 21338 87192 137490 17902
internal_count=951502 782905 517456 168597 265449 56738 111859 89184 189698 171796 43811 22675 340732 176724 75751 15407 74909 89532 21338 87192 137490 17902
is_linear=0
shrinkage=0.02


Tree=27
num_leaves=23
num_cat=0
split_feature=34 7 0 34 29 31 7 31 28 7 7 3 0 22 31 34 12 0 31 10 21 10
split_gain=190.018 81.521 50.9758 50.7951 24.2103 18.054 18.156 17.0847 11.9748 11.6375 11.3908 10.626 9.64567 8.68995 8.51628 8.10314 7.8657 7.73806 7.25959 7.01526 6.75751 6.4743
threshold=2.7044311761856084 -12.959952831268309 -2.3336668014526363 4.1158256530761728 0.0010510082356631758 1.9965090155601504 -12.314022064208983 2.4009721279144292 -0.018108063377439972 -11.869338512420653 -12.409205436706541 0.043883001431822784 -3.2381389141082759 2.434375643730164 2.8042856454849248 1.7757461667060854 -230999.70312499997 -3.4781372547149654 3.8828147649765019 0.032858500257134444 0.14443507790565493 0.086155001074075713
decision_type=2 2 2 2 2 2 2 2 2 2 2 2 2 2 2 2 2 2 2 2 2 2
left_child=1 2 13 5 10 6 21 8 20 14 -3 15 18 19 -6 -4 -10 -15 -7 -1 -5 -2
right_child=3 4 11 7 9 12 -8 -9 16 -11 -12 -13 -14 17 -16 -17 -18 -19 -20 -21 -22 -23
leaf_value=-0.00038137172078427442 -0.0004565392195401809 0.00046683035308429748 0.00022039101424827672 -0.0034841182455519434 0.00012825388407653514 -0.0010813072192565176 0.00055231021533081511 -0.0017272144935880343 -0.00096292956492456802 0.0010417101073187389 0.00083261026288788292 -0.00020737826091927212 -0.00054079332389432534 -0.0025813201452360036 -0.0013779627084458408 -4.5610708018070298e-05 -0.00033259766824012308 -0.00056398888013098835 -0.002634536559168967 -0.00012433402330200836 -0.0013405597193157631 -0.00010419551768839606
leaf_weight=88754 57210 107441 261570 701 75603 7044 10417 12828 19573 5634 51780 31962 16250 1200 1518 54810 14332 2584 1622 84363 9241 34153
leaf_count=88754 57210 107441 261570 701 75603 7044 10417 12828 19573 5634 51780 31962 16250 1200 1518 54810 14332 2584 1622 84363 9241 34153
internal_value=0 0.000138235 -1.50648e-06 -0.000578394 0.00044197 -0.000354559 -0.000235043 -0.00107693 -0.000884231 0.000162791 0.000586435 0.00013871 -0.000838615 -0.000278174 9.72225e-05 0.000173993 -0.000699519 -0.00123269 -0.00138491 -0.000256698 -0.00150343 -0.000325935
internal_weight=950590 767219 525243 183371 241976 126696 101780 56675 43847 82755 159221 348342 24916 176901 77121 316380 33905 3784 8666 173117 9942 91363
internal_count=950590 767219 525243 183371 241976 126696 101780 56675 43847 82755 159221 348342 24916 176901 77121 316380 33905 3784 8666 173117 9942 91363
is_linear=0
shrinkage=0.02


Tree=28
num_leaves=23
num_cat=0
split_feature=34 7 34 34 29 22 7 3 22 23 17 7 28 17 17 12 6 17 17 21 7 22
split_gain=182.538 78.3059 48.7923 26.3208 23.2487 17.1313 17.1747 15.7539 14.7807 14.1226 12.4342 16.4405 12.0255 8.48696 8.29062 7.92524 7.85828 6.66413 6.39667 6.2214 6.06213 6.05137
threshold=2.7044311761856084 -12.959952831268309 4.1158256530761728 1.4720841050148012 0.0010510082356631758 1.8743458390235903 -12.314022064208983 0.03679149970412255 2.2117919921875004 0.063292607665061965 0.41986282169818884 -12.423162937164305 -0.018108063377439972 0.19543725252151492 0.16356227546930316 -230999.70312499997 -9.7428498268127424 0.58259329199790966 0.70337480306625377 0.14443507790565493 -13.619443893432615 4.6414194107055673
decision_type=2 2 2 2 2 2 2 2 2 2 2 2 2 2 2 2 2 2 2 2 2 2
left_child=1 3 5 7 9 6 14 17 12 16 11 -6 19 -5 -2 -14 -3 -1 21 -4 -9 -7
right_child=2 4 8 13 10 18 -8 20 -10 -11 -12 -13 15 -15 -16 -17 -18 -19 -20 -21 -22 -23
leaf_value=6.6788674196851326e-05 -0.00044187263224762535 -8.8488320790825351e-05 -0.0034227680652649185 -0.00033232092220722133 -0.00028860276059111694 -0.00077762381272319795 0.0005406130705926731 -0.00029558903072712898 -0.0016766340215658155 0.00038363876933450686 0.00055380442654472226 0.00037961048639966697 -0.00095808715934719456 -7.0182086605701953e-05 -1.969468863357894e-05 -0.00032945344637284283 0.00080940939209213933 0.00027837679082800366 0.0012926214193628932 -0.0013457986654114322 7.9239390639109146e-05 -0.0021654005929865549
leaf_weight=105414 64004 3899 693 84164 33274 23496 10303 43673 12347 79548 23074 26407 19996 122678 26945 14419 75774 141356 523 9220 27958 1425
leaf_count=105414 64004 3899 693 84164 33274 23496 10303 43673 12347 79548 23074 26407 19996 122678 26945 14419 75774 141356 523 9220 27958 1425
internal_value=0 0.000135462 -0.00056692 -1.49228e-06 0.000433148 -0.000347518 -0.000229534 0.000112427 -0.00105555 0.00057472 0.000159535 5.39257e-06 -0.00088013 -0.000177335 -0.000317904 -0.000697697 0.000764211 0.0001884 -0.000812958 -0.00150273 -0.0001479 -0.000861408
internal_weight=950590 767219 183371 525243 241976 126696 101252 318401 56675 159221 82755 59681 44328 206842 90949 34415 79673 246770 25444 9913 71631 24921
internal_count=950590 767219 183371 525243 241976 126696 101252 318401 56675 159221 82755 59681 44328 206842 90949 34415 79673 246770 25444 9913 71631 24921
is_linear=0
shrinkage=0.02


Tree=29
num_leaves=23
num_cat=0
split_feature=34 7 0 31 31 7 34 22 23 0 7 7 17 6 1 18 11 22 31 31 17 17
split_gain=175.419 79.9597 67.4293 26.5906 22.9869 21.373 19.1525 14.8048 13.4766 12.4608 12.09 11.2268 10.6774 8.1206 8.2894 8.05875 6.26851 5.83255 4.45778 3.4048 3.31408 3.25512
threshold=3.5025651454925542 -12.497638702392576 -2.1579240560531612 2.6879069805145268 0.94278061389923107 -13.120963573455809 5.2116754055023202 1.6260134577751162 0.18203156441450122 -5.3116831779479972 -12.142352581024168 -13.013353824615477 0.087928850203752532 -6.7582499980926505 0.048611609265208251 -0.13025862723588941 -0.029783999547362324 2.8989096879959111 5.1264526844024667 2.2627629041671757 0.17160958796739581 0.047376478090882308
decision_type=2 2 2 2 2 2 2 2 2 2 2 2 2 2 2 2 2 2 2 2 2 2
left_child=1 2 4 6 5 -1 10 11 13 -6 12 -4 -2 16 -15 -8 -3 20 -5 -9 -10 -17
right_child=3 8 7 18 9 -7 15 19 17 -11 -12 -13 -14 14 -16 21 -18 -19 -20 -21 -22 -23
leaf_value=-0.00021783074849374186 -0.00074903840651502839 -0.00053701204118572639 0.00016738526335054123 -0.001469496994869735 -0.0018754933997412299 0.00019603226726677293 -0.0026568717175313762 -6.7761095165422096e-05 0.00014623568369663941 -0.00039418273477394864 0.00064853031551905264 0.00044090212038631394 -0.00015184874565316592 0.00064651635377069349 0.0011364082309205958 -0.0012595033350502932 0.00050337114450389406 -0.0010322060968185299 -0.0027102645447196964 -0.000505111220970597 0.00065800856316374152 -0.00052314909740114822
leaf_weight=146206 40549 3330 290752 13102 2354 75573 1580 22390 22427 112756 3372 76600 17648 58129 19259 12969 7253 1412 1531 10922 6879 3597
leaf_count=146206 40549 3330 290752 13102 2354 75573 1580 22390 22427 112756 3372 76600 17648 58129 19259 12969 7253 1412 1531 10922 6879 3597
internal_value=0 9.01457e-05 1.24745e-05 -0.00081849 -0.000195926 -7.63514e-05 -0.000672395 0.000187953 0.000571944 -0.000425424 -0.000501299 0.000224696 -0.00056969 0.00069836 0.00076979 -0.00124711 0.000166465 0.000206603 -0.00160703 -0.000214211 0.000269868 -0.00110586
internal_weight=950590 856242 737553 94348 336889 221779 79715 400664 118689 115110 61569 367352 58197 87971 77388 18146 10583 30718 14633 33312 29306 16566
internal_count=950590 856242 737553 94348 336889 221779 79715 400664 118689 115110 61569 367352 58197 87971 77388 18146 10583 30718 14633 33312 29306 16566
is_linear=0
shrinkage=0.02


Tree=30
num_leaves=23
num_cat=0
split_feature=34 34 0 32 31 31 22 22 12 0 31 0 12 17 34 18 18 0 26 12 17 17
split_gain=166.448 44.2662 27.0706 17.4368 17.005 14.3741 13.9244 11.7533 11.1298 10.1623 12.804 9.48271 8.40039 8.36636 8.04144 7.58007 9.99729 7.11204 6.72217 5.78208 5.75853 4.87616
threshold=2.6296650171279912 4.3777868747711191 -2.3336668014526363 -0.10867981985211371 1.499255955219269 2.1426184177398686 2.62563169002533 1.4362067580223086 -261631.39062499997 -3.1998298168182369 3.5524629354476933 -3.454257488250732 -864554.96874999988 0.10786807164549829 6.0069169998168954 -0.049688449129462235 0.057141169905662544 -1.4881541132926939 0.001420932181645185 -433104.99999999994 0.70736047625541698 0.087928850203752532
decision_type=2 2 2 2 2 2 2 2 2 2 2 2 2 2 2 2 2 2 2 2 2 2
left_child=2 4 3 15 12 14 8 17 -5 10 -6 -8 -2 -14 21 -1 -17 19 -19 -4 -11 -3
right_child=1 5 7 6 9 -7 11 -9 -10 20 -12 -13 13 -15 -16 16 -18 18 -20 -21 -22 -23
leaf_value=-9.4776545229302599e-05 -0.00072324863268312248 -0.00079457694019770438 -0.00010120344834016554 -0.00026341990325500896 -0.00079459453156720543 -0.0016198773841286172 -0.0024854804460221372 -5.4810220714351586e-05 2.9064700770767408e-05 -0.00045911099796444284 -0.0022867422951531528 -0.0004654217702899786 -0.00028677018863685944 0.000114499897604325 -0.0014320263415715563 0.00074189310963310997 -7.5131807947252351e-05 0.00047386949060896201 0.00022497033634787949 0.00022108694103592554 0.0015535536074366648 -7.5561271430041384e-05
leaf_weight=10495 10989 19511 24309 77830 17322 13684 1546 53018 155585 30675 2771 2736 54277 33241 7149 22030 7933 93754 84922 221008 553 5070
leaf_count=10495 10989 19511 24309 77830 17322 13684 1546 53018 155585 30675 2771 2736 54277 33241 7149 22030 7933 93754 84922 221008 553 5070
internal_value=-1.55655e-06 -0.000522187 0.000132918 -2.35683e-05 -0.000355367 -0.00107025 -8.9237e-05 0.000224378 -6.80366e-05 -0.000651416 -0.00100587 -0.00122013 -0.000200089 -0.00013322 -0.000829846 0.000359738 0.000522264 0.000259525 0.000356141 0.000188741 -0.000420025 -0.000650388
internal_weight=950408 195242 755166 278155 149828 45414 237697 477011 233415 51321 20093 4282 98507 87518 31730 40458 29963 423993 178676 245317 31228 24581
internal_count=950408 195242 755166 278155 149828 45414 237697 477011 233415 51321 20093 4282 98507 87518 31730 40458 29963 423993 178676 245317 31228 24581
is_linear=0
shrinkage=0.02


Tree=31
num_leaves=23
num_cat=0
split_feature=31 7 32 2 32 31 29 22 7 10 32 7 22 26 7 26 8 26 16 31 2 31
split_gain=128.377 86.0683 31.609 30.9257 34.0702 18.2266 17.0172 12.3142 11.5903 11.1504 10.1414 8.91253 7.58503 7.49188 6.4271 7.1922 6.00659 5.86931 4.96929 4.26321 3.6647 3.59905
threshold=1.499255955219269 -12.811564922332762 0.13563814759254458 0.94566938281059276 -0.043128376826643937 2.6879069805145268 0.0016243453137576582 1.0000000180025095e-35 -11.869338512420653 -0.075795501470565782 0.11242890357971193 -12.497638702392576 2.2117919921875004 -0.12201873958110808 -12.164433002471922 -0.086253676563501344 -0.23079650104045865 -0.03991685435175895 -0.33005453646183008 1.1250771880149844 0.90992453694343578 3.5524629354476933
decision_type=2 2 2 2 2 2 2 2 2 2 2 2 2 2 2 2 2 2 2 2 2 2
left_child=1 3 5 4 9 14 10 -6 18 -1 11 -3 -4 -7 15 -2 -15 -5 -8 -19 21 -14
right_child=2 6 12 17 7 13 8 -9 -10 -11 -12 -13 20 16 -16 -17 -18 19 -20 -21 -22 -23
leaf_value=-0.00014868147097490329 -0.00095030483943549823 0.00045495401511320716 -0.00095492891128786815 -0.0001474965348904121 -0.0030579829571133828 -0.0022929204790129178 -0.00050990126889092417 -0.00025868225402156777 0.00097892513958804063 0.00024648408022088218 0.00015341772919560782 0.00080353096163282415 -0.001822325690711956 -0.0012386358436216806 0.0004283627728327938 -0.0002864035792349898 -0.00057099673242991234 0.00026673650639400236 0.00014604249053410428 5.1522838659810454e-05 -0.0014809766244719971 -0.0038270115038042504
leaf_weight=40682 7251 57939 11751 20427 632 1523 4989 255733 6550 94042 20719 63981 1444 8831 4454 84519 16532 134469 54922 52410 5868 740
leaf_count=40682 7251 57939 11751 20427 632 1523 4989 255733 6550 94042 20719 63981 1444 8831 4454 84519 16532 134469 54922 52410 5868 740
internal_value=-1.54316e-06 9.614e-05 -0.000554162 -2.57605e-05 -0.000130585 -0.000433611 0.000445461 -0.000266033 0.00017892 0.000126414 0.000568941 0.000638725 -0.00129824 -0.000895866 -0.000303373 -0.000339999 -0.000807599 0.000171511 8.97127e-05 0.000206918 -0.00178596 -0.00255444
internal_weight=950408 807495 142913 598395 391089 123110 209100 256365 66461 134724 142639 121920 19803 26886 96224 91770 25363 207306 59911 186879 8052 2184
internal_count=950408 807495 142913 598395 391089 123110 209100 256365 66461 134724 142639 121920 19803 26886 96224 91770 25363 207306 59911 186879 8052 2184
is_linear=0
shrinkage=0.02


Tree=32
num_leaves=23
num_cat=0
split_feature=34 7 0 34 23 7 34 3 22 22 7 23 22 33 19 15 19 34 28 28 19 0
split_gain=156.657 66.7089 42.2859 41.6822 19.8998 16.9111 11.8753 11.3951 10.232 9.83338 9.61942 9.13184 8.99334 8.39847 8.07483 7.92081 7.67347 7.30704 7.30301 6.86247 6.73187 6.47163
threshold=2.6296650171279912 -13.031515598297117 -2.4314470291137691 4.3777868747711191 0.05021877400577069 -12.314022064208983 6.0069169998168954 0.050513500347733505 3.5634526014328007 2.1492052078247075 -12.450069427490233 0.048312187194824226 1.8067566752433779 0.29808472096920019 -0.071602154523134218 -0.87756133079528797 -0.67398446798324574 1.349743187427521 -0.0086939535103738291 -0.042019193992018693 -0.038399133831262582 -3.1247512102127071
decision_type=2 2 2 2 2 2 2 2 2 2 2 2 2 2 2 2 2 2 2 2 2 2
left_child=1 2 13 5 10 8 9 17 11 18 14 -2 -7 -1 -3 -6 -17 -4 -5 -12 -15 -10
right_child=3 4 7 6 15 12 -8 -9 21 -11 19 -13 -14 20 -16 16 -18 -19 -20 -21 -22 -23
leaf_value=-0.00010959023964483577 -2.260495873832111e-05 -7.778288659354126e-06 0.00021798388780628353 -0.0010739025226195746 -0.00033579995619810666 0.00053339621479098762 -0.0016099492350110528 -0.00030574688907412619 -0.0022399808629494505 -0.0014795598067985445 -0.0013629413465331955 -0.00045935704673357835 -0.00072275683453284156 -0.00082603909121004493 0.0005226210484057638 -0.00018164893151287193 0.00031513303811521058 1.9118419548676561e-05 -0.00037611599016771692 0.00082318376566985088 -0.00033791662351611781 -0.00070374448638310866
leaf_weight=61923 23972 13503 203232 10313 9450 12050 11313 23955 1921 7801 543 105890 2750 13867 64813 13716 112311 117965 15987 46973 72915 3245
leaf_count=61923 23972 13503 203232 10313 9450 12050 11313 23955 1921 7801 543 105890 2750 13867 64813 13716 112311 117965 15987 46973 72915 3245
internal_value=-1.52219e-06 0.000128935 -7.60193e-06 -0.000506611 0.000387357 -0.000344704 -0.00103847 0.000113664 -0.000415358 -0.00084574 0.000568949 -0.000379508 0.00029307 -0.000289734 0.0004299 0.000217941 0.000260268 0.00014526 -0.000653692 0.000795956 -0.00041711 -0.00129595
internal_weight=950408 755166 493857 195242 261309 149828 45414 345152 135028 34101 125832 129862 14800 148705 78316 135477 126027 321197 26300 47516 86782 5166
internal_count=950408 755166 493857 195242 261309 149828 45414 345152 135028 34101 125832 129862 14800 148705 78316 135477 126027 321197 26300 47516 86782 5166
is_linear=0
shrinkage=0.02


Tree=33
num_leaves=23
num_cat=0
split_feature=34 34 16 22 22 22 28 28 28 22 32 1 12 17 17 18 22 12 22 22 12 1
split_gain=151.075 43.2362 22.6692 18.1096 15.4079 14.6594 11.9662 11.5131 11.3955 11.1763 10.8831 10.6373 9.50482 9.02583 7.81421 7.1484 6.3936 5.61699 4.92245 4.83864 4.77925 3.90133
threshold=2.5401133298873906 4.1158256530761728 -0.34418445825576777 1.2574835419654848 2.0926861763000493 2.434375643730164 -0.042019193992018693 -0.042019193992018693 -0.011448821518570183 0.67757609486579906 -0.061346763744950288 0.080386418849229826 -633091.59374999988 0.1754654943943024 0.70337480306625377 -0.14299942553043363 4.6414194107055673 -234161.53124999997 2.1492052078247075 1.9933652281761172 -161582.31249999997 -0.081522870808839784
decision_type=2 2 2 2 2 2 2 2 2 2 2 2 2 2 2 2 2 2 2 2 2 2
left_child=2 5 7 6 8 11 9 -1 15 -4 -8 13 -9 -2 16 -3 -7 -10 -14 20 -5 -6
right_child=1 4 3 19 21 14 10 12 17 -11 -12 -13 18 -15 -16 -17 -18 -19 -20 -21 -22 -23
leaf_value=-0.0026700030182563884 -0.00037734815899826741 -0.002491285053832414 -0.0030726274637414819 -0.00024676654897355947 -0.0016755009552198114 -0.00081126104565860707 0.00037476339910908125 -0.00051998094792365403 -0.00075747725257807542 0 0.00017484355770134037 0.00049070149598010092 6.8219655883316847e-06 -2.3867669469769266e-06 0.0012962151722315564 -0.0010398508478185362 -0.0021748971898688484 -0.00017270601606039047 -0.00063859713874092031 -0.00039212262519080587 9.9558203557713421e-05 -0.00066379368009413604
leaf_weight=697 93634 1666 838 23153 11917 13688 157260 18040 16111 935 367113 7621 101309 36124 595 12639 1656 11977 4941 16009 50987 2162
leaf_count=697 93634 1666 838 23153 11917 13688 157260 18040 16111 935 367113 7621 101309 36124 595 12639 1656 11977 4941 16009 50987 2162
internal_value=2.83221e-07 -0.000473431 0.000134486 0.000184354 -0.000947314 -0.000298207 0.000229278 -0.000110605 -0.000752103 -0.00140069 0.000234993 -0.000230585 -9.53409e-05 -0.000273735 -0.000874522 -0.00121669 -0.000965607 -0.00051176 -2.22798e-05 -7.67287e-05 -7.25535e-06 -0.00152753
internal_weight=951072 209790 741282 616295 56472 153318 526146 124987 42393 1773 524373 137379 124290 129758 15939 14305 15344 28088 106250 90149 74140 14079
internal_count=951072 209790 741282 616295 56472 153318 526146 124987 42393 1773 524373 137379 124290 129758 15939 14305 15344 28088 106250 90149 74140 14079
is_linear=0
shrinkage=0.02


Tree=34
num_leaves=23
num_cat=0
split_feature=34 7 0 31 17 7 7 34 0 1 0 17 1 17 31 1 11 17 28 21 34 8
split_gain=145.174 69.6643 47.6165 30.7281 20.7581 23.1253 14.837 14.2606 12.9419 9.90016 13.6392 9.79386 9.57005 9.02574 8.99467 8.86335 6.99432 6.59652 5.70843 5.61643 5.53041 5.16539
threshold=3.1068083047866826 -12.959952831268309 -2.1462663412094112 1.4836428761482241 0.41186916828155523 -12.450069427490233 -12.811564922332762 5.4302966594696054 -1.7884494066238401 0.0030389365274459128 -2.9835760593414302 0.43608637154102331 0.054496398195624358 0.08014202862977983 3.8828147649765019 0.043451396748423583 0.0088114999234676378 0.19954107701778415 -0.011092567816376684 3.4833567142486577 1.5556959509849551 -0.17844000458717343
decision_type=2 2 2 2 2 2 2 2 2 2 2 2 2 2 2 2 2 2 2 2 2 2
left_child=1 2 9 6 5 8 13 14 -3 10 -1 19 -7 18 21 -13 -11 -8 -2 -4 -6 -5
right_child=3 4 11 7 20 12 17 -9 -10 16 -12 15 -14 -15 -16 -17 -18 -19 -20 -21 -22 -23
leaf_value=-0.00059211776787929408 -0.0011643058847150424 -5.252126685261739e-05 2.0000006961867428e-05 -0.00098216418061187506 0.00057645399537003281 0.00041834594614971314 8.4512037311256444e-06 -0.0015904449965366341 0.0004077860637666913 -0.0003409608756231602 -0.00015569066810883366 0.00027490748501243941 0.00097546198756638062 -0.00018274269746089325 -0.001581416863443795 -0.00011854813876315165 -1.0599390774224729e-05 0.0012622708233174446 -0.00054902750831707181 -0.00073872787990884804 0.0010264527067841023 -0.00050997414035098469
leaf_weight=57944 8883 80785 125090 16109 44690 69155 16975 11737 34853 37482 58205 167441 15512 21097 5394 26144 83199 1879 23111 4022 15701 25664
leaf_count=57944 8883 80785 125090 16109 44690 69155 16975 11737 34853 37482 58205 167441 15512 21097 5394 26144 83199 1879 23111 4022 15701 25664
internal_value=2.54919e-07 9.90541e-05 -2.6593e-05 -0.000618281 0.000369107 0.000270283 -0.000338767 -0.000957921 8.53611e-05 -0.000242105 -0.000374291 0.000131264 0.000521649 -0.000510319 -0.000798253 0.000221252 -0.000114044 0.000139012 -0.000723137 -2.88851e-06 0.00069518 -0.000694555
internal_weight=951072 820223 559527 130849 260696 200305 71945 58904 115638 236830 116149 322697 84667 53091 47167 193585 120681 18854 31994 129112 60391 41773
internal_count=951072 820223 559527 130849 260696 200305 71945 58904 115638 236830 116149 322697 84667 53091 47167 193585 120681 18854 31994 129112 60391 41773
is_linear=0
shrinkage=0.02


Tree=35
num_leaves=23
num_cat=0
split_feature=31 0 23 0 28 1 32 31 30 31 31 32 1 0 1 23 9 0 1 0 0 30
split_gain=118.147 58.4749 39.9183 37.4309 22.4506 17.1882 11.9868 11.6434 11.632 9.67899 8.99111 8.97932 8.84734 6.96271 9.05963 8.51243 6.01342 5.7171 5.36264 4.24731 4.17055 4.02451
threshold=1.8432987332344057 -2.502404928207397 0.021683333441615108 -3.9529279470443721 -0.042019193992018693 0.12766518443822863 -0.074754361063241945 5.1264526844024667 0.93858531117439281 0.3699320256710053 3.8828147649765019 0.12152945995330812 0.15683094412088397 -1.4881541132926939 0.005366810131818057 0.036973210051655776 0.54982548952102672 -5.4366078376770011 0.080386418849229826 -3.1247512102127071 -0.72513979673385609 0.056512149050831802
decision_type=2 2 2 2 2 2 2 2 2 2 2 2 2 2 2 2 2 2 2 2 2 2
left_child=1 2 6 10 9 -6 18 11 13 -4 17 19 -8 15 -15 -3 20 -2 -1 -5 -10 -19
right_child=3 8 4 7 5 -7 12 -9 16 -11 -12 -13 -14 14 -16 -17 -18 21 -20 -21 -22 -23
leaf_value=0.00038209335716143407 -0.0021721603367139846 0.00029305284935101506 -0.004045570772967284 -0.00069521265021490726 -0.00027166700260697693 0.0010376326939118042 4.3444860692235235e-05 -0.0018016672134208214 -0.00028890223802496606 -0.0012861997835775432 -0.0026595663948377406 -0.0010416501114556278 0.0012506431695172681 0.00045107461141890307 0.0001687644894253168 7.694027810451368e-05 0.00049115195171082527 0.00015670900152131047 0.0010681291349217193 -0.00025895300624776676 -0.0017745849845828715 -0.0012200976002021042
leaf_weight=15653 2876 127035 694 11642 232947 4046 85268 2674 20030 2796 2642 8839 2506 102940 84106 175111 3946 783 6947 46032 815 10744
leaf_count=15653 2876 127035 694 11642 232947 4046 85268 2674 20030 2796 2642 8839 2506 102940 84106 175111 3946 783 6947 46032 815 10744
internal_value=2.36824e-07 7.07318e-05 -0.000128139 -0.000705576 -0.00027283 -0.000248871 0.000186208 -0.000496554 0.00020668 -0.00186853 -0.00154775 -0.00044245 7.91196e-05 0.000228198 0.000324675 0.000168137 -0.000213856 -0.00133602 0.000597587 -0.000348802 -0.000352197 -0.00111788
internal_weight=951072 864840 350857 86232 240483 236993 110374 69187 513983 3490 17045 66513 87774 489192 187046 302146 24791 14403 22600 57674 20845 11527
internal_count=951072 864840 350857 86232 240483 236993 110374 69187 513983 3490 17045 66513 87774 489192 187046 302146 24791 14403 22600 57674 20845 11527
is_linear=0
shrinkage=0.02


Tree=36
num_leaves=23
num_cat=0
split_feature=34 31 12 30 31 34 14 31 17 34 18 28 21 17 10 1 23 32 30 1 10 10
split_gain=140.714 40.4624 25.3844 31.4155 22.9786 19.7744 11.1239 10.1509 10.0445 9.21727 9.16592 9.08206 10.4136 7.48923 7.21239 6.16633 4.79241 4.75017 4.19328 4.39023 4.13218 3.73855
threshold=3.5538548231124882 1.9145923852920534 -451669.89062499994 0.43362380564212805 1.499255955219269 1.6985629200935366 -0.7678120732307433 5.1264526844024667 0.13542988896369937 5.4302966594696054 -0.83536753058433522 -0.0088750021532177908 0.074560157954692854 0.35328431427478796 0.086155001074075713 0.13905998319387439 -0.07738205790519713 0.11061950400471689 0.94187134504318248 -0.11991669237613677 0.086155001074075713 0.12407299876213075
decision_type=2 2 2 2 2 2 2 2 2 2 2 2 2 2 2 2 2 2 2 2 2 2
left_child=1 2 8 6 11 -5 -4 13 21 14 -10 12 -2 17 -6 -14 -13 -3 19 -11 -18 -1
right_child=4 7 3 5 9 -7 -8 -9 10 18 -12 16 15 -15 -16 -17 20 -19 -20 -21 -22 -23
leaf_value=-0.00089703994483926865 -0.0028537429077550771 -0.00044704837390854146 4.1632389699081324e-05 0.00015138475770377747 -0.0011245596274596713 -0.00013172440616088195 0.00037918327944603663 -0.0018097319414659969 0.00070698589017696852 -0.0019199600243817222 -0.00014508029877316342 0.00049418298492633799 -0.00075750301058576314 2.8796117533579288e-05 -0.00047667454121143164 0.0013776736938434658 -0.00050567453677781231 -0.0010851205513552791 -9.7479135265879599e-05 -0.00088188629293506435 2.7192085737854196e-06 -0.00010728260268993409
leaf_weight=9568 968 30033 47934 266357 20898 156471 228282 2230 5302 8257 93784 3198 15488 11216 11239 524 16745 5911 854 2555 9717 3604
leaf_count=9568 968 30033 47934 266357 20898 156471 228282 2230 5302 8257 93784 3198 15488 11216 11239 524 16745 5911 854 2555 9717 3604
internal_value=-2.56996e-06 7.61833e-05 0.000110119 0.000155025 -0.000753086 4.63811e-05 0.000320969 -0.000479191 -0.000168618 -0.0010836 -9.84445e-05 -0.000440447 -0.000811534 -0.00041397 -0.000901201 -0.000680977 -0.000224532 -0.000554898 -0.00157691 -0.00168442 -0.000315246 -0.000688666
internal_weight=951135 860692 811302 699044 90443 422828 276216 49390 112258 43803 99086 46640 16980 47160 32137 16012 29660 35944 11666 10812 26462 13172
internal_count=951135 860692 811302 699044 90443 422828 276216 49390 112258 43803 99086 46640 16980 47160 32137 16012 29660 35944 11666 10812 26462 13172
is_linear=0
shrinkage=0.02


Tree=37
num_leaves=23
num_cat=0
split_feature=34 31 0 23 31 0 28 32 0 0 11 32 31 17 17 22 17 28 31 26 30 22
split_gain=135.171 38.8669 30.1467 29.0235 22.0776 18.2263 14.4918 11.2255 10.0825 9.80154 8.79325 9.06612 7.53751 7.50869 6.43259 6.20193 5.0613 4.92642 4.67828 4.345 4.2098 4.14301
threshold=3.5538548231124882 1.9145923852920534 -2.1462663412094112 -0.0041555895004421464 1.499255955219269 -3.6735651493072505 -0.04999404959380626 -0.062742602080106721 -4.1985859870910636 -4.1228590011596671 0.026306499727070335 -0.078082907944917665 3.3132812976837163 0.32134664058685308 0.092038486152887358 3.0690016746521001 0.087928850203752532 -0.0088750021532177908 1.0638854503631594 -0.015798258595168587 0.70182204246521007 3.5634526014328007
decision_type=2 2 2 2 2 2 2 2 2 2 2 2 2 2 2 2 2 2 2 2 2 2
left_child=1 2 3 7 8 12 -5 -1 16 14 18 -12 -3 21 -6 -11 17 -2 -4 -15 -18 -7
right_child=4 5 10 6 9 13 -8 -9 -10 15 11 -13 -14 19 -16 -17 20 -19 -20 -21 -22 -23
leaf_value=0.00058045137788366973 -0.0012597579583524074 -0.00098088700772927051 0.00037326581746860551 -0.002206680348094995 -0.0016366641329720758 -0.0003821696669506468 -0.00012009834298899776 0.00012816136797253345 -0.00011749027595916318 -0.00067518548509522172 0.0003745690591216995 5.854813094478111e-05 -0.0025579335284491968 0.00060585734259758237 -0.00036571514549622755 -0.0014383077404930935 0.00028480328404319671 -0.00057102926323007567 0.0001620569541193228 -0.00018470127164054947 -0.00075800993536182708 -0.001059888240185105
leaf_weight=30211 8079 4356 155038 1339 13442 27022 273138 83598 22192 22620 47373 160397 1919 4419 2049 5692 3208 10309 60208 7231 2852 4443
leaf_count=30211 8079 4356 155038 1339 13442 27022 273138 83598 22192 22620 47373 160397 1919 4419 2049 5692 3208 10309 60208 7231 2852 4443
internal_value=-2.53224e-06 7.46523e-05 0.000107914 -1.90996e-05 -0.00073812 -0.000469654 -0.000130682 0.000249122 -0.0004316 -0.00106212 0.000224735 0.000131092 -0.00148075 -0.000320025 -0.00147518 -0.000832366 -0.000712552 -0.000879328 0.000314657 0.000106719 -0.000189705 -0.000481197
internal_weight=951135 860692 811302 388286 90443 49390 274477 113809 46640 43803 423016 207770 6275 43115 15491 28312 24448 18388 215246 11650 6060 31465
internal_count=951135 860692 811302 388286 90443 49390 274477 113809 46640 43803 423016 207770 6275 43115 15491 28312 24448 18388 215246 11650 6060 31465
is_linear=0
shrinkage=0.02


Tree=38
num_leaves=23
num_cat=0
split_feature=34 7 34 22 17 12 7 22 17 17 3 7 7 32 28 28 7 12 3 22 19 10
split_gain=129.863 67.7122 35.731 22.3378 19.9154 15.3531 14.078 12.1801 12.1059 11.9884 11.0802 10.0564 9.66618 8.7246 8.40067 8.19919 7.87083 6.9002 5.97855 5.23747 5.22667 5.1427
threshold=3.5538548231124882 -12.82968759536743 1.7874818444252016 1.7214798331260683 0.087928850203752532 -171452.10156249997 -12.370059967041014 2.7496316432952885 0.16356227546930316 0.49949316680431372 0.036065500229597099 -13.596764564514158 -12.941671371459959 0.088809929788112654 -0.0081460867077112181 -0.042019193992018693 -13.461341857910154 -169420.15624999997 0.10090449824929239 1.5839037299156191 0.10429829359054567 0.071518000215291991
decision_type=2 2 2 2 2 2 2 2 2 2 2 2 2 2 2 2 2 2 2 2 2 2
left_child=1 2 10 6 5 14 9 -7 17 -3 13 -12 21 -1 -2 -8 -10 -4 20 -16 -5 -6
right_child=4 3 8 18 12 7 15 -9 16 -11 11 -13 -14 -15 19 -17 -18 -19 -20 -21 -22 -23
leaf_value=0.00016207242370964306 -0.0015159282046123682 0.00019601992413884395 -0.00061121840888280041 -0.00030449177815428672 -0.00069042759550741602 -0.00037653113174649039 -0.0013118310459637947 -0.001500750858000271 -0.00020134709471174886 0.00066366524876959999 -0.00029902869989378969 0.00011756224722997125 0.00065895318381120377 -0.00018207438228130972 -0.00061626337474579129 0.00065737442815378604 0.00018301374384711088 -0.00027100329364204522 0.0012714134741415586 -0.0012689727690973864 -0.0015322419892130888 0
leaf_weight=295829 16178 104470 39013 13642 10201 25956 817 4644 76082 28185 53392 40528 4230 32455 12758 78354 29353 66130 830 9193 1612 7283
leaf_count=295829 16178 104470 39013 13642 10201 25956 817 4644 76082 28185 53392 40528 4230 32455 12758 78354 29353 66130 830 9193 1612 7283
internal_value=-2.49545e-06 7.31563e-05 -3.31612e-05 0.000368775 -0.000723498 -0.000890706 0.000423549 -0.000550633 -0.000246071 0.000296155 7.27941e-05 -0.000118202 -0.000189564 0.000127742 -0.0011609 0.000635709 -9.33894e-05 -0.000398213 -0.000346287 -0.000894397 -0.00044125 -0.000400698
internal_weight=951135 860692 632782 227910 90443 68729 211826 30600 210578 132655 422204 93920 21714 328284 38129 79171 105435 105143 16084 21951 15254 17484
internal_count=951135 860692 632782 227910 90443 68729 211826 30600 210578 132655 422204 93920 21714 328284 38129 79171 105435 105143 16084 21951 15254 17484
is_linear=0
shrinkage=0.02


Tree=39
num_leaves=23
num_cat=0
split_feature=31 7 17 12 32 17 7 29 7 3 31 17 12 30 5 32 17 16 31 3 31 7
split_gain=101.993 73.4949 40.2258 29.3541 26.4291 23.5926 19.1478 17.4917 12.9828 12.3382 12.3085 11.755 9.61354 9.06107 8.22242 9.10943 7.48065 7.43687 6.10317 4.90183 3.97053 3.67535
threshold=1.8432987332344057 -12.744421958923338 0.27052530646324163 -188799.27343749997 0.12152945995330812 0.08014202862977983 -13.461341857910154 0.0012254998437128963 -11.807313919067381 0.03679149970412255 1.0000000180025095e-35 0.3178019672632218 -106073.97656249999 0.42494209110736852 -3.8733500242233272 0.11061950400471689 0.11184377595782281 -0.38058486580848688 2.9426393508911137 -0.12240950018167494 2.9426393508911137 -12.409205436706541
decision_type=2 2 2 2 2 2 2 2 2 2 2 2 2 2 2 2 2 2 2 2 2 2
left_child=1 2 3 5 11 -1 9 14 13 -4 -5 12 19 -9 21 -16 20 -8 -14 -2 -6 -3
right_child=4 7 6 10 16 -7 17 8 -10 -11 -12 -13 18 -15 15 -17 -18 -19 -20 -21 -22 -23
leaf_value=-0.0008944638187789746 -0.0012497003052413913 -3.0247478267646068e-05 8.2008742858798758e-05 -0.0028700106229426555 -0.0012588246948594529 -0.00024556860412951957 -5.2978018818222574e-05 0.00025479697414182895 0.0010705618907893648 -0.00026958885720435543 -6.1727882459558606e-05 3.5783485002843333e-05 -0.00011582939893114259 -0.00023331456305518343 0.00070030113009088041 0.00017112764989349552 -0.00049894214819382044 0.00041729885384843692 -0.00079130745828424746 -0.00066547658394175901 -0.0020111188482522719 0.00044210080285946084
leaf_weight=36741 9462 12182 216623 623 8973 59042 15579 38578 5573 48896 204663 14035 18133 24968 87969 15889 3729 83903 7874 18496 5399 13459
leaf_count=36741 9462 12182 216623 623 8973 59042 15579 38578 5573 48896 204663 14035 18133 24968 87969 15889 3729 83903 7874 18496 5399 13459
internal_value=4.84572e-08 6.55204e-05 -3.50303e-05 -0.000206275 -0.000656272 -0.000495553 0.000105947 0.000403216 0.000144318 1.68807e-05 -7.08072e-05 -0.000473143 -0.000607347 6.14352e-05 0.000540617 0.000620319 -0.00133839 0.000342649 -0.000324297 -0.000866963 -0.00154899 0.000213827
internal_weight=950789 864688 666070 301069 86101 95783 365001 198618 69119 265519 205286 68000 53965 63546 129499 103858 18101 99482 26007 27958 14372 25641
internal_count=950789 864688 666070 301069 86101 95783 365001 198618 69119 265519 205286 68000 53965 63546 129499 103858 18101 99482 26007 27958 14372 25641
is_linear=0
shrinkage=0.02


Tree=40
num_leaves=23
num_cat=0
split_feature=34 34 34 28 30 22 12 31 30 16 18 1 12 18 30 11 31 12 23 18 16 31
split_gain=116.875 34.2414 19.6866 18.5753 16.7193 14.1372 13.7946 13.4555 12.9021 12.3542 10.8778 9.63853 8.34824 7.53279 5.85632 5.58934 5.53116 4.87362 4.36299 3.93922 2.98603 2.91734
threshold=3.5538548231124882 2.0148314237594609 6.0069169998168954 -0.042019193992018693 0.35220281779766088 0.4891688227653504 -460953.34374999994 2.6879069805145268 0.61517783999443065 -0.19671287387609479 -0.063130553811788545 0.10748146846890451 -198044.90624999997 -0.53951862454414357 0.1080615743994713 0.025292499922215942 1.2739410996437075 -451669.89062499994 -0.16554353386163709 1.0000000180025095e-35 -0.74910426139831532 5.1264526844024667
decision_type=2 2 2 2 2 2 2 2 2 2 2 2 2 2 2 2 2 2 2 2 2 2
left_child=1 3 7 5 9 -1 13 12 -8 17 15 -12 14 -5 -2 -6 -11 -3 -14 -4 -9 -22
right_child=2 4 19 6 10 -7 8 20 -10 16 11 -13 18 -15 -16 -17 -18 -19 -20 -21 21 -23
leaf_value=-0.0038796332097467039 -5.6226970813723695e-05 -0.0005068429997832542 -0.001913776405203235 0.00068092024387896976 -0.00089536234262305745 -0.00054873962066381073 0.00026848735060295263 -0.00028280579999192249 6.9314566708010699e-05 0.00049200507624683795 -0.00020367091680513705 0.0008958854905713558 0.00075156399452981095 -0.00015220187214466156 -0.00075476724840003312 -0.00028524619955941599 -2.57077582980925e-05 9.3554578371465677e-07 -0.00025981316937004383 -0.0010943129949963497 -0.001182686973557844 -0.0023867943771380133
leaf_weight=737 5989 11357 5043 4593 14273 1945 335507 1523 215072 29482 130756 3233 1774 69424 32917 11424 10965 21438 26778 6275 9176 1108
leaf_count=737 5989 11357 5043 4593 14273 1945 335507 1523 215072 29482 130756 3233 1774 69424 32917 11424 10965 21438 26778 6275 9176 1108
