tree
version=v4
num_class=1
num_tree_per_iteration=1
label_index=0
max_feature_idx=34
objective=regression
feature_names=Column_0 Column_1 Column_2 Column_3 Column_4 Column_5 Column_6 Column_7 Column_8 Column_9 Column_10 Column_11 Column_12 Column_13 Column_14 Column_15 Column_16 Column_17 Column_18 Column_19 Column_20 Column_21 Column_22 Column_23 Column_24 Column_25 Column_26 Column_27 Column_28 Column_29 Column_30 Column_31 Column_32 Column_33 Column_34
feature_infos=[-580.6142578125:0] [-1.0979199409484863:0.64545899629592896] [0:1] [-18.482486724853516:0.63508301973342896] [-200:0] [-50:0] [-50:0] [-19.521408081054688:-10.59382438659668] [-5:5] [-5:5] [-0.9925839900970459:5] [-1:1] [-20855660:0] none [-1:0] [-1:0] [-0.88398915529251099:0.84912866353988647] [0:1] [-100:99.830001831054688] [-94.847999572753906:74.400001525878906] [-1:inf] [0:9.6652431488037109] [0:11.115988731384277] [-280.2874755859375:111.76230621337891] [0:10.452985763549805] [0:5] [-0.28930819034576416:0.52522391080856323] [0:3] [-0.43534761667251587:0.1402478814125061] [0:8996.1435546875] [7.8814364314894192e-06:0.99987530708312988] [0:12.374311447143555] [-0.75361710786819458:0.24965140223503113] [0:6.0123114585876465] [0:32.148540496826172]
tree_sizes=2258 2402 2416 2410 2388 2398 2404 2415 2420 2411 2415 2410 2414 2423 2444 2441 2429 2428 2429 2410 2416 2418 2420 2431 2413 2426 2399 2424 2429 2425 2416 2421 2410 2411 2396 2404 2421 2407 2432 2410 2408 2416 2437 2432 2415 2400 2419 2397 2396 2418 2414 2430 2407 2441 2407 2386 2423 2397 2419 2418

Tree=0
num_leaves=23
num_cat=0
split_feature=34 7 0 22 34 34 7 17 23 22 7 0 22 2 22 0 7 23 30 12 22 12
split_gain=503.9 158.11 134.041 91.9693 35.3645 34.7935 29.7587 26.4237 25.1287 23.5168 23.3955 19.0293 15.8743 13.4238 12.7785 9.13876 8.39767 7.80106 7.72198 7.33149 7.06599 7.00981
threshold=3.0722891092300419 -12.636549472808836 -2.1339942216873165 1.5331802368164065 4.6101157665252694 5.0185155868530282 -13.118554115295408 0.38377690315246588 0.085556481033563628 1.39868700504303 -12.809982776641844 -2.7606614828109737 3.9843155145645146 0.92741993069648754 1.4671440720558169 -3.1265829801559444 -12.409514904022215 -0.093375507742166505 0.048371188342571265 -232313.89062499997 2.2094320058822636 -600045.46874999988
decision_type=2 2 2 2 2 2 2 2 2 2 2 2 2 2 2 2 2 2 2 2 2 2
left_child=1 2 6 4 10 12 11 -8 16 13 21 -1 15 -4 -10 -5 -3 -12 -6 -20 -11 -2
right_child=3 8 9 5 18 -7 7 -9 14 20 17 -13 -14 -15 -16 -17 -18 -19 19 -21 -22 -23
leaf_value=0.49959723269357353 0.49902088069863387 0.50089476303502967 0.50034367303051919 0.498481529577811 0.50043100077929559 0.49747431211104248 0.49999330096033245 0.50080687812307745 0.50074306530759849 0.50017022550733892 0.5014339176530247 0.49998492597186406 0.49729422143651769 0.50061731555982758 0.49998869708682675 0.49915445489483168 0.50130655003457636 0.50013883926906744 0.4982920762956255 0.49916401565144319 0.49956361125078785 0.49958706260152846
leaf_weight=121311 12586 35043 111347 18066 870 13488 59598 21777 56361 41098 2097 88507 3192 209364 10451 16738 52383 15029 11936 6672 9360 34247
leaf_count=121311 12586 35043 111347 18066 870 13488 59598 21777 56361 41098 2097 88507 3192 209364 10451 16738 52383 15029 11936 6672 9360 34247
internal_value=0.500155 0.500342 0.500207 0.499022 0.499435 0.498356 0.499886 0.50021 0.500918 0.500459 0.499664 0.49976 0.498672 0.500523 0.500624 0.498802 0.501143 0.500292 0.498686 0.498599 0.50006 0.499433
internal_weight=951521 816600 662362 134921 83437 51484 291193 81375 154238 371169 63959 209818 37996 320711 66812 34804 87426 17126 19478 18608 50458 46833
internal_count=951521 816600 662362 134921 83437 51484 291193 81375 154238 371169 63959 209818 37996 320711 66812 34804 87426 17126 19478 18608 50458 46833
is_linear=0
shrinkage=1


Tree=1
num_leaves=23
num_cat=0
split_feature=34 7 0 22 34 34 7 23 7 22 0 22 23 7 28 1 18 22 0 7 22 0
split_gain=484.021 151.861 127.957 88.3556 34.0778 33.6348 30.2087 22.9129 22.6686 22.5988 16.904 15.2435 14.5463 12.9726 11.2071 9.94037 9.88464 9.24884 8.60428 8.04296 7.08049 6.88436
threshold=3.0722891092300419 -12.615993976593016 -2.1699079275131221 1.5502595305442812 4.6101157665252694 5.0185155868530282 -13.118554115295408 0.15516407787799838 -12.312904834747313 1.39868700504303 -2.7606614828109737 3.5760461091995244 0.17781464755535129 -13.028201580047606 -0.018398766405880448 0.052555905655026443 -0.19333540648221967 2.6227045059204106 -4.2813806533813468 -11.806012153625487 0.27924495935440069 -3.1265829801559444
decision_type=2 2 2 2 2 2 2 2 2 2 2 2 2 2 2 2 2 2 2 2 2 2
left_child=1 2 6 4 8 11 10 15 18 13 -1 21 -8 -4 16 19 -6 -9 -2 -3 -17 -5
right_child=3 7 9 5 14 -7 12 17 -10 -11 -12 -13 -14 -15 -16 20 -18 -19 -20 -21 -22 -23
leaf_value=-0.00054911949425720096 -0.00096769162985775527 0.0007624039204250884 0.00029296115060049594 -0.0015871799080501734 -0.0050548007990387301 -0.0026506497187289519 0.00023853872238698397 0.0004341669768899976 0.00064072934062751083 -9.5263033523958348e-05 -0.0001756229176910509 -0.0025309695646896554 -0.00033035597594519033 0.00062162429165714883 -0.0011505868577061761 -0.00090615260913161409 -0.0019425706874420584 -0.0009613255913345478 -0.0004401547759609679 0.0016805628195121214 0.0013408462923240392 -0.00097616459514959016
leaf_weight=121311 19008 76730 271488 16929 504 13246 55827 41291 6311 51885 82329 4837 26438 59334 14754 518 4534 1945 39301 4229 23275 15497
leaf_count=121311 19008 76730 271488 16929 504 13246 55827 41291 6311 51885 82329 4837 26438 59334 14754 518 4534 1945 39301 4229 23275 15497
internal_value=-2.74558e-06 0.000180504 5.20269e-05 -0.00111256 -0.000714599 -0.00177552 -0.000267896 0.000760268 -0.000489789 0.00029129 -0.000398619 -0.00146144 5.44851e-05 0.000352219 -0.00144324 0.000920793 -0.00227845 0.000368973 -0.000613908 0.000811701 0.00128754 -0.00129844
internal_weight=951521 816600 668612 134921 84412 50509 285905 147988 64620 382707 203640 37263 82265 330822 19792 104752 5038 43236 58309 80959 23793 32426
internal_count=951521 816600 668612 134921 84412 50509 285905 147988 64620 382707 203640 37263 82265 330822 19792 104752 5038 43236 58309 80959 23793 32426
is_linear=0
shrinkage=0.02


Tree=2
num_leaves=23
num_cat=0
split_feature=3 7 0 28 33 29 0 33 7 30 24 30 16 0 33 32 32 28 0 3 6 24
split_gain=301.859 154.836 174.521 53.0726 31.278 30.4858 26.3126 30.9161 19.656 19.0098 17.6456 16.1251 14.9438 13.8232 13.672 12.613 12.3649 12.0727 11.9907 8.32777 8.1068 6.22373
threshold=-0.071740500628948198 -12.875687122344969 -2.3332866430282588 -0.016496153548359867 0.5309416949748994 0.0010444436920806768 -2.9688310623168941 1.2819446921348574 -12.396721839904783 0.12678664922714236 2.2380143404006962 0.40545161068439489 -0.18939796835184095 -4.9446086883544913 0.27361093461513525 0.13782337307929995 -0.07525616884231566 -0.04992693476378917 -1.5174624919891355 -0.12302200123667716 -6.9764499664306632 1.2539258599281313
decision_type=2 2 2 2 2 2 2 2 2 2 2 2 2 2 2 2 2 2 2 2 2 2
left_child=3 2 4 17 16 8 7 9 15 -5 18 12 -7 -6 -13 -3 -2 -1 -4 -19 -10 -8
right_child=1 5 10 6 13 11 21 -9 20 -11 -12 14 -14 -15 -16 -17 -18 19 -20 -21 -22 -23
leaf_value=-0.0038622413424580981 3.4496173875074403e-05 0.0006181954605532419 0.00014969325373401189 0.00038205794895478952 -0.0016934928207821465 -0.00015763531208929952 -0.00010710748400968655 -0.0018009281367211639 0.00029756206236543787 -0.00096746566880604151 -0.00024915100195519027 0.00055525970794498291 0.0006569696555496034 -0.00071440161746760464 -0.00033691776682558643 -0.00015428712811679405 -0.00039736742240801393 -0.0025884438378316727 0.00038874467450130513 -0.0013735004395016015 0.0011053922904348539 -0.00065774497494927521
leaf_weight=1795 32961 91509 177887 4686 6460 11460 14756 18692 5918 31908 28890 9438 39136 72710 24913 9091 127437 5131 162264 5021 49455 20003
leaf_count=1795 32961 91509 177887 4686 6460 11460 14756 18692 5918 31908 28890 9438 39136 72710 24913 9091 127437 5131 162264 5021 49455 20003
internal_value=-2.70479e-06 0.000120621 -4.911e-05 -0.00103086 -0.000469586 0.0005498 -0.000862805 -0.00113498 0.000716161 -0.000791893 0.00022358 0.000243139 0.000470488 -0.000795657 -8.88345e-05 0.00054739 -0.000308 -0.00228828 0.000264027 -0.00199837 0.0010209 -0.000426912
internal_weight=951521 849529 608609 101992 239568 240920 90045 55286 155973 36594 369041 84947 50596 79170 34351 100600 160398 11947 340151 10152 55373 34759
internal_count=951521 849529 608609 101992 239568 240920 90045 55286 155973 36594 369041 84947 50596 79170 34351 100600 160398 11947 340151 10152 55373 34759
is_linear=0
shrinkage=0.02


Tree=3
num_leaves=23
num_cat=0
split_feature=34 7 0 31 34 23 34 22 7 22 7 31 17 31 12 17 1 22 18 0 22 17
split_gain=430.151 135.76 118.218 85.0034 29.6112 26.7318 25.7237 25.5443 23.7003 21.8111 15.9192 13.6682 13.2473 12.9356 12.334 11.4637 10.4859 10.2 7.31788 6.85913 6.83087 5.40654
threshold=3.1070443391799931 -12.626320838928221 -2.1699079275131221 1.8178611993789675 4.118234634399415 0.14027738571166995 4.8579130172729501 1.2791433334350588 -13.562716007232664 1.8123797178268435 -12.182195186614988 4.3690419197082528 0.48656186461448675 4.3690419197082528 -232313.89062499997 0.047740619629621513 0.047049527987837798 1.878545939922333 -0.17709620296955106 -3.1802586317062373 0.50618070363998424 0.087839558720588698
decision_type=2 2 2 2 2 2 2 2 2 2 2 2 2 2 2 2 2 2 2 2 2 2
left_child=1 2 7 4 10 16 13 8 -1 12 21 -9 -4 19 15 -6 18 -7 -3 -5 -16 -2
right_child=3 5 9 6 14 17 -8 11 -10 -11 -12 -13 -14 -15 20 -17 -18 -19 -20 -21 -22 -23
leaf_value=-0.00037775871226143864 -0.00068382018326130752 0.00021581032781819526 0.00018705805125070955 -0.0016576028837966478 -0.001917202886742748 0.00042744522405511033 -0.0025391896087474481 -0.00062386333562533297 1.4810017587606305e-05 -0.00035004479104252585 0.00082355190985108147 -0.0022854890125251206 0.00043171504684196102 -0.0027254648152190203 -0.0029818608236808083 -0.00093702101470327333 0.0012431998592269283 -0.00049688427377972465 0.00084585976692242381 -0.00097178897695236483 -0.00058512883184823295 -0.00025470262174878629
leaf_weight=119263 30208 8782 166108 12244 11393 43220 13335 39764 126068 20439 3786 2137 194527 3021 515 9201 26989 5268 67221 13418 12869 20756
leaf_count=119263 30208 8782 166108 12244 11393 43220 13335 39764 126068 20439 3786 2137 194527 3021 515 9201 26989 5268 67221 13418 12869 20756
internal_value=4.75983e-06 0.000174777 5.20798e-05 -0.00106046 -0.000707607 0.000715419 -0.00180302 -0.000254122 -0.000175626 0.00028314 -0.000416876 -0.000711257 0.000319308 -0.0014569 -0.001173 -0.00148446 0.000898269 0.000324918 0.000774393 -0.00130316 -0.0006859 -0.000511058
internal_weight=950532 819786 668306 130746 88728 151480 42018 287232 245331 381074 54750 41901 360635 28683 33978 20594 102992 48488 76003 25662 13384 50964
internal_count=950532 819786 668306 130746 88728 151480 42018 287232 245331 381074 54750 41901 360635 28683 33978 20594 102992 48488 76003 25662 13384 50964
is_linear=0
shrinkage=0.02


Tree=4
num_leaves=23
num_cat=0
split_feature=22 12 17 30 3 15 3 32 17 30 29 12 17 22 17 17 22 17 12 12 2 12
split_gain=285.1 102.692 88.4071 80.5092 52.7921 30.6172 27.6305 22.1263 20.4652 16.5818 15.3206 14.8951 11.4017 11.3312 9.89859 9.34972 9.14159 8.06735 7.53225 6.94078 5.86241 5.47682
threshold=1.8123797178268435 -403984.49999999994 0.10757888853549959 0.64529412984848034 -0.11720550060272215 -0.82979261875152577 -0.039895500987768166 0.12117844447493555 0.44706179201602941 0.43002565205097204 0.04003094136714936 -41632.080078124993 0.55704870820045482 3.2842712402343754 0.31307460367679601 0.04371029511094094 2.6227045059204106 0.087839558720588698 -117302.28906249999 -67585.050781249985 0.72652214765548717 -159911.02343749997
decision_type=2 2 2 2 2 2 2 2 2 2 2 2 2 2 2 2 2 2 2 2 2 2
left_child=1 2 15 5 8 17 19 16 13 -7 14 -8 -12 18 -4 20 21 -3 -2 -5 -1 -6
right_child=4 3 10 6 7 9 11 -9 -10 -11 12 -13 -14 -15 -16 -17 -18 -19 -20 -21 -22 -23
leaf_value=-0.00020972611040969886 -0.0020524865112032968 -0.00065383160424756909 -0.00048090503822768112 -0.00068258895378686267 -0.00076251631931018515 0.00054629051977576545 -7.3012839246108777e-05 -0.0017735513990835197 0 0.00027466836736269825 0 0.00026698264664445768 0.0012750440280048956 -0.0027230231030844895 -7.5052459477403783e-05 -0.00099426704204335216 -0.0010677673677274126 2.6499160508584442e-05 -0.0010681655461074622 -0.00019786920909101107 -0.0018711293914848127 -0.00023947985071028449
leaf_weight=1058 10529 8374 34935 28670 13538 237669 153729 7825 2178 147749 6043 77373 5071 7488 79589 14133 13393 40174 5197 21312 12837 21668
leaf_count=1058 10529 8374 34935 28670 13538 237669 153729 7825 2178 147749 6043 77373 5071 7488 79589 14133 13393 40174 5197 21312 12837 21668
internal_value=4.64621e-06 0.000111051 -0.000357769 0.000211944 -0.00112387 0.000382764 -5.14328e-05 -0.000779916 -0.00188394 0.000442429 -0.000130288 4.03883e-05 0.000576199 -0.00205784 -0.000199745 -0.0013737 -0.000617705 -8.88461e-05 -0.001734 -0.000477949 -0.00175194 -0.000443526
internal_weight=950532 868716 153666 715050 81816 433966 281084 56424 25392 385418 125638 231102 11114 23214 114524 28028 48599 48548 15726 49982 13895 35206
internal_count=950532 868716 153666 715050 81816 433966 281084 56424 25392 385418 125638 231102 11114 23214 114524 28028 48599 48548 15726 49982 13895 35206
is_linear=0
shrinkage=0.02


Tree=5
num_leaves=23
num_cat=0
split_feature=34 0 22 23 34 22 34 30 12 16 11 12 30 30 0 30 1 34 22 2 0 22
split_gain=401.543 76.8108 74.3563 41.7679 36.2093 29.2631 22.3616 20.026 29.1252 16.4394 13.0162 12.7715 11.5624 11.4751 10.3289 10.1291 9.37607 8.682 8.5288 8.35148 8.28339 7.67105
threshold=3.0722891092300419 -2.3332866430282588 1.753069341182709 0.11803630739450456 4.8579130172729501 1.5148112177848818 4.118234634399415 0.61269524693489086 -274568.89062499994 -0.37597225606441492 0.026823500171303753 -196376.18749999997 0.45784266293048864 0.11772393435239793 -1.5365383028984068 0.55582839250564586 0.063134890049695983 6.010287046432496 3.0618895292282109 0.94536474347114574 -3.1979080438613887 3.2842712402343754
decision_type=2 2 2 2 2 2 2 2 2 2 2 2 2 2 2 2 2 2 2 2 2 2
left_child=1 3 4 7 11 10 20 8 -1 -5 14 13 -13 -2 -3 -11 -9 -6 -8 -12 21 -4
right_child=2 5 6 9 17 -7 18 16 -10 15 19 12 -14 -15 -16 -17 -18 -19 -20 -21 -22 -23
leaf_value=-0.00011184260844192409 0 0.00036799988003140618 -0.0014206464558222782 -0.0006683459137711939 -0.0011605202011435512 -0.00013206756034950845 -0.0019493423441976846 -0.00025282949979530658 0.00055733886734319206 8.8740369400344755e-07 0.0001413346136081357 0.00046109077531009997 -0.00041388370206450471 -0.00089610451959953484 0.00064193023740636711 -0.00039482904675553073 0.00028666761693819177 -0.0021111260795447363 -0.0029638950882522304 0.00039440168754796632 -0.00089241520212557639 -0.0030770853319692783
leaf_weight=41621 7131 132135 6454 39991 12039 49185 15165 54905 68421 53417 107509 7674 27107 34085 98296 49277 16684 6411 5005 104519 11954 1547
leaf_count=41621 7131 132135 6454 39991 12039 49185 15165 54905 68421 53417 107509 7674 27107 34085 98296 49277 16684 6411 5005 104519 11954 1547
internal_value=4.52398e-06 0.000171569 -0.00100755 -6.70924e-05 -0.000699287 0.000329205 -0.00173049 0.000133686 0.000303333 -0.00032337 0.000380708 -0.000504286 -0.000217918 -0.000743463 0.000485297 -0.000188031 -0.00012569 -0.00149674 -0.00220672 0.000266562 -0.00124369 -0.00175513
internal_weight=950532 815960 134572 324316 94447 491644 40125 181631 110042 142685 442459 75997 34781 41216 230431 102694 71589 18450 20170 212028 19955 8001
internal_count=950532 815960 134572 324316 94447 491644 40125 181631 110042 142685 442459 75997 34781 41216 230431 102694 71589 18450 20170 212028 19955 8001
is_linear=0
shrinkage=0.02


Tree=6
num_leaves=23
num_cat=0
split_feature=34 34 31 34 30 28 12 12 30 12 17 34 31 31 31 12 14 31 17 2 30 28
split_gain=383.686 78.5482 78.12 37.1611 25.3935 24.2611 22.9248 22.3298 22.2374 14.7416 19.0187 14.0895 13.2309 12.5015 12.1166 11.7245 11.6751 11.4748 11.0662 10.1921 7.06973 6.14134
threshold=3.1070443391799931 1.8104362487792971 2.3996008634567265 5.1990206241607675 0.35014560818672186 -0.042422352358698838 -270605.35937499994 -245047.23437499997 0.43422134220600134 -196376.18749999997 0.091789931058883681 4.3902163505554208 2.2578027248382573 0.31282258033752447 1.4404754042625429 -88637.027343749985 -0.87187266349792469 5.1667110919952401 0.35280671715736395 0.9414668381214143 0.061024505645036704 -0.01154182245954871
decision_type=2 2 2 2 2 2 2 2 2 2 2 2 2 2 2 2 2 2 2 2 2 2
left_child=1 5 3 9 6 13 18 19 -9 10 -2 17 15 -1 -11 -6 -8 -4 -3 -7 -5 -22
right_child=2 4 11 20 12 7 16 8 -10 14 -12 -13 -14 -15 -16 -17 -18 -19 -20 -21 21 -23
leaf_value=-0.0044601811639971428 -0.0012335849827037409 -0.00047545435892288143 -0.0013949883229460052 0 -0.00037162858501524072 -4.0396045933683029e-05 -0.00015956606318838742 0.00055712622980322985 0.00025693526489910853 -6.996040956988399e-05 -0.00043375855930927128 -0.0025975329748227881 -0.00092530983994921546 -0.00085872333969527054 -0.00078816488980161655 -2.3249027981801969e-05 0.00061453608666268251 -0.0035452117356205683 0.00030392775140397729 0.00031029483038873501 -0.0022030536584895749 -0.0013564357639704555
leaf_weight=539 24989 23543 12376 926 91651 93524 9671 160939 260894 26733 23683 10597 11661 1721 14788 67916 36407 1159 10387 51021 7014 8933
leaf_count=539 24989 23543 12376 926 91651 93524 9671 160939 260894 26733 23683 10597 11661 1721 14788 67916 36407 1159 10387 51021 7014 8933
internal_value=-1.0481e-06 0.000159543 -0.00100533 -0.000772064 -0.000134695 0.000289719 0.000158661 0.000298129 0.000371707 -0.000609071 -0.000846541 -0.00203576 -0.000272353 -0.00176975 -0.000328226 -0.000223981 0.000449895 -0.00158774 -0.000233905 8.27043e-05 -0.00163696 -0.00173565
internal_weight=951072 819874 131198 107066 251236 568638 80008 566378 421833 90193 48672 24132 171228 2260 41521 159567 46078 13535 33930 144545 16873 15947
internal_count=951072 819874 131198 107066 251236 568638 80008 566378 421833 90193 48672 24132 171228 2260 41521 159567 46078 13535 33930 144545 16873 15947
is_linear=0
shrinkage=0.02


Tree=7
num_leaves=23
num_cat=0
split_feature=22 7 17 3 7 3 17 17 2 7 29 32 32 2 22 22 29 7 26 6 17 32
split_gain=254.431 152.604 92.3292 65.4242 24.9774 24.2193 23.3199 23.2623 22.7468 27.0575 22.49 22.133 20.3837 16.2201 13.0251 12.3991 8.54771 10.3953 7.78168 7.64775 7.61362 7.07263
threshold=1.6297483444213869 -12.819108963012694 0.38377690315246588 -0.10017750039696692 -12.356109619140623 -0.033665500581264489 0.17472026497125628 0.41157068312168127 0.92496046423912059 -13.717075824737547 0.0012464390601962807 0.12920408695936206 0.11547015979886056 0.95866635441780101 3.9843155145645146 2.7386624813079838 0.0016581365489400925 -11.806012153625487 -0.12220454216003417 -6.9764499664306632 0.6992652714252473 0.13559071719646457
decision_type=2 2 2 2 2 2 2 2 2 2 2 2 2 2 2 2 2 2 2 2 2 2
left_child=1 2 5 6 7 13 14 10 9 -4 -3 15 -7 -1 21 -5 19 -18 -8 -6 -10 -2
right_child=3 4 8 11 16 12 18 -9 20 -11 -12 -13 -14 -15 -16 -17 17 -19 -20 -21 -22 -23
leaf_value=-0.0008235340106074135 -0.0014640857551775572 0.00045142109923271268 -0.00020625091905216261 -0.0003233428244575908 0.00030798976160407386 -9.7322422137045264e-05 -0.002443567388607213 0.00086950995847170768 0.00021958045371854907 0.00036058958662854817 -0.00018282005743400096 -0.001584795947432448 -0.0006329876186600352 -0.00027021530140883227 -0.0029235739882071134 -0.0010958954004985327 0.00039244481838841057 0.0013940909690684706 -0.00028158340622853249 0.0011027522309694556 0.0004993839360995393 -0.0022851233114311842
leaf_weight=45897 18219 74299 83447 54667 5842 203778 773 33269 73732 56439 31724 7715 33178 40670 4250 10004 24109 5169 6031 44765 86738 6357
leaf_count=45897 18219 74299 83447 54667 5842 203778 773 33269 73732 56439 31724 7715 33178 40670 4250 10004 24109 5169 6031 44765 86738 6357
internal_value=-1.05103e-06 0.000115937 -4.34049e-05 -0.000915019 0.000569943 -0.000277967 -0.00161807 0.000406856 0.000208916 2.17388e-05 0.000260702 -0.000567491 -0.000172759 -0.000564765 -0.0018681 -0.000444471 0.000853016 0.000572907 -0.000543506 0.00101302 0.000371455 -0.00168095
internal_weight=951072 843056 623879 108016 219177 323523 35630 139292 300356 139886 106023 72386 236956 86567 28826 64671 79885 29278 6804 50607 160470 24576
internal_count=951072 843056 623879 108016 219177 323523 35630 139292 300356 139886 106023 72386 236956 86567 28826 64671 79885 29278 6804 50607 160470 24576
is_linear=0
shrinkage=0.02


Tree=8
num_leaves=23
num_cat=0
split_feature=34 34 31 34 30 28 12 30 12 22 12 22 34 16 1 31 31 31 30 18 22 30
split_gain=359.481 73.4581 72.296 35.2151 23.9833 23.2378 21.154 20.5293 19.4034 14.2911 13.9497 13.7484 13.281 11.9578 11.8948 11.291 10.874 10.7588 10.6283 9.53219 7.44522 5.58292
threshold=3.1070443391799931 1.8104362487792971 2.3996008634567265 5.1990206241607675 0.26144802570343023 -0.042422352358698838 -245047.23437499997 0.43422134220600134 -357150.04687499994 2.3434544801712041 -196376.18749999997 0.40527658164501196 4.3902163505554208 -0.52546721696853627 0.098257143050432219 1.4404754042625429 1.2576263546943667 5.1667110919952401 0.10448720306158067 -0.047735290601849549 1.1424897909164431 0.056512149050831802
decision_type=2 2 2 2 2 2 2 2 2 2 2 2 2 2 2 2 2 2 2 2 2 2
left_child=1 5 3 10 8 11 13 -8 20 14 18 -1 17 -7 -6 -12 -10 -4 -2 -5 -3 -21
right_child=2 4 12 19 9 6 7 -9 16 -11 15 -13 -14 -15 -16 -17 -18 -19 -20 21 -22 -23
leaf_value=-0.0044195884713130748 -0.0001254605454065743 -3.1699296028638569e-05 -0.0013420714158092169 -0.0024834798774781785 -0.00023075641327322736 -0.00043240605107026524 0.00053832225314949078 0.00024983150167619982 0.00069312157291013306 -0.00096329231790749409 -6.7212061213166026e-05 -0.0007431216606038479 -0.0025102500399970828 0.00014393957337533557 0.00064745852713480646 -0.00076067753459664513 -4.6055090136140156e-06 -0.0034259123709471859 -0.00094974814254316655 0.00040146366280866729 -0.00086947434201920426 -0.0014073898525213348
leaf_weight=578 7726 15163 12376 3926 172851 16153 160939 260894 27616 10443 26733 1682 10597 128392 6337 14788 12788 1159 40946 631 6038 12316
leaf_count=578 7726 15163 12376 3926 172851 16153 160939 260894 27616 10443 26733 1682 10597 128392 6337 14788 12788 1159 40946 631 6038 12316
internal_value=-1.03937e-06 0.0001544 -0.000973135 -0.000748667 -0.000130135 0.00028029 0.000288524 0.000360139 0.000211828 -0.000241758 -0.000589956 -0.00173522 -0.00196452 7.8828e-05 -0.000199123 -0.000316665 0.000469841 -0.0015291 -0.000820985 -0.00159069 -0.00027516 -0.00131139
internal_weight=951072 819874 131198 107066 251236 568638 566378 421833 61605 189631 90193 2260 24132 144545 179188 41521 40404 13535 48672 16873 21201 12947
internal_count=951072 819874 131198 107066 251236 568638 566378 421833 61605 189631 90193 2260 24132 144545 179188 41521 40404 13535 48672 16873 21201 12947
is_linear=0
shrinkage=0.02


Tree=9
num_leaves=23
num_cat=0
split_feature=34 31 34 34 28 22 31 12 16 17 34 22 17 12 31 31 18 17 28 12 31 34
split_gain=342.792 66.4041 62.2821 35.3046 22.4254 21.0296 19.5575 19.5641 16.4077 13.701 13.1313 12.8437 11.5154 10.5995 11.2506 10.2695 7.49997 6.93263 6.66778 6.23147 6.13553 5.42252
threshold=3.1070443391799931 2.3996008634567265 1.7864921092987063 4.8579130172729501 -0.042422352358698838 1.8123797178268435 2.2578027248382573 -463975.45312499994 -0.3836179226636886 0.7071119248867036 4.118234634399415 0.40527658164501196 0.19421172142028811 -530875.46874999988 1.4133560061454775 5.1667110919952401 -0.078258100897073732 0.087839558720588698 0.079598844051361098 -570482.68749999988 5.1667110919952401 6.010287046432496
decision_type=2 2 2 2 2 2 2 2 2 2 2 2 2 2 2 2 2 2 2 2 2 2
left_child=2 3 4 13 11 8 7 -6 19 15 20 -1 -10 17 -15 -7 -5 -2 -8 -4 -3 -18
right_child=1 10 5 16 6 9 18 -9 12 -11 -12 -13 -14 14 -16 -17 21 -19 -20 -21 -22 -23
leaf_value=-0.0043271926640145158 -0.0013746215373828903 -0.0012242307226277582 -0.00076370069206081704 -0.0023480858915523786 -3.7200590374385327e-05 -0.00062487936701108293 -0.00058493681263384887 0.00033363210954606633 -7.2081828762112936e-05 0.0012844137198250386 -0.0023472932572189817 -0.00074925366624327937 0.00026081248781823808 -0.00022186813441015974 -0.00077974871661343214 -0.0025796752385301401 -0.0010077517460192467 -0.00059026810863091863 -0.0029596612675988794 -0.00023238112133830663 -0.0030231706760586092 -0.0017492687177051516
leaf_weight=575 8968 10423 11857 3347 63887 26746 6133 487402 113857 1411 12885 1644 65238 42127 22645 1156 12570 10435 541 38807 916 6815
leaf_count=575 8968 10423 11857 3347 63887 26746 6133 487402 113857 1411 12885 1644 65238 42127 22645 1156 12570 10435 541 38807 916 6815
internal_value=-1.32793e-06 -0.000950818 0.000150532 -0.00073499 0.000269171 -0.000105613 0.000277312 0.000290476 -4.07783e-05 -0.000610288 -0.00189885 -0.001729 4.86254e-05 -0.000544143 -0.000418498 -0.000709899 -0.00143701 -0.000958207 -0.000794478 -0.000358764 -0.00137964 -0.00127398
internal_weight=950385 131131 819254 106907 560182 259072 557963 551289 229759 29313 24224 2219 179095 84175 64772 27902 22732 19403 6674 50664 11339 19385
internal_count=950385 131131 819254 106907 560182 259072 557963 551289 229759 29313 24224 2219 179095 84175 64772 27902 22732 19403 6674 50664 11339 19385
is_linear=0
shrinkage=0.02


Tree=10
num_leaves=23
num_cat=0
split_feature=1 0 23 22 0 22 0 12 22 1 22 12 22 10 0 0 32 0 18 18 21 22
split_gain=280.204 82.6587 58.297 53.4443 39.0611 29.5248 25.5811 16.3363 15.3138 13.5278 13.1166 11.7655 9.96055 9.05525 8.73034 8.68236 8.61559 8.12339 8.98383 7.56204 6.32247 6.08186
threshold=-0.068412154912948595 -2.3332866430282588 0.11803630739450456 1.8123797178268435 -3.6733820438385005 1.6297483444213869 -4.2421326637268058 -584398.40624999988 0.27924495935440069 0.080296792089939131 0.44653259217739111 -193863.92968749997 3.5760461091995244 0.10060650110244752 -2.7606614828109737 -1.4897387027740476 0.12306885421276094 -5.9155988693237296 -0.14617388695478437 -0.10013755410909651 1.4316466450691225 0.62824997305870067
decision_type=2 2 2 2 2 2 2 2 2 2 2 2 2 2 2 2 2 2 2 2 2 2
left_child=3 2 7 6 12 8 17 -2 -3 -9 -8 13 -5 -4 -12 -10 20 18 -1 -13 -6 -19
right_child=1 5 11 4 16 -7 10 9 15 -11 14 19 -14 -15 -16 -17 -18 21 -20 -21 -22 -23
leaf_value=-0.0042613353327056926 -0.00034387334186211969 -0.002826764757661397 -0.00072594497546075488 -0.0020047792929341122 -0.00026193884547030528 -0.00025887800367369306 0.0020964251457238794 0.000116899689339149 0.00027171734242919024 0.00059745680446743115 -0.00056336137565226414 -0.00068320676202696638 -0.0034144437239699596 -0.00023242412197309171 -2.6874819208862551e-05 0.00045163608313825935 -0.0017145448604974621 0.0001253838849967262 -0.0015092080397692332 -0.0001406294572837872 -0.0010280026205361967 -0.0010439317253802102
leaf_weight=606 25250 597 51576 12946 6374 34951 856 134934 260725 28607 35092 12344 2710 21857 19160 188635 5670 1802 3828 67072 16401 18392
leaf_count=606 25250 597 51576 12946 6374 34951 856 134934 260725 28607 35092 12344 2710 21857 19160 188635 5670 1802 3828 67072 16401 18392
internal_value=-1.33774e-06 0.000131484 -0.000106578 -0.000888632 -0.00144879 0.000299415 -0.000577488 0.000128097 0.000343006 0.000201587 -0.000335353 -0.000397086 -0.00225618 -0.000580438 -0.000375755 0.000347471 -0.00100058 -0.00111505 -0.00191225 -0.000226262 -0.0008181 -0.000934633
internal_weight=950385 826548 341640 123837 44101 484908 79736 188791 449957 163541 55108 152849 15656 73433 54252 449360 28445 24628 4434 79416 22775 20194
internal_count=950385 826548 341640 123837 44101 484908 79736 188791 449957 163541 55108 152849 15656 73433 54252 449360 28445 24628 4434 79416 22775 20194
is_linear=0
shrinkage=0.02


Tree=11
num_leaves=23
num_cat=0
split_feature=1 0 23 22 0 22 0 28 16 2 16 22 22 22 22 2 22 0 22 20 0 4
split_gain=269.169 79.3897 55.9983 51.3366 37.5415 28.3586 24.5767 16.745 15.1801 16.1583 14.9318 14.7152 12.396 11.9479 10.7622 10.1213 9.33751 8.21515 7.06748 7.01946 6.163 6.09899
threshold=-0.068412154912948595 -2.3332866430282588 0.11803630739450456 1.8123797178268435 -3.6228134632110591 1.6297483444213869 -4.2024841308593741 -0.042422352358698838 -0.45895464718341822 0.85015857219696056 -0.5302743911743163 0.27924495935440069 0.45367190241813665 0.31578929722309118 3.2842712402343754 0.94536474347114574 1.1490340232849123 -2.7606614828109737 3.9843155145645146 0.69063037633895885 -2.9688310623168941 -12.603650093078612
decision_type=2 2 2 2 2 2 2 2 2 2 2 2 2 2 2 2 2 2 2 2 2 2
left_child=3 2 8 6 14 11 7 -1 21 -10 -4 -3 -8 -9 -5 -13 -12 -14 19 -6 -20 -2
right_child=1 5 10 4 18 -7 12 13 9 -11 16 15 17 -15 -16 -17 -18 -19 20 -21 -22 -23
leaf_value=-0.003365584949701371 -8.3332864017613486e-05 -0.0027706990363014451 -0.0008406074009234373 -0.0018877383255629552 -0.00099616288390511976 -0.00025370118346455459 0.0020383366511615049 0.0019147117951707107 0.0004450089697138731 3.4796980092509026e-05 -0.00020443354487120107 0.00024941869986373338 -0.00054824462779207042 -0.0010263834806038185 -0.0031810021296547896 0.00044111362518993886 -0.00060977865368904067 -2.5216044045769507e-05 -0.0029022896882370075 -0.00010670529497039716 -0.0011384921817137899 -0.00071062298873040392
leaf_weight=1249 18698 597 24798 12693 18987 34951 858 538 64866 95612 97813 236321 34181 23754 3668 213039 30238 19156 1364 4685 2704 9615
leaf_count=1249 18698 597 24798 12693 18987 34951 858 538 64866 95612 97813 236321 34181 23754 3668 213039 30238 19156 1364 4685 2704 9615
internal_value=-1.33386e-06 0.000128844 -0.000104459 -0.000870983 -0.00142002 0.000293423 -0.000565995 -0.0010791 0.000125535 0.000201239 -0.000389184 0.000336146 -0.000322258 -0.00095675 -0.00218467 0.000340527 -0.000300953 -0.000362293 -0.00096511 -0.000824411 -0.00175728 -0.000299978
internal_weight=950385 826548 341640 123837 44101 484908 79736 25541 188791 160478 152849 449957 54195 24292 16361 449360 128051 53337 27740 23672 4068 28313
internal_count=950385 826548 341640 123837 44101 484908 79736 25541 188791 160478 152849 449957 54195 24292 16361 449360 128051 53337 27740 23672 4068 28313
is_linear=0
shrinkage=0.02


Tree=12
num_leaves=23
num_cat=0
split_feature=1 7 0 22 0 7 22 28 29 0 7 12 2 22 18 24 7 2 1 7 21 1
split_gain=247.683 123.183 106.125 52.9385 37.3265 32.3246 27.977 26.4442 22.5302 16.1408 15.4168 14.6482 14.2853 13.1196 13.0791 12.2076 10.2652 9.51648 8.25176 6.72373 5.97484 5.55006
threshold=-0.066931374371051774 -12.85684299468994 -2.1459367275238033 2.2094320058822636 -3.5237184762954707 -12.223318576812742 1.6754025816917422 -0.010267751291394232 0.0010717687546275558 -2.7936685085296626 -12.369569301605223 -675201.18749999988 0.63821551203727733 0.84945049881935131 -0.17709620296955106 2.5465561151504521 -11.806012153625487 0.67500782012939464 0.1072201654314995 -14.454898357391356 1.3554363250732424 -0.13587418943643567
decision_type=2 2 2 2 2 2 2 2 2 2 2 2 2 2 2 2 2 2 2 2 2 2
left_child=3 2 11 5 21 7 8 14 10 -9 -3 17 -4 -13 -1 -14 -10 -2 -8 -6 -21 -5
right_child=1 6 12 4 19 -7 18 9 16 -11 -12 13 15 -15 -16 -17 -18 -19 -20 20 -22 -23
leaf_value=-0.003257401872263609 0.00082833392793973449 0.00057380671251153366 -0.0031109360068064767 -0.0027424244530073268 -8.5322185594142316e-05 0.00080894561170237792 -0.00049031020411193697 -0.0007165003035185817 0.00022996394857240486 -6.569617263386028e-05 0.0010241860235475346 -0.00013378031357446068 0.00024208517484283388 -0.00044991101372047175 -0.0012227324358015047 -0.00030375998007288224 0.0011811215295818595 -0.00073780215287883673 0.0013004444457588263 -0.00047198295679090434 -0.0013907222901386584 -0.0016738761795691887
leaf_weight=1455 1551 93358 509 8324 2987 6102 12926 51336 70580 22183 46694 128818 315892 90165 15427 17122 4920 39905 1088 4215 11854 3362
leaf_count=1455 1551 93358 509 8324 2987 6102 12926 51336 70580 22183 46694 128818 315892 90165 15427 17122 4920 39905 1088 4215 11854 3362
internal_value=-2.63081e-06 0.000124153 -2.77571e-05 -0.000823933 -0.00154868 -0.000591954 0.000517622 -0.000687659 0.000574093 -0.00052151 0.000724711 -0.000330433 0.000208296 -0.000264409 -0.00140493 0.000213716 0.000293345 -0.000676703 -0.000343735 -0.000993632 -0.00115617 -0.00244441
internal_weight=950773 823528 593962 127245 30742 96503 229566 90401 215552 73519 140052 260439 333523 218983 16882 333014 75500 41456 14014 19056 16069 11686
internal_count=950773 823528 593962 127245 30742 96503 229566 90401 215552 73519 140052 260439 333523 218983 16882 333014 75500 41456 14014 19056 16069 11686
is_linear=0
shrinkage=0.02


Tree=13
num_leaves=23
num_cat=0
split_feature=34 7 31 34 34 2 7 34 31 32 29 18 7 31 22 7 2 29 28 34 7 28
split_gain=306.585 121.529 63.252 53.3027 30.1292 24.0283 20.7913 18.1762 17.3749 16.1626 14.1718 11.8029 11.4486 9.2729 8.73933 8.69594 12.6599 8.33805 8.23345 6.80068 6.43335 6.16985
threshold=2.9186471700668339 -12.721859455108641 2.1396541595458989 1.6763875484466555 4.2025296688079843 0.92496046423912059 -12.182195186614988 4.2921724319458017 1.5035588145256045 -0.015413391869515179 0.0016581365489400925 -0.082328479737043367 -12.369569301605223 5.1667110919952401 1.6754025816917422 -13.118554115295408 0.94536474347114574 0.0087201511487364786 -0.042422352358698838 6.010287046432496 -12.84685707092285 -0.031756995245814316
decision_type=2 2 2 2 2 2 2 2 2 2 2 2 2 2 2 2 2 2 2 2 2 2
left_child=1 3 4 5 6 9 20 13 10 -1 12 21 -3 -4 -7 16 -5 -17 -12 -13 -2 -6
right_child=2 8 7 15 11 14 -8 -9 -10 -11 18 19 -14 -15 -16 17 -18 -19 -20 -21 -22 -23
leaf_value=0.00017343564000322519 -0.0005789252015173629 0.00063278910803324319 -0.0010498235323316086 -0.00046314051304586497 -0.0033166208237656761 0.0003254261009017747 0.00076236401621237711 -0.0021269536949753746 -1.496125167483536e-05 -0.00019000711439931393 -0.001879862943761967 -0.00077905164912286679 0.0010531664952731631 -0.002891397494002967 -0.00023782767809892895 0.00012107067530539577 -9.6947202515021007e-05 -0.00057225808620519508 0.00042631195795850014 -0.0015511715029160184 -0.00013835952337194562 -0.0015506955100544539
leaf_weight=97840 58192 64948 18268 92336 1197 209877 5774 14574 15467 97877 607 25846 45753 1239 11418 38815 65241 8442 49056 6012 18005 3989
leaf_count=97840 58192 64948 18268 92336 1197 209877 5774 14574 15467 97877 607 25846 45753 1239 11418 38815 65241 8442 49056 6012 18005 3989
internal_value=-2.59193e-06 0.000154642 -0.000822462 2.32045e-05 -0.000603517 0.000153125 -0.000387648 -0.00158391 0.000618904 -7.80937e-06 0.000680662 -0.00107838 0.000807475 -0.00117263 0.000295908 -0.000240805 -0.000312169 -7.17287e-07 0.000395925 -0.000928119 -0.00047615 -0.00198036
internal_weight=950773 797677 153096 621846 119015 417012 81971 34081 175831 195717 160364 37044 110701 19507 221295 204834 157577 47257 49663 31858 76197 5186
internal_count=950773 797677 153096 621846 119015 417012 81971 34081 175831 195717 160364 37044 110701 19507 221295 204834 157577 47257 49663 31858 76197 5186
is_linear=0
shrinkage=0.02


Tree=14
num_leaves=23
num_cat=0
split_feature=34 34 16 34 34 17 17 32 11 1 17 16 33 33 18 1 17 16 10 18 28 3
split_gain=294.704 66.1309 42.8229 22.5188 19.5923 17.4739 14.3839 12.042 13.163 10.5729 10.0798 9.11252 8.56887 8.14933 7.19941 6.27537 6.12493 5.80782 5.76732 5.01508 4.77533 4.28361
threshold=2.8057442903518681 4.2025296688079843 -0.36126275360584253 1.7743704915046694 6.010287046432496 0.16670890897512439 0.16271370649337771 -0.073714941740035997 0.023744500242173675 0.087983135133981719 0.21785445511341098 -0.26660096645355219 1.1638487577438357 1.6598700284957888 -0.044386476278305047 -0.066931374371051774 0.1198168843984604 -0.66661733388900746 0.083445999771356597 1.0000000180025095e-35 -0.026017722673714157 -0.050344500690698617
decision_type=2 2 2 2 2 2 2 2 2 2 2 2 2 2 2 2 2 2 2 2 2 2
left_child=2 5 6 7 12 9 20 18 -9 13 14 -7 16 -2 -5 -14 -3 -8 -4 -6 -1 -19
right_child=1 4 3 10 19 11 17 8 -10 -11 -12 -13 15 -15 -16 -17 -18 21 -20 -21 -22 -23
leaf_value=-0.0026910570390719763 -0.00061507965591456933 -0.0010337045323228981 0.00037257779334412723 -0.0004004227155712914 -0.0026248693970769127 -0.00035521301261048465 -0.00043785677581564749 0.00036222650102981697 0.00011872199559914218 0.00044038998665225384 0.00024103631838596232 0.00036824817636093757 -0.0016616660135281341 -0.0013151048758194759 -1.0877321231973228e-07 -0.00052946285302233568 -0.00014454187706949533 -0.0004227988092946569 0.00067311667191353097 -0.0016833036041893398 -0.00067253848024327633 1.1361545427991673e-05
leaf_weight=519 75926 20212 84732 22632 4889 17445 16735 174246 184443 3396 58933 11515 14503 7626 89610 2588 3980 10103 38739 6330 14779 86892
leaf_count=519 75926 20212 84732 22632 4889 17445 16735 174246 184443 3396 58933 11515 14503 7626 89610 2588 3980 10103 38739 6330 14779 86892
internal_value=-2.55839e-06 -0.000761584 0.000160704 0.000226526 -0.00135153 -0.000493453 -0.000171809 0.00029651 0.000237295 -0.000635302 2.88123e-05 -6.40859e-05 -0.00114452 -0.000680244 -8.17315e-05 -0.00149628 -0.000891615 -9.33406e-05 0.000467705 -0.00210351 -0.00074841 -3.28491e-05
internal_weight=950773 168410 782363 653335 52502 115908 129028 482160 358689 86948 171175 28960 41283 83552 112242 17091 24192 113730 123471 11219 15298 96995
internal_count=950773 168410 782363 653335 52502 115908 129028 482160 358689 86948 171175 28960 41283 83552 112242 17091 24192 113730 123471 11219 15298 96995
is_linear=0
shrinkage=0.02


Tree=15
num_leaves=23
num_cat=0
split_feature=31 16 30 12 1 17 17 28 32 17 30 12 31 12 17 22 28 12 16 17 1 33
split_gain=227.554 74.4581 47.5326 52.5719 43.2901 40.9816 31.6573 21.8903 21.241 15.5161 14.6504 14.1066 12.1057 11.9698 11.2285 9.38004 9.28837 7.37061 6.79197 5.38324 5.05316 3.79395
threshold=1.8486371040344241 -0.41420833766460413 0.64529412984848034 -286713.95312499994 -0.11483969539403914 0.1198168843984604 0.13888185471296313 -0.01154182245954871 0.12117844447493555 0.5690397620201112 0.091373994946479811 -43129.650390624993 4.3690419197082528 -675201.18749999988 0.31694957613945013 2.7386624813079838 -0.042422352358698838 -62107.949218749993 -0.70307779312133778 0.036013189703226096 0.080296792089939131 0.52748394012451183
decision_type=2 2 2 2 2 2 2 2 2 2 2 2 2 2 2 2 2 2 2 2 2 2
left_child=1 5 3 6 7 16 -3 -2 11 12 -5 -4 -9 20 15 17 -1 -6 -15 -18 -7 -10
right_child=4 2 8 10 14 13 -8 9 21 -11 -12 -13 -14 18 -16 -17 19 -19 -20 -21 -22 -23
leaf_value=-0.0030961203505513847 -0.0026809524043492918 -0.00078841158545483406 -0.0001165038754380786 0.00076301732579517247 -0.00083616223284018604 -0.00082314481137057808 7.8698309193843879e-05 -0.001222745074124293 -0.00035779985521722457 0.00063181591269089745 0.0003675629022285945 0.00020664794992982928 -0.0024732046125024503 -0.00055355692296297902 -0.00010318127601114561 -0.0012916910032352502 -0.0014650289903380409 -0.00017923597547875707 -9.3781759863203997e-06 -0.00078457924450084165 0.00012146974161508709 -0.00088295608468639652
leaf_weight=911 6098 19713 139403 43375 20861 13653 114853 18861 12178 1463 307135 88185 3977 10482 12176 11718 7153 10804 76676 17565 2500 11651
leaf_count=911 6098 19713 139403 43375 20861 13653 114853 18861 12178 1463 307135 88185 3977 10482 12176 11718 7153 10804 76676 17565 2500 11651
internal_value=-3.03472e-06 9.43427e-05 0.000172055 0.000287759 -0.000984552 -0.000348756 -4.76088e-05 -0.00159357 -5.07835e-05 -0.0013161 0.000416795 8.27227e-06 -0.00144537 -0.000169988 -0.000649415 -0.000800388 -0.0010653 -0.000615242 -7.59988e-05 -0.000985792 -0.000670766 -0.000618898
internal_weight=951391 865433 736493 485076 85958 128940 134566 30399 251417 24301 350510 227588 22838 103311 55559 43383 25629 31665 87158 24718 16153 23829
internal_count=951391 865433 736493 485076 85958 128940 134566 30399 251417 24301 350510 227588 22838 103311 55559 43383 25629 31665 87158 24718 16153 23829
is_linear=0
shrinkage=0.02


Tree=16
num_leaves=23
num_cat=0
split_feature=34 34 34 28 12 30 30 16 33 30 12 16 32 21 12 12 28 12 16 28 30 3
split_gain=276.027 65.869 44.8952 23.903 22.6278 26.4517 20.8798 18.494 12.2991 12.5073 12.2954 11.5756 10.7161 9.5698 8.28017 7.00063 6.19542 5.86807 4.62975 4.41452 4.23809 3.84705
threshold=3.3742940425872807 2.0175188779830937 5.4178385734558114 -0.042422352358698838 -266827.64062499994 0.61269524693489086 0.35432548820972448 -0.21314024925231931 1.3103685379028323 0.10448720306158067 -427094.98437499994 -0.51175752282142628 0.13559071719646457 0.029703005217015747 -66670.101562499985 -770710.21874999988 -0.014961991459131239 -389754.87499999994 -0.51175752282142628 -0.036314709112048142 0.87137228250503551 0.0089575001038610953
decision_type=2 2 2 2 2 2 2 2 2 2 2 2 2 2 2 2 2 2 2 2 2 2
left_child=1 3 8 13 11 -6 7 15 9 -2 -11 -5 14 -1 -8 -3 21 -9 -18 -10 -21 -4
right_child=2 6 16 4 5 -7 12 17 19 10 -12 -13 -14 -15 -16 -17 18 -19 -20 20 -22 -23
leaf_value=-0.0034847301557402095 0.00015537238336545101 -0.00096015878126936855 -0.0025474285770069795 -0.00044544212582639623 0.00042174290446775976 0.00011939350091542191 -0.00036715572123285239 -1.9802870093156312e-05 -0.0025271525677817409 -0.0011851420491004372 -0.00053192486929192634 8.0872134271172937e-05 -0.00079551275041218038 -0.00079280847693926812 -2.9345813843786512e-05 -0.00013272962625164022 -0.0021138604697255241 0.00052317534469587912 -0.0012100230635334601 -0.0012297159799313331 -0.0003556444217947311 -0.0011086805936272853
leaf_weight=818 7010 5072 6224 19202 278735 199840 87818 10369 1051 16918 39789 128331 16744 1902 44353 23432 4108 29937 7501 18159 2918 1160
leaf_count=818 7010 5072 6224 19202 278735 199840 87818 10369 1051 16918 39789 128331 16744 1902 44353 23432 4108 29937 7501 18159 2918 1160
internal_value=-2.99668e-06 0.000116783 -0.000971116 0.000220663 0.000228936 0.000295701 -0.000182779 0.00010425 -0.000774356 -0.000629824 -0.000728657 1.16797e-05 -0.000316079 -0.00164397 -0.000254558 -0.000283613 -0.00185474 0.000381025 -0.00153924 -0.00118578 -0.00111356 -0.00233584
internal_weight=951391 846553 104838 628828 626108 478575 217725 68810 85845 63717 56707 147533 148915 2720 132171 28504 18993 40306 11609 22128 21077 7384
internal_count=951391 846553 104838 628828 626108 478575 217725 68810 85845 63717 56707 147533 148915 2720 132171 28504 18993 40306 11609 22128 21077 7384
is_linear=0
shrinkage=0.02


Tree=17
num_leaves=23
num_cat=0
split_feature=34 7 0 22 22 34 7 17 17 7 22 3 22 17 34 32 22 29 22 0 30 22
split_gain=265.162 119.665 92.9922 44.0236 37.0492 27.1374 21.0806 17.0572 16.0209 15.8997 15.6612 14.9323 11.8936 10.8682 10.5372 10.4549 9.85536 8.81989 6.20621 6.23874 4.61028 4.11439
threshold=3.3742940425872807 -12.875687122344969 -2.3332866430282588 2.2094320058822636 1.6297483444213869 5.4178385734558114 -12.473810672760008 0.41157068312168127 0.46634614467620855 -12.113082885742186 0.83887210488319408 0.035536998882889755 3.5760461091995244 0.087839558720588698 5.0185155868530282 -0.10898014530539511 1.9984852075576784 0.0016581365489400925 2.6227045059204106 -3.432930469512939 0.043955426663160331 4.6730720996856698
decision_type=2 2 2 2 2 2 2 2 2 2 2 2 2 2 2 2 2 2 2 2 2 2
left_child=1 2 10 5 6 9 7 -3 16 13 15 -10 -12 -2 21 -1 -4 -8 -6 -20 -7 -5
right_child=3 4 8 14 18 20 17 -9 11 -11 12 -13 -14 -15 -16 -17 -18 -19 19 -21 -22 -23
leaf_value=0.00022492301798247922 -0.00082777084155819718 0.0002327234091904433 5.4745459990302364e-05 -0.0013437941592148676 -0.00012696335003614496 8.2259236427803184e-05 0.00091240398759251579 0.00077159733404836845 0.00034974688926607046 0.0007134336531899962 -0.00050215053436826191 -0.0001257950191219576 -0.0018161865323988418 -0.00026929086598854459 -0.0024816315346248884 -0.00028029609679187007 -0.00057457108510772822 0.00051139145777789907 -0.0023174944031770645 -0.0005478326731154276 -0.0016173452921431372 -0.0027062552358526793
leaf_weight=18934 45522 85850 159655 12937 14086 552 67489 32850 174577 3516 96051 30777 2899 20978 6420 113090 10602 34708 1097 3888 13776 1137
leaf_count=18934 45522 85850 159655 12937 14086 552 67489 32850 174577 3516 96051 30777 2899 20978 6420 113090 10602 34708 1097 3888 13776 1137
internal_value=-2.96392e-06 0.000114433 -3.49751e-05 -0.000951839 0.000492511 -0.000747694 0.000565703 0.000382724 0.000159028 -0.000583032 -0.000350894 0.000277988 -0.000541749 -0.000653131 -0.00178674 -0.000207078 1.49545e-05 0.000777223 -0.000349949 -0.000959237 -0.00154488 -0.00146189
internal_weight=951391 846553 606585 104838 239968 84344 220897 118700 375611 70016 230974 205354 98950 66500 20494 132024 170257 102197 19071 4985 14328 14074
internal_count=951391 846553 606585 104838 239968 84344 220897 118700 375611 70016 230974 205354 98950 66500 20494 132024 170257 102197 19071 4985 14328 14074
is_linear=0
shrinkage=0.02


Tree=18
num_leaves=23
num_cat=0
split_feature=1 7 0 31 0 29 7 17 17 0 17 7 17 3 12 7 7 28 17 31 1 31
split_gain=207.389 101.707 87.0155 51.05 39.166 28.3288 22.9012 21.9188 19.1799 18.4636 15.0418 15.4739 13.8246 14.503 13.1325 12.9909 12.9347 12.6972 12.0471 12.0018 10.871 9.88229
threshold=-0.063902780413627611 -12.903515338897703 -2.3332866430282588 1.757962226867676 -3.9284100532531734 0.001097852655220777 -12.202533245086668 0.19421172142028811 0.44706179201602941 -2.8086644411087032 0.29680716991424566 -12.448495388031004 0.4784263819456101 0.039109500125050552 -339459.07812499994 -13.668078899383543 -12.409514904022215 -0.042422352358698838 0.41157068312168127 4.3690419197082528 0.039188368245959289 3.5611442327499394
decision_type=2 2 2 2 2 2 2 2 2 2 2 2 2 2 2 2 2 2 2 2 2 2
left_child=3 2 7 6 21 16 9 14 19 17 11 -7 -4 -14 -2 -9 18 -1 -3 -6 -18 -5
right_child=1 5 12 4 8 10 -8 15 -10 -11 -12 -13 13 -15 -16 -17 20 -19 -20 -21 -22 -23
leaf_value=-0.0027541466019325358 -0.00095118142908207873 0.00036244926262774695 2.5609807190934378e-05 -0.0017423293002448229 -0.00084559624294977542 -0.00032386526488694393 0.00090186053830003615 -0.00032266312215182516 0.00051905848372906589 2.8015277214439651e-05 0.00057129870002616109 0.00031578883333193385 0.00034185415355175448 -0.00016934934400362697 -0.00042347300782286351 0.00011608854297160156 0.00071677643443797488 -0.00063064856228269852 0.00088068877457390168 -0.0020117116108133021 0.0014066759481813507 -0.0030208763570934755
leaf_weight=1178 25892 77222 160717 13298 31992 30166 5032 69739 3662 19988 26094 30330 172367 25199 75306 43612 42816 52491 23993 4151 12220 3344
leaf_count=1178 25892 77222 160717 13298 31992 30166 5032 69739 3662 19988 26094 30330 172367 25199 75306 43612 42816 52491 23993 4151 12220 3344
internal_value=-1.39724e-06 0.000118726 -2.65197e-05 -0.000727173 -0.00118701 0.000461748 -0.000395988 -0.000345206 -0.000841844 -0.000486066 0.000169969 -1.51873e-06 0.000164041 0.000276143 -0.000559518 -0.000152973 0.000622794 -0.000679373 0.000486323 -0.00098255 0.00087189 -0.00200607
internal_weight=950809 815673 572832 135136 56447 242841 78689 214549 39805 73657 86590 60496 358283 197566 101198 113351 156251 53669 101215 36143 55036 16642
internal_count=950809 815673 572832 135136 56447 242841 78689 214549 39805 73657 86590 60496 358283 197566 101198 113351 156251 53669 101215 36143 55036 16642
is_linear=0
shrinkage=0.02


Tree=19
num_leaves=23
num_cat=0
split_feature=34 7 34 31 31 2 7 31 34 28 1 31 28 21 7 31 31 7 31 10 1 31
split_gain=250.009 105.181 69.8967 34.919 24.7122 21.7036 17.9168 15.1532 14.4724 12.0016 14.0339 13.8547 11.8436 11.9365 10.0489 9.76126 9.14855 8.59092 6.53994 5.87117 5.73827 4.8926
threshold=3.5100657939910893 -12.594141483306883 1.7743704915046694 1.487645208835602 1.7306511998176577 0.93103963136672985 -13.527195930480955 2.0869500637054448 5.4178385734558114 -0.042422352358698838 0.090986985713243498 0.57030668854713451 -0.0080423564650118334 0.055610403418540962 -13.231022357940672 1.8486371040344241 3.8994097709655766 -12.819108963012694 5.1667110919952401 0.073091998696327223 0.098257143050432219 4.3690419197082528
decision_type=2 2 2 2 2 2 2 2 2 2 2 2 2 2 2 2 2 2 2 2 2 2
left_child=1 2 5 12 9 6 -1 14 16 11 -11 -3 13 -2 -4 -7 -5 19 -9 -14 -15 -6
right_child=3 4 7 8 21 15 -8 18 -10 10 -12 -13 17 20 -16 -17 -18 -19 -20 -21 -22 -23
leaf_value=-0.0001442324421702045 -0.0032802039050981689 -0.0034671700382566712 -0.00031804304935145625 -0.0010386078459898882 -0.00021551361616449694 0.00031489066216269481 0.00020155292293086183 -0.00066502577455965456 -0.001994447941854118 0.00062118123821916981 0.0014372856896031475 0.00072706685530415569 -0.00082884018278151438 -0.00098082487521998279 -2.9583562510862516e-05 -0.00033909193199661549 -0.0021142989016615706 0.00020992105526561344 -0.0021369048655252194 -0.0001482906975348467 0.0004185604159896067 -0.0019317177267601858
leaf_weight=130432 906 600 142416 30069 9606 216871 110812 22519 11831 128312 9253 591 12961 16105 74318 9380 3789 7800 1350 8995 1157 736
leaf_count=130432 906 600 142416 30069 9606 216871 110812 22519 11831 128312 9253 591 12961 16105 74318 9380 3789 7800 1350 8995 1157 736
internal_value=-1.36583e-06 0.000105705 3.90169e-06 -0.000982812 0.000588503 0.000146593 1.41855e-05 -0.000272931 -0.00138012 0.000659048 0.000676852 -0.00130795 -0.000601847 -0.00100715 -0.000219595 0.000287329 -0.00116223 -0.000350893 -0.000752892 -0.000554681 -0.000881144 -0.000348188
internal_weight=950809 857196 708098 93613 149098 467495 241244 240603 45689 138756 137565 1191 47924 18168 216734 226251 33858 29756 23869 21956 17262 10342
internal_count=950809 857196 708098 93613 149098 467495 241244 240603 45689 138756 137565 1191 47924 18168 216734 226251 33858 29756 23869 21956 17262 10342
is_linear=0
shrinkage=0.02


Tree=20
num_leaves=23
num_cat=0
split_feature=34 34 31 16 31 22 34 23 12 31 31 12 12 34 18 19 31 31 5 31 18 26
split_gain=240.147 65.2428 33.9337 21.8676 20.964 17.9119 16.8682 15.0887 10.3014 9.73183 9.13044 9.04177 8.64773 7.21363 7.20901 7.1952 5.47063 4.81976 4.34142 4.33773 4.08579 3.38677
threshold=3.5100657939910893 2.0742965936660771 2.3996008634567265 -0.34301823377609247 1.9570934772491457 1.2424931526184084 6.010287046432496 0.048546588048338897 -196376.18749999997 5.1667110919952401 2.9286484718322758 -169638.57031249997 -484166.64062499994 5.0185155868530282 0.17420718073844912 -0.014688773080706595 3.3099309206008916 5.1667110919952401 -2.9877499341964717 1.4556367397308352 -0.06219812482595443 -0.093115508556365953
decision_type=2 2 2 2 2 2 2 2 2 2 2 2 2 2 2 2 2 2 2 2 2 2
left_child=1 3 6 11 7 12 8 18 14 21 -7 16 -5 17 -2 -9 -1 -4 -3 -10 -8 -6
right_child=2 4 13 5 9 10 20 15 19 -11 -12 -13 -14 -15 -16 -17 -18 -19 -20 -21 -22 -23
leaf_value=-0.00019442454914912993 -0.00096937809668456705 -3.5736127327173102e-05 -0.0012666266607626359 3.2249742320711758e-05 -0.0015183651150328568 7.6674174824503193e-06 -0.002650782777449177 -0.00051784043412863017 -0.00015332447307017706 -0.0023122663301485494 -0.0012372810730571105 0.00017897366164269305 0.0003281278029210614 -0.0022668680363039841 -5.9958353214356117e-05 -0.00015184785757065388 -0.0021353404152084044 -0.002784364545884396 0.00035200964661715974 -0.00067435778752911971 -0.0013879111687424008 -0.00054617724026877104
leaf_weight=61987 34457 19167 11141 44410 1658 72632 1520 27154 16930 1457 2426 37021 423997 6836 4143 111060 593 1049 27496 10969 6568 26138
leaf_count=61987 34457 19167 11141 44410 1658 72632 1520 27154 16930 1457 2426 37021 423997 6836 4143 111060 593 1049 27496 10969 6568 26138
internal_value=-1.35699e-06 0.000103578 -0.000963252 0.00020434 -0.000198556 0.000254307 -0.000768414 -0.000119176 -0.000660898 -0.000696708 -3.13189e-05 -6.72954e-05 0.00030029 -0.00172141 -0.000874379 -0.000224492 -0.000214583 -0.00140652 0.000190612 -0.000361846 -0.00163909 -0.000608027
internal_weight=950809 857196 93613 643066 214130 543465 74587 184877 66499 29253 75058 99601 468407 19026 38600 138214 62580 12190 46663 27899 8088 27796
internal_count=950809 857196 93613 643066 214130 543465 74587 184877 66499 29253 75058 99601 468407 19026 38600 138214 62580 12190 46663 27899 8088 27796
is_linear=0
shrinkage=0.02


Tree=21
num_leaves=23
num_cat=0
split_feature=1 0 23 31 0 28 31 30 16 31 0 16 31 2 18 21 30 18 0 2 0 24
split_gain=183.43 57.2127 51.3481 42.2176 28.4237 21.9058 21.9852 18.223 18.1239 18.0387 15.8005 12.1942 12.0826 11.4901 10.5291 9.77363 9.13453 8.99173 7.26293 6.05035 5.98309 3.62982
threshold=-0.066931374371051774 -2.1699079275131221 0.11015630513429643 2.3996008634567265 -3.0723222494125362 -0.042422352358698838 0.41588409245014196 0.73750510811805736 -0.31784753501415247 1.917982876300812 -2.7936685085296626 -0.5302743911743163 3.8994097709655766 0.63821551203727733 -0.12303055077791213 0.65291461348533641 0.93833976984024059 -0.15359523892402646 -4.0879273414611808 0.81281909346580516 -2.8394068479537959 3.6985569000244145
decision_type=2 2 2 2 2 2 2 2 2 2 2 2 2 2 2 2 2 2 2 2 2 2
left_child=3 2 7 5 12 17 -7 8 -2 13 -8 20 18 -3 -13 -6 -15 -1 -5 -9 -4 -17
right_child=1 9 11 4 15 6 10 19 -10 -11 -12 14 -14 16 -16 21 -18 -19 -20 -21 -22 -23
leaf_value=-0.0047103731049910978 -0.00013314923168093699 -0.0022728979582004902 -0.00089543854525444503 -0.0020850125934497284 0.00055853970833544568 0.0023589163562188938 -0.00064365476372354666 0.00024402416625397537 0.00038185729573926472 -0.00035695123283819061 -5.5630359484143917e-05 -0.00066975051578142624 -0.0027179555504087444 0.00031739655523063979 -0.00017788728969696002 -0.0011596498085815557 -0.00013397089935156175 -0.001566634776691481 -0.0010582127643221936 -0.00026850726578027498 -0.00022075099609411992 -0.00039661336275118394
leaf_weight=603 35460 683 19656 5470 2131 1086 67209 11425 115571 17660 25636 20409 5166 403163 128355 7545 18447 1346 6902 44387 7773 4453
leaf_count=603 35460 683 19656 5470 2131 1086 67209 11425 115571 17660 25636 20409 5166 403163 128355 7545 18447 1346 6902 44387 7773 4453
internal_value=1.54685e-06 0.000111028 -6.74787e-05 -0.000704069 -0.00133902 -0.000493256 -0.000448342 0.000145909 0.000260278 0.000266668 -0.00048238 -0.000318551 -0.0018799 0.000292988 -0.000246059 -0.00066014 0.000297409 -0.00260002 -0.00152093 -0.000161785 -0.000707962 -0.000885067
internal_weight=950536 822989 383036 127547 31667 95880 93931 206843 151031 439953 92845 176193 17538 422293 148764 14129 421610 1949 12372 55812 27429 11998
internal_count=950536 822989 383036 127547 31667 95880 93931 206843 151031 439953 92845 176193 17538 422293 148764 14129 421610 1949 12372 55812 27429 11998
is_linear=0
shrinkage=0.02


Tree=22
num_leaves=23
num_cat=0
split_feature=1 7 23 2 7 28 1 7 1 1 2 10 30 12 2 18 1 30 2 18 28 10
split_gain=176.204 94.768 41.3077 35.1534 33.6745 33.1433 32.5954 17.2803 14.5459 13.3563 12.303 11.6412 11.1498 10.361 9.454 9.10063 8.63485 8.59896 5.42253 5.28051 4.99759 3.23957
threshold=-0.066931374371051774 -12.949303150177 0.17998554557561877 0.93279704451560985 -11.96279191970825 -0.042422352358698838 0.00052379822591319691 -12.43558883666992 -0.1507434397935867 -0.028924094513058659 0.9784531593322755 0.021441500633955005 0.0076203166972845801 -198773.04687499997 0.76252639293670665 0.13846325129270556 0.052555905655026443 0.048371188342571265 0.96481925249099743 -0.19333540648221967 -0.010018473025411366 -0.24907699972391126
decision_type=2 2 2 2 2 2 2 2 2 2 2 2 2 2 2 2 2 2 2 2 2 2
left_child=4 3 7 6 5 19 14 15 10 20 -7 -8 -4 -14 -2 -3 -9 -10 -11 -1 -5 -6
right_child=1 2 12 9 21 8 11 16 17 18 -12 -13 13 -15 -16 -17 -18 -19 -20 -21 -22 -23
leaf_value=-0.0043776489629263025 -0.0024579463831292327 0.00047749976777789312 0.0015966409792459555 -0.00073556007806775529 0.0025695240709441946 -0.0014263059967913453 -0.00021252063058274976 0.0006904053474272706 0.00032024335451578945 0.00014035141974165852 -0.0006184938533949926 6.4359284075513192e-05 -0.00056476640038247204 8.5088289476664559e-05 -0.00055081546095003451 -0.00015952035595744737 0.0012023307480876452 -0.0005973431586135346 0.00036785803648782561 -0.0022148829528867084 -4.4853317228821973e-05 0.00092605006010907558
leaf_weight=748 1086 105238 1739 4490 803 17120 123084 55754 4142 110635 14570 119137 11752 58982 62602 9555 18363 85570 69782 2458 70790 2136
leaf_count=748 1086 105238 1739 4490 803 17120 123084 55754 4142 110635 14570 119137 11752 58982 62602 9555 18363 85570 69782 2458 70790 2136
internal_value=1.48481e-06 0.00010879 0.000423405 -3.74621e-05 -0.00069009 -0.000740543 -0.000182266 0.000579145 -0.000686366 0.000135386 -0.00105821 -7.59252e-05 1.60557e-05 -2.14995e-05 -0.000585096 0.000423601 0.00081866 -0.000553848 0.000228909 -0.00275666 -8.74242e-05 0.00141265
internal_weight=950536 822989 261383 561606 127547 124608 305909 188910 121402 255697 31690 242221 72473 70734 63688 114793 74117 89712 180417 3206 75280 2939
internal_count=950536 822989 261383 561606 127547 124608 305909 188910 121402 255697 31690 242221 72473 70734 63688 114793 74117 89712 180417 3206 75280 2939
is_linear=0
shrinkage=0.02


Tree=23
num_leaves=23
num_cat=0
split_feature=31 7 17 17 7 17 31 28 3 22 28 10 3 28 7 22 7 3 7 3 31 3
split_gain=167.115 111.454 53.5117 34.1327 27.6889 28.7351 25.8597 21.8879 16.2385 15.2057 13.4076 13.3071 11.4621 8.94882 10.3225 9.36101 8.85345 7.36017 7.06052 7.05875 6.44984 5.75967
threshold=1.7045728564262392 -12.984758853912352 0.38377690315246588 0.17875256389379504 -12.383415222167967 0.49822154641151434 3.5611442327499394 -0.013244551140815018 0.043954499065876014 0.33817541599273687 -0.0065168021246790877 0.083445999771356597 -0.039046499878168099 -0.042422352358698838 -11.872160434722899 0.62117192149162304 -13.781398296356199 -0.12925050407648084 -13.632818698883055 -0.069905497133731828 5.1667110919952401 -0.24550549685955045
decision_type=2 2 2 2 2 2 2 2 2 2 2 2 2 2 2 2 2 2 2 2 2 2
left_child=1 2 7 6 5 12 10 9 16 -1 17 -9 -3 15 -15 -6 -4 -2 -10 -12 -8 -5
right_child=3 4 8 21 13 -7 20 11 18 -11 19 -13 -14 14 -16 -17 -18 -19 -20 -21 -22 -23
leaf_value=-0.0042299387526272565 -0.0019825587014328581 -0.00021514959360799626 0.0001021970969190279 -0.0017222141120671539 -0.0030567617317426529 0.00075305362607892867 -0.0015539735746366219 -0.00032382995118013951 -0.00041999375437675081 -0.00077716171583653833 -0.00086731329283875269 -2.9326069769057343e-05 0.00023854835956466818 0.00064461553939723973 0.0012626690585821512 0.00048403992124631916 0.00035851877212330008 -0.0010260613529807186 0.00013168328090472356 -0.00034394222106931121 -0.0027091846091548415 -0.00014416694090558745
leaf_weight=533 4767 26944 159944 966 504 41406 8927 158840 27933 21685 23119 101301 123490 73505 13213 629 82621 13229 13543 20158 2954 30325
leaf_count=533 4767 26944 159944 966 504 41406 8927 158840 27933 21685 23119 101301 123490 73505 13213 629 82621 13229 13543 20158 2954 30325
internal_value=1.45032e-06 9.47296e-05 -6.64233e-05 -0.0007532 0.000421432 0.000285888 -0.000989993 -0.000261514 0.000127161 -0.000865425 -0.000821344 -0.000209535 0.000156618 0.000716247 0.000740007 -0.00100968 0.000189922 -0.00128547 -0.000237452 -0.000625911 -0.00185063 -0.000196346
internal_weight=950536 846091 566400 104445 279691 191840 73154 282359 284041 22218 61273 260141 150434 87851 86718 1133 242565 17996 41476 43277 11881 31291
internal_count=950536 846091 566400 104445 279691 191840 73154 282359 284041 22218 61273 260141 150434 87851 86718 1133 242565 17996 41476 43277 11881 31291
is_linear=0
shrinkage=0.02


Tree=24
num_leaves=23
num_cat=0
split_feature=22 7 0 0 22 29 22 0 0 2 7 7 12 32 22 0 7 5 6 12 5 22
split_gain=152.974 109.525 100.505 76.591 27.4192 21.1929 15.5422 16.2617 13.5053 12.7987 12.5307 11.6225 11.5453 10.8639 10.4457 10.239 9.35599 7.65987 7.48932 6.35177 6.23038 5.25918
threshold=1.4671440720558169 -12.809982776641844 -2.3332866430282588 -3.0180155038833614 2.7386624813079838 0.0016581365489400925 0.85300767421722423 -5.2109417915344229 -4.5600552558898917 0.92437112331390392 -11.806012153625487 -12.396721839904783 -7172.7575683593741 -0.079961832612752901 2.2094320058822636 -1.6794214844703672 -12.05997848510742 -3.8246500492095943 -6.7339000701904288 -171714.03906249997 -0.99304997920989979 3.9843155145645146
decision_type=2 2 2 2 2 2 2 2 2 2 2 2 2 2 2 2 2 2 2 2 2 2
left_child=1 2 6 4 8 11 13 -8 -2 12 20 17 -4 -1 19 -11 -10 -3 -13 -5 -7 -6
right_child=3 5 9 14 21 10 7 -9 16 15 -12 18 -14 -15 -16 -17 -18 -19 -20 -21 -22 -23
leaf_value=0.00014334262958100904 -0.0016065451416535019 8.4160513481798795e-05 4.0649405992011321e-05 -0.00038129967008305603 -0.0017528156156109507 3.7319377968124267e-05 -0.0013979898129513374 -0.00044657318615055891 -0.00082060480808342272 8.3717684505296003e-05 0.0011746252503244817 0.00022939880500628268 -0.0026306958340556147 -0.00028251872853851532 -0.00057696896442045265 0.00037546649646963068 0.0008287302959328356 0.00058108992415325947 0.00095525794712488725 3.9307831115307877e-05 0.00062135133821889313 -0.0027573578329152981
leaf_weight=29204 9951 15630 117786 21857 8440 51900 7917 93402 28679 71570 4927 6862 645 126763 27337 153222 1381 70924 48939 40851 8595 3573
leaf_count=29204 9951 15630 117786 21857 8440 51900 7917 93402 28679 71570 4927 6862 645 126763 27337 153222 1381 70924 48939 40851 8595 3573
internal_value=8.03505e-07 0.00010729 -2.94972e-05 -0.00060432 -0.00121572 0.000503101 -0.000328482 -0.000521969 -0.000959226 0.000194337 0.000202882 0.000640358 2.51459e-05 -0.000202135 -0.000249922 0.000283027 -0.000741381 0.000492519 0.000867818 -0.00010572 0.000121995 -0.00206094
internal_weight=950355 808286 600509 142069 52024 207777 257286 101319 40011 343223 65422 142355 118431 155967 90045 224792 30060 86554 55801 62708 60495 12013
internal_count=950355 808286 600509 142069 52024 207777 257286 101319 40011 343223 65422 142355 118431 155967 90045 224792 30060 86554 55801 62708 60495 12013
is_linear=0
shrinkage=0.02


Tree=25
num_leaves=23
num_cat=0
split_feature=31 0 0 23 31 28 0 16 30 21 11 16 2 31 16 20 0 21 1 30 33 32
split_gain=161.996 78.6468 66.7276 46.8163 27.5743 24.9878 17.3172 16.0266 15.2739 13.5283 12.537 11.8483 11.0119 9.99833 7.88632 7.51439 6.99 6.88475 6.25859 4.65839 4.2062 3.97279
threshold=1.4711611866950991 -3.0180155038833614 -2.2300926446914668 0.050467556342482574 3.8994097709655766 -0.042422352358698838 -5.2109417915344229 -0.41420833766460413 0.73041856288909923 0.79538995027542125 0.029645499773323539 -0.30407002568244929 0.67500782012939464 2.4777970314025883 0.0015567062073387208 0.73152893781661998 -1.5174624919891355 0.89124903082847606 0.087983135133981719 0.16776795685291293 0.27093531191349035 0.089689388871192946
decision_type=2 2 2 2 2 2 2 2 2 2 2 2 2 2 2 2 2 2 2 2 2 2
left_child=2 4 3 8 6 9 19 -7 11 -5 16 -1 -12 21 -14 -8 -4 -15 -10 -2 -18 -3
right_child=1 13 10 5 -6 7 15 -9 18 -11 12 -13 14 17 -16 -17 20 -19 -20 -21 -22 -23
leaf_value=-4.5274616757378981e-05 -0.0006555321190853604 -6.4382115299910889e-05 0.00028971823060095766 -0.0035461341228828669 -0.0025180323590717631 -0.00052831834265848335 -0.00099535348653445447 -0.00013652732774618891 -0.00021139809882336994 -0.00060074551815075697 -0.0026484608122443946 0.00043599295415828267 0.0002183919832425892 0.0001377925981557928 -0.000222702064196839 -0.00020093183709513768 0.00028593793459035031 -0.0007829387701023229 0.00050148210715100078 -0.0022576537423297234 0.00059146726103403947 -0.0004967969230142555
leaf_weight=26550 1058 61026 129262 1401 5732 55481 38622 173926 38544 1297 545 84184 165313 3745 17751 5807 25652 18014 5581 5465 75347 10052
leaf_count=26550 1058 61026 129262 1401 5732 55481 38622 173926 38544 1297 545 84184 165313 3745 17751 5807 25652 18014 5581 5465 75347 10052
internal_value=7.90859e-07 -0.000603401 0.000113725 -7.48716e-05 -0.00119084 -0.000254744 -0.00103934 -0.000231725 0.000194078 -0.00217093 0.000290302 0.000319703 0.000166072 -0.000243604 0.00017507 -0.000893805 0.000388922 -0.000619879 -0.000118919 -0.00201382 0.000514876 -0.000126973
internal_weight=950355 149521 800834 386964 56684 232105 50952 229407 154859 2698 413870 110734 183609 92837 183064 44429 230261 21759 44125 6523 100999 71078
internal_count=950355 149521 800834 386964 56684 232105 50952 229407 154859 2698 413870 110734 183609 92837 183064 44429 230261 21759 44125 6523 100999 71078
is_linear=0
shrinkage=0.02


Tree=26
num_leaves=23
num_cat=0
split_feature=31 0 0 31 0 12 31 3 2 0 11 0 2 2 16 24 12 14 2 21 31 10
split_gain=155.897 81.8545 50.7555 36.7471 25.543 19.4158 17.4164 14.5669 11.5681 11.4156 10.8569 11.6068 11.4887 10.4661 9.11522 6.81068 6.71669 5.55637 4.78563 3.76221 3.28759 2.36431
threshold=1.8818646073341372 -2.5030345916748042 -3.2397490739822383 0.80943304300308239 -5.2109417915344229 -255675.35937499997 3.8994097709655766 0.10588749870657922 0.67500782012939464 -5.4319920539855948 0.029645499773323539 -1.8152402639389036 0.63821551203727733 0.83905294537544262 0.0015567062073387208 3.5269633531570439 -201267.83593749997 -0.96820589900016774 0.88078272342681896 0.90646794438362133 2.4777970314025883 0.27047899365425115
decision_type=2 2 2 2 2 2 2 2 2 2 2 2 2 2 2 2 2 2 2 2 2 2
left_child=1 3 6 5 21 8 9 -6 -1 -2 11 16 -12 -7 -14 -11 -3 -4 -13 -19 -21 -5
right_child=2 10 17 4 7 13 -8 -9 -10 15 12 18 14 -15 -16 -17 -18 19 -20 20 -22 -23
leaf_value=0.00096363543349722294 -0.0024847816013545639 -6.2505177305484963e-05 -0.0010072067671150434 -0.0013387762148999352 -0.00034291184665582428 0.00047691782547455236 -0.0026079270419180805 0.00061219420273133187 -0.00025946633996493627 -0.0012379089546137036 -0.0027188787106816252 3.9193255985855786e-05 0.00018448556206236995 6.4457426321724094e-05 -0.00024937709442250449 -0.00012512039899799263 0.00026579034973215601 0 0.00045747728859707069 -0.0002821341063202521 -0.00067663350316361272 -0.00046351057930593567
leaf_weight=3192 2868 34871 6500 11256 143670 37423 4827 6608 74457 19672 554 12321 205047 73929 21200 2707 83670 8943 158172 20443 16215 1810
leaf_count=3192 2868 34871 6500 11256 143670 37423 4827 6608 74457 19672 554 12321 205047 73929 21200 2707 83670 8943 158172 20443 16215 1810
internal_value=7.52582e-07 7.96676e-05 -0.000831723 -0.000155132 -0.000374882 3.42637e-05 -0.00148735 -0.00030023 -0.00020784 -0.00126867 0.000240243 0.000321775 0.000135893 0.00020399 0.000143385 -0.00110783 0.000168374 -0.000451254 0.000427838 -0.000369713 -0.00045943 -0.0012254
internal_weight=950355 868180 82175 352345 163344 189001 30074 150278 77649 25247 515835 289034 226801 111352 226247 22379 118541 52101 170493 45601 36658 13066
internal_count=950355 868180 82175 352345 163344 189001 30074 150278 77649 25247 515835 289034 226801 111352 226247 22379 118541 52101 170493 45601 36658 13066
is_linear=0
shrinkage=0.02


Tree=27
num_leaves=23
num_cat=0
split_feature=1 7 31 17 17 7 23 7 3 31 29 7 29 2 28 7 2 7 1 17 31 7
split_gain=152.293 89.7975 42.8879 36.6243 29.6244 22.0572 21.9333 21.7965 18.5191 16.1241 16.0378 15.2655 13.8403 12.741 12.3292 9.03101 8.62362 8.12686 7.91578 7.32991 6.85645 6.42091
threshold=-0.053647687658667557 -12.636549472808836 1.4711611866950991 0.45466083288192755 0.17472026497125628 -12.496503353118895 0.17781464755535129 -13.437546253204344 0.03624249994754792 4.3690419197082528 0.0030266091926023368 -13.109228134155272 0.0036388330627232794 0.94920721650123607 -0.011194979306310414 -11.806012153625487 0.88365978002548229 -14.814490318298338 0.043765282258391387 0.7071119248867036 0.51918995380401622 -11.872160434722899
decision_type=2 2 2 2 2 2 2 2 2 2 2 2 2 2 2 2 2 2 2 2 2 2
left_child=2 3 5 10 9 13 12 8 -5 14 11 -2 18 17 -4 -14 -12 -1 -3 -6 -15 -7
right_child=1 6 4 7 19 21 -8 -9 -10 -11 16 -13 15 20 -16 -17 -18 -19 -20 -21 -22 -23
leaf_value=-0.001470999201481682 -0.00015681446548492431 0.00072391161973465199 -0.0015543145754268362 0.00015946863309487539 -0.00033324534718606215 0.00037347120243406973 0.0001316220295744863 0.00045893101093084454 -0.00032620463671221482 -0.0021340172406101045 -0.00065677832696421385 0.00016553669109360634 0.00022481831544703647 0.0013589275119755806 -0.00082763492852572478 0.0012836599368936407 -0.0002179667872833871 -0.00052803968781352402 0.0012114673817632019 0.00083990180730517203 -0.00016789064421720079 0.0017941159240571899
leaf_weight=4424 186131 60807 12303 166932 16883 10371 37661 79289 38589 5497 28805 85645 29578 1199 46221 3689 50241 27118 18248 2398 37260 1519
leaf_count=4424 186131 60807 12303 166932 16883 10371 37661 79289 38589 5497 28805 85645 29578 1199 46221 3689 50241 27118 18248 2398 37260 1519
internal_value=-3.53817e-06 0.000112425 -0.000555622 8.39757e-06 -0.000875553 -0.000228925 0.000552616 0.000177035 6.77855e-05 -0.00108284 -0.000128224 -5.48626e-05 0.000692871 -0.000365074 -0.000982227 0.000345415 -0.00037917 -0.000663679 0.000837787 -0.000181975 -0.00011752 0.00056405
internal_weight=950808 785615 165193 635632 83302 81891 149983 284810 205521 64021 350822 271776 112322 70001 58524 33267 79046 31542 79055 19281 38459 11890
internal_count=950808 785615 165193 635632 83302 81891 149983 284810 205521 64021 350822 271776 112322 70001 58524 33267 79046 31542 79055 19281 38459 11890
is_linear=0
shrinkage=0.02


Tree=28
num_leaves=23
num_cat=0
split_feature=34 34 16 22 30 22 12 22 28 12 23 12 22 30 30 30 22 22 12 26 22 30
split_gain=186.527 49.1179 28.0373 22.8155 21.6951 17.8599 15.9047 14.842 11.9125 11.4001 10.9828 9.23592 8.11048 8.00395 7.06658 6.76288 6.70341 6.55257 6.30094 5.26879 4.83042 3.8782
threshold=2.7023794651031499 4.2025296688079843 -0.36126275360584253 1.2424931526184084 0.75934696197509777 1.878545939922333 -357150.04687499994 2.2094320058822636 -0.042422352358698838 -232313.89062499997 -0.063299227505922304 -169638.57031249997 4.6730720996856698 0.93513303995132457 0.14102028310298922 0.0076203166972845801 3.2842712402343754 2.7386624813079838 -241762.78124999997 -0.099069323390722261 0.52075037360191356 0.36317305266857153
decision_type=2 2 2 2 2 2 2 2 2 2 2 2 2 2 2 2 2 2 2 2 2 2
left_child=2 5 8 4 6 10 -4 9 -1 14 21 16 19 -6 -3 -12 -10 18 -5 -7 -11 -2
right_child=1 7 3 17 13 12 -8 -9 11 20 15 -13 -14 -15 -16 -17 -18 -19 -20 -21 -22 -23
leaf_value=-0.0027043252784534006 0.00085953889783677842 -0.00039803722516416158 4.0251486929991104e-05 -0.00036926123230501313 8.8605595677973821e-05 -0.0017739601744798789 0.00036148206848440418 -0.0017310798884436571 -0.00023080640734256656 -0.0024475664361435349 0.001052053525562731 0.00010787942388508319 -0.0023091891351278183 -0.00030159295720995561 -0.0013347499100660148 -0.00034078322480649226 -0.0018553835932197346 -0.00074953835150589232 3.3088350328170084e-05 -0.0006515992242070184 -0.00041275396774289561 5.0967145705269859e-05
leaf_weight=720 3869 4208 75733 19475 89208 1941 349456 11696 78870 501 1377 43363 1472 27501 20602 92728 1044 5673 76080 22803 15603 6885
leaf_count=720 3869 4208 75733 19475 89208 1941 349456 11696 78870 501 1377 43363 1472 27501 20602 92728 1044 5673 76080 22803 15603 6885
internal_value=-3.46316e-06 -0.000576023 0.000133507 0.000186665 0.000238201 -0.000367649 0.000304502 -0.00109319 -0.000141395 -0.000908205 -0.000249532 -0.000125506 -0.000836142 -2.49195e-06 -0.00118002 -0.000319285 -0.000253396 -8.82278e-05 -4.78828e-05 -0.000744022 -0.000483005 0.000351428
internal_weight=950808 183685 767123 643126 541898 131075 425189 52610 123997 40914 104859 123277 26216 116709 24810 94105 79914 101228 95555 24744 16104 10754
internal_count=950808 183685 767123 643126 541898 131075 425189 52610 123997 40914 104859 123277 26216 116709 24810 94105 79914 101228 95555 24744 16104 10754
is_linear=0
shrinkage=0.02


Tree=29
num_leaves=23
num_cat=0
split_feature=34 7 34 34 31 7 31 2 32 23 31 17 7 12 17 17 29 7 6 32 21 17
split_gain=179.168 89.7381 47.1887 29.4899 17.8189 15.4822 14.9823 14.6558 13.7183 13.3309 11.6232 10.7303 15.719 9.96821 11.0222 9.66647 9.32649 7.7546 6.36631 6.16085 5.66488 5.1848
threshold=2.7023794651031499 -12.636549472808836 4.2025296688079843 1.5170145034790041 1.4711611866950991 -12.837747097015379 2.3261289596557622 0.94035309553146373 -0.094378933310508714 0.17781464755535129 5.1667110919952401 0.21785445511341098 -13.458873271942137 -232313.89062499997 0.079756163060665144 0.20213036239147189 0.0037841030862182383 -11.872160434722899 -5.130150079727172 0.13123790174722674 1.0000000180025095e-35 0.67885249853134166
decision_type=2 2 2 2 2 2 2 2 2 2 2 2 2 2 2 2 2 2 2 2 2 2
left_child=1 3 4 7 5 -2 13 8 -1 16 21 19 -13 14 -4 -7 18 -18 -3 -5 -15 -6
right_child=2 9 6 11 10 15 -8 -9 -10 -11 -12 12 -14 20 -16 -17 17 -19 -20 -21 -22 -23
leaf_value=0.00031632336349100187 -0.00036113049525176146 0.00043061962639033818 -0.0014064895431367063 -0.00023803667394269083 -0.00064235787295615189 6.2343367281817057e-05 -0.0016654542369004199 0.0002791541927462488 -5.5330841652362253e-05 0.0002317345167850781 -0.002461862739192086 -0.00017639698699676749 0.00030586723362567759 -0.0022528800354511651 -0.00043098913246766992 0.0011837703104783106 0.00026352934136398057 0.0012129027969187934 0.00089761072997629737 -0.00072429408259330904 -0.00037680863674377084 0.0012137931055946679
leaf_weight=51452 59867 15484 17028 100690 44316 21237 13123 162400 173444 34149 1446 83499 39934 697 6829 3640 27129 4051 62962 11929 14933 569
leaf_count=51452 59867 15484 17028 100690 44316 21237 13123 162400 173444 34149 1446 83499 39934 697 6829 3640 27129 4051 62962 11929 14933 569
internal_value=-3.4081e-06 0.000130831 -0.000564562 2.67735e-05 -0.000360298 -0.000186226 -0.00107149 0.000134304 2.92572e-05 0.000581267 -0.00067648 -0.000149229 -1.95549e-05 -0.000871377 -0.00113159 0.000230654 0.00068922 0.000390256 0.000806742 -0.000290461 -0.000467559 -0.000616467
internal_weight=950808 767123 183685 623348 131075 84744 52610 387296 224896 143775 46331 236052 123433 39487 23857 24877 109626 31180 78446 112619 15630 44885
internal_count=950808 767123 183685 623348 131075 84744 52610 387296 224896 143775 46331 236052 123433 39487 23857 24877 109626 31180 78446 112619 15630 44885
is_linear=0
shrinkage=0.02


Tree=30
num_leaves=23
num_cat=0
split_feature=34 7 34 34 17 7 22 7 34 17 17 7 17 27 22 28 12 22 34 31 16 31
split_gain=169.743 81.0542 37.114 32.1153 21.9086 28.0943 21.6776 15.6275 13.0829 11.94 10.5119 8.23462 7.73328 7.33468 6.98495 6.53869 6.19025 5.86578 5.81163 5.52064 4.44408 3.70594
threshold=3.1070443391799931 -12.949303150177 5.4178385734558114 1.4704217910766604 0.41157068312168127 -12.409514904022215 2.2094320058822636 -12.113082885742186 1.8347948193550112 0.19421172142028811 0.087839558720588698 -13.538642406463621 0.17472026497125628 1.5000000000000002 2.8853342533111577 -0.022105948068201538 -88637.027343749985 1.215822756290436 1.4796684980392458 2.9286484718322758 -0.54482030868530262 5.1667110919952401
decision_type=2 2 2 2 2 2 2 2 2 2 2 2 2 2 2 2 2 2 2 2 2 2
left_child=1 3 6 13 5 8 7 10 -3 16 -2 -11 21 19 -7 -4 -5 -17 -6 -1 -15 -8
right_child=2 4 15 9 18 14 12 -9 -10 11 -12 -13 -14 20 -16 17 -18 -19 -20 -21 -22 -23
leaf_value=2.4560611544362054e-05 -0.00062036534094316986 0.00027558436605372568 -0.0021060099752317632 -0.00050372615467757188 0.0006065497084676003 0.00062361947317023103 -0.0011891092436832752 0.00070692446871353776 -0.00015095858242894156 -0.00016988247297285386 -0.00015565187809346763 0.00017852045283904685 -8.0731019018017233e-05 -0.00021341170066527335 -0.001013226152904766 -0.0005673519237807714 -0.00019501219632978446 -0.0015170380581077079 0.0010539517745301256 -0.001444498387569424 0.00023604987878732568 -0.0023364456670486563
leaf_weight=169343 57112 73836 5383 56106 41691 75433 15401 4778 46790 99169 30536 37120 2603 9151 1007 4140 51069 9465 17576 1023 140134 1449
leaf_count=169343 57112 73836 5383 56106 41691 75433 15401 4778 46790 99169 30536 37120 2603 9151 1007 4140 51069 9465 17576 1023 140134 1449
internal_value=9.27696e-07 0.000107852 -0.000667815 -2.61842e-05 0.00040269 0.000300422 -0.000527628 -0.000398199 0.000109303 -0.000199389 -0.000459621 -7.42538e-05 -0.00113718 0.000105426 0.000600683 -0.00148819 -0.000357573 -0.00123571 0.000740994 1.51102e-05 0.000207822 -0.00129437
internal_weight=950315 819448 130867 563115 256333 197066 111879 92426 120626 243464 87648 136289 19453 319651 76440 18988 107175 13605 59267 170366 149285 16850
internal_count=950315 819448 130867 563115 256333 197066 111879 92426 120626 243464 87648 136289 19453 319651 76440 18988 107175 13605 59267 170366 149285 16850
is_linear=0
shrinkage=0.02


Tree=31
num_leaves=23
num_cat=0
split_feature=34 7 34 34 23 22 29 3 7 32 17 2 7 7 17 3 17 29 28 22 7 23
split_gain=163.062 77.8501 35.6511 30.8927 28.4092 20.827 17.393 16.1805 15.0136 11.4991 11.0701 10.4182 10.3134 10.1008 10.0911 8.08409 7.41767 7.25071 6.26308 5.62141 5.58662 5.09808
threshold=3.1070443391799931 -12.949303150177 5.4178385734558114 1.5649905800819399 0.17781464755535129 2.2094320058822636 0.0043028451036661872 0.042296499013900764 -12.113082885742186 0.076491933315992369 0.39544996619224554 0.94536474347114574 -11.806012153625487 -12.409514904022215 0.087839558720588698 -0.15253400057554242 0.17472026497125628 0.00092119831242598604 -0.022105948068201538 1.215822756290436 -13.597812652587889 -0.12741626799106595
decision_type=2 2 2 2 2 2 2 2 2 2 2 2 2 2 2 2 2 2 2 2 2 2
left_child=1 3 5 7 6 8 13 9 14 -1 17 15 -8 -3 -2 -5 -7 -6 -4 -20 -9 -10
right_child=2 4 18 11 10 16 12 20 21 -11 -12 -13 -14 -15 -16 -17 -18 -19 19 -21 -22 -23
leaf_value=0.00020473087332197344 -0.00060795912028905024 0.00051444374270758571 -0.0020639288637398739 -0.0022341979900659895 0.00010953278483448137 -0.0012686223315410614 0.00010887838276452053 -0.00034818716874070231 0.0023944388831593682 -0.00018630851278330935 0.00060139272703211763 -4.3551062770897004e-05 0.0012524491357383211 0.00088264088944970634 -0.00015253934859188923 -0.00031182767333903924 -7.9119491199923508e-05 -0.00034932212855408779 -0.00055601857346903856 -0.0014867133159119838 3.539635797868154e-05 0.0004072261332183045
leaf_weight=247531 57112 91453 5383 894 36619 16850 44397 38354 631 33971 12171 88960 3425 46343 30536 128994 2603 21925 4140 9465 24411 4147
leaf_count=247531 57112 91453 5383 894 36619 16850 44397 38354 631 33971 12171 88960 3425 46343 30536 128994 2603 21925 4140 9465 24411 4147
internal_value=8.91405e-07 0.000105693 -0.000654557 -2.56644e-05 0.000394645 -0.000517132 0.00052466 9.22421e-05 -0.000390235 0.000157183 5.19436e-05 -0.000211596 0.000192994 0.000639028 -0.000450452 -0.000325914 -0.00111466 -6.06177e-05 -0.00145866 -0.00121116 -0.000197417 0.000692801
internal_weight=950315 819448 130867 563115 256333 111879 185618 344267 92426 281502 70715 218848 47822 137796 87648 129888 19453 58544 18988 13605 62765 4778
internal_count=950315 819448 130867 563115 256333 111879 185618 344267 92426 281502 70715 218848 47822 137796 87648 129888 19453 58544 18988 13605 62765 4778
is_linear=0
shrinkage=0.02


Tree=32
num_leaves=23
num_cat=0
split_feature=34 7 34 34 7 3 17 17 7 7 7 10 17 12 33 28 3 17 30 6 7 11
split_gain=156.632 75.0231 39.6954 34.249 17.4887 17.8806 17.3566 13.2643 15.8568 12.2501 11.3816 12.6793 10.7492 7.68121 7.24778 5.9987 5.00341 4.94965 4.52842 4.3743 4.5214 4.41709
threshold=3.1070443391799931 -12.507282733917235 1.7626360654830935 5.4178385734558114 -13.136765480041502 0.04146199859678746 0.16670890897512439 0.19837439805269244 -13.458873271942137 -12.866550445556639 -12.113082885742186 0.085650999099016203 0.57280325889587413 -184423.74218749997 0.29859969019889837 -0.022105948068201538 -0.073598999530076967 0.32472790777683264 0.93833976984024059 -7.2456500530242911 -11.806012153625487 -0.030632500536739823
decision_type=2 2 2 2 2 2 2 2 2 2 2 2 2 2 2 2 2 2 2 2 2 2
left_child=1 2 4 6 5 -1 10 13 -9 -8 11 -2 -6 -4 19 -5 18 -16 -17 21 -21 -3
right_child=3 14 7 15 12 -7 9 8 -10 -11 -12 -13 -14 -15 17 16 -18 -19 -20 20 -22 -23
leaf_value=0.00011975458317943548 -0.00086193156033065549 -0.00064683545843621077 -0.00057780442879123181 -0.0020226885926913937 0.00020178220426363 -0.00025366848349259652 -0.00020689597765950071 -0.0002078189764868384 0.00031854732838168363 0.001074994900142218 0.00031686850476408376 -0.00035262601005012261 0.00059282730938125595 -0.00022849974999898212 0.00038240403881793252 -0.0015632141970046809 -0.00046892290344163762 0.00081589193204598402 -0.0001385608619581701 0.00079898750328085105 0.0016341348068828329 0.00065084201857791601
leaf_weight=283874 55040 1546 37297 5383 94444 62485 16891 66567 34842 3613 4721 31614 40894 83027 63561 9093 3348 13340 1164 31420 3129 3022
leaf_count=283874 55040 1546 37297 5383 94444 62485 16891 66567 34842 3613 4721 31614 40894 83027 63561 9093 3348 13340 1164 31420 3129 3022
internal_value=8.64824e-07 0.000103581 2.57134e-05 -0.000641529 0.000127772 5.20957e-05 -0.000506807 -0.000195549 -2.59777e-05 1.43165e-05 -0.000624832 -0.000677307 0.000320698 -0.000337625 0.00057482 -0.00142972 -0.0011871 0.00045895 -0.00141143 0.00079997 0.000877744 0.00018956
internal_weight=950315 819448 703430 130867 481697 346359 111879 221733 101409 20504 91375 86654 135338 120324 116018 18988 13605 76901 10257 39117 34549 4568
internal_count=950315 819448 703430 130867 481697 346359 111879 221733 101409 20504 91375 86654 135338 120324 116018 18988 13605 76901 10257 39117 34549 4568
is_linear=0
shrinkage=0.02


Tree=33
num_leaves=23
num_cat=0
split_feature=34 0 31 34 30 32 31 31 31 14 30 0 10 0 8 3 30 0 0 31 30 32
split_gain=158.845 49.9901 27.4693 23.2976 19.4959 17.7382 17.0767 15.6576 11.9096 8.81909 8.13085 8.64174 7.65162 7.3559 7.09308 5.80621 5.41418 5.39879 4.35999 3.91667 4.12536 3.17222
threshold=3.5595281124114995 -2.5030345916748042 1.3402921557426455 5.6881675720214853 0.29384654760360723 -0.1136542074382305 1.8486371040344241 4.3690419197082528 2.3996008634567265 -0.17995964735746381 0.93833976984024059 -1.4897387027740476 0.085650999099016203 -5.3158609867095938 0.58366698026657116 -0.13603650033473966 0.12228826805949213 -3.108195304870605 -4.1245553493499747 2.3996008634567265 0.056512149050831802 0.082856319844722762
decision_type=2 2 2 2 2 2 2 2 2 2 2 2 2 2 2 2 2 2 2 2 2 2
left_child=1 2 4 8 9 -6 10 13 12 -1 11 -3 16 -4 -12 -8 -2 -9 -14 20 -5 -17
right_child=3 6 7 19 5 -7 15 17 -10 -11 14 -13 18 -15 -16 21 -18 -19 -20 -21 -22 -23
leaf_value=9.7940110426017249e-05 -0.00010898235638020755 0.00017585666813645865 -0.0019293243999363714 0.0002672553059997295 0.00035074826768054338 -0.00022193944857878432 0.0012186251635530759 -0.00274923030739009 -0.0011817096898847324 0.00058422823646750682 -0.00027313385303680612 0.00035023863762596988 -0.00055131138794098941 -0.00041436269601473482 0.00069016708534032193 -0.00021331854830555303 -0.00080323979173076165 -0.00089131796277633682 4.5926795658769387e-06 -0.0020930418786865301 -0.0013920949559289126 -0.00079107884615442047
leaf_weight=57921 5607 299088 1359 529 24711 167852 1004 1680 14298 20436 20791 187580 9655 43661 3541 25600 32695 1327 12732 4160 10247 4715
leaf_count=57921 5607 299088 1359 529 24711 167852 1004 1680 14298 20436 20791 187580 9655 43661 3541 25600 32695 1327 12732 4160 10247 4715
internal_value=-2.84874e-06 8.05595e-05 -0.000117931 -0.00080279 -3.93818e-05 -0.000147922 0.00019748 -0.000558895 -0.000656693 0.000226072 0.000225368 0.000243278 -0.000531267 -0.000462524 -0.000128724 -0.00025432 -0.000704246 -0.00196537 -0.00023076 -0.00152912 -0.00130127 -0.000306593
internal_weight=951189 861266 318947 89923 270920 192563 542319 48027 74987 78357 511000 486668 60689 45020 24332 31319 38302 3007 22387 14936 10776 30315
internal_count=951189 861266 318947 89923 270920 192563 542319 48027 74987 78357 511000 486668 60689 45020 24332 31319 38302 3007 22387 14936 10776 30315
is_linear=0
shrinkage=0.02


Tree=34
num_leaves=23
num_cat=0
split_feature=31 0 0 16 1 17 17 17 31 32 31 31 0 1 22 28 16 16 28 31 18 0
split_gain=120.428 69.64 37.6647 30.3368 23.533 20.5208 14.4803 13.9467 10.8774 10.5974 9.69918 9.05484 8.14879 9.73575 6.24193 5.63791 5.38141 5.36696 4.43089 3.54915 2.4146 2.34008
threshold=1.8486371040344241 -2.5030345916748042 -4.0879273414611808 -0.41420833766460413 0.072202697396278395 0.21785445511341098 0.13128493726253512 0.32082170248031622 0.25417430698871618 -0.07525616884231566 2.9286484718322758 3.5611442327499394 -1.4897387027740476 0.0068016475997865209 1.0859172940254214 -0.0052072904072701922 -0.49798586964607233 -0.66661733388900746 -0.0089230700396001322 5.1667110919952401 0.18408626317977908 -5.5656464099884024
decision_type=2 2 2 2 2 2 2 2 2 2 2 2 2 2 2 2 2 2 2 2 2 2
left_child=1 3 11 6 5 -5 18 10 -3 -6 16 15 14 -14 -10 21 -4 -8 -1 -12 -17 -2
right_child=2 8 7 4 9 -7 17 -9 12 -11 19 -13 13 -15 -16 20 -18 -19 -20 -21 -22 -23
leaf_value=-0.0012652003765311823 -0.002798180365458119 -0.0022825961540225109 -0.0008941233326989459 -0.00025235331452036486 0.00093805878235608776 0.00014831896795754537 -0.0006409621723547093 2.0963416594803405e-05 0.00020629777741468057 0.00019352494206022788 -0.00093245351038025246 -0.0026459668976981888 0.00044480608131930243 0.00015753522748335359 0 -0.0011781267666766992 -0.00033782851562778752 -0.00019038777757574823 -0.00067898813927958672 -0.0018278114538701708 -0.00022122047806008333 -0.0015890588831691632
leaf_weight=8905 1176 684 9745 156856 11168 75518 14697 14605 242120 25832 15493 3028 111426 84240 76430 5133 28579 41855 15731 2345 1677 3946
leaf_count=8905 1176 684 9745 156856 11168 75518 14697 14605 242120 25832 15493 3028 111426 84240 76430 5133 28579 41855 15731 2345 1677 3946
internal_value=-2.80121e-06 6.79211e-05 -0.000717911 -0.000149336 -4.67812e-05 -0.00012171 -0.000488349 -0.00052301 0.000216032 0.000421052 -0.00066624 -0.00163271 0.000219572 0.000321646 0.000156557 -0.0013662 -0.00048199 -0.0003093 -0.000895154 -0.00105624 -0.000957492 -0.00188863
internal_weight=951189 865462 85727 350562 269374 232374 81188 70767 514900 37000 56162 14960 514216 195666 318550 11932 38324 56552 24636 17838 6810 5122
internal_count=951189 865462 85727 350562 269374 232374 81188 70767 514900 37000 56162 14960 514216 195666 318550 11932 38324 56552 24636 17838 6810 5122
is_linear=0
shrinkage=0.02


Tree=35
num_leaves=23
num_cat=0
split_feature=34 34 34 1 12 22 29 29 31 12 2 2 12 2 14 18 31 31 18 1 31 29
split_gain=148.08 41.3428 21.9509 17.0928 15.765 14.2924 11.6583 11.222 11.026 9.7344 9.52067 7.9344 7.29851 6.9875 6.60044 6.59727 5.55173 4.99131 4.43103 4.36064 4.30748 4.19506
threshold=3.5595281124114995 1.9881488680839541 5.6881675720214853 0.1072201654314995 -463975.45312499994 1.8123797178268435 0.00089809569180943083 0.18334808945655826 1.5742694735527041 -530875.46874999988 0.82289493083953869 0.95866635441780101 -201267.83593749997 0.90649786591529857 -0.87187266349792469 -0.13315195590257642 4.3690419197082528 3.8994097709655766 -0.13315195590257642 0.15685162693262103 2.6709779500961308 0.00042789640428964054
decision_type=2 2 2 2 2 2 2 2 2 2 2 2 2 2 2 2 2 2 2 2 2 2
left_child=1 4 8 5 7 9 10 14 12 -3 -6 -8 15 -9 -1 -2 -7 -10 -4 21 -20 -5
right_child=2 3 18 19 6 16 11 13 17 -11 -12 -13 -14 -15 -16 -17 -18 -19 20 -21 -22 -23
leaf_value=-0.001188799372202146 -0.0017463719824052481 -0.00044605830592954888 -0.0026527384731648367 0.00099047715664409529 0.00066136977429466482 -0.0004645673761690288 1.0269697981041341e-05 -4.7690507693586755e-05 -0.00081754351542355887 -5.0890742440793979e-05 0.00024359030341783105 0.00029652992636694807 -0.00010311405947260756 0.0012070923366475671 -0.00015065389900169719 -0.00053723844648169373 -0.0013399062456203822 -0.0016139883398877924 -0.0011507409500917274 0.0014841597038757928 -0.0020966582156960911 -0.00011660075331360557
leaf_weight=2582 2054 29437 1353 2614 23794 30828 156005 2968 27719 169085 316341 51871 17743 3926 63374 23544 3373 3927 10763 2494 2820 2574
leaf_count=2582 2054 29437 1353 2614 23794 30828 156005 2968 27719 169085 316341 51871 17743 3926 63374 23544 3373 3927 10763 2494 2820 2574
internal_value=-2.76319e-06 7.77658e-05 -0.000775128 -0.000144694 0.000164066 -0.000175691 0.000200877 -0.00011146 -0.000633255 -0.00011 0.000273119 8.21863e-05 -0.00042166 0.000652746 -0.000192898 -0.000638488 -0.000554002 -0.000919774 -0.00148027 0.000780833 -0.00135518 0.000422366
internal_weight=951189 861266 89923 240405 620861 232723 548011 72850 74987 198522 340135 207876 43341 6894 65956 25598 34201 31646 14936 7682 13583 5188
internal_count=951189 861266 89923 240405 620861 232723 548011 72850 74987 198522 340135 207876 43341 6894 65956 25598 34201 31646 14936 7682 13583 5188
is_linear=0
shrinkage=0.02


Tree=36
num_leaves=23
num_cat=0
split_feature=34 34 23 34 30 22 23 29 17 22 3 18 17 22 15 18 16 30 30 3 17 14
split_gain=144.86 27.5458 27.2222 15.919 15.2122 14.9352 14.0587 12.2254 8.0179 7.69649 7.68432 7.16674 6.78422 6.33009 5.92615 5.58048 5.51156 4.35142 3.89941 3.75177 3.39804 3.24907
threshold=3.1070443391799931 4.8579130172729501 0.11803630739450456 1.6657031774520876 0.93513303995132457 3.0618895292282109 -0.86288601160049427 0.00039651144470553851 0.11573838815093042 2.1487501859664921 0.0094274999573826807 -0.13972543925046918 0.26144461333751684 2.7386624813079838 -0.84079974889755238 -0.089336790144443498 -0.26978820562362665 0.0048866781871765861 0.039547169581055648 0.042296499013900764 0.23378924280405047 -0.16025315225124356
decision_type=2 2 2 2 2 2 2 2 2 2 2 2 2 2 2 2 2 2 2 2 2 2
left_child=2 5 4 14 6 8 10 -8 15 11 -1 -3 13 -5 -4 -2 -10 -14 -13 -16 -7 -6
right_child=1 9 3 12 21 20 7 -9 16 -11 -12 18 17 -15 19 -17 -18 -19 -20 -21 -22 -23
leaf_value=-0.0028495268033058158 -0.0010067633794302081 -0.0022148867029435334 -0.00028561643468191794 -0.00022183171886032988 0.00010639824770361396 -0.0014834480832414728 0.00033764531897829042 0.0001279482198883821 -0.00031033652859025699 -0.0017047632475918684 -0.00040724605527183203 0.00051668252514103913 0.0012003480765175366 -0.00086081675609172821 0.00017039662183882635 -0.00043388897698111532 0.0002855092643729706 -2.2585068969178108e-05 -0.00089317467906847609 -0.00018502738586907431 -4.7075854613341065e-05 -0.00040860395176864329
leaf_weight=835 8089 1749 14226 110890 6189 6561 217113 232430 16866 7834 1661 722 1182 6707 137388 58663 9694 59389 20220 12735 894 19297
leaf_count=835 8089 1749 14226 110890 6189 6561 217113 232430 16866 7834 1661 722 1182 6707 137388 58663 9694 59389 20220 12735 894 19297
internal_value=-2.2569e-06 -0.000619136 9.63891e-05 -3.94281e-05 0.000194016 -0.000457997 0.000220944 0.000229449 -0.000387611 -0.00114764 -0.00126832 -0.000950553 -0.000170589 -0.000259161 0.000102154 -0.000504878 -8.90846e-05 0 -0.000839683 0.000139575 -0.00132475 -0.000279622
internal_weight=951334 131292 820042 342517 477525 100767 452039 449543 93312 30525 2496 22691 178168 117597 164349 66752 26560 60571 20942 150123 7455 25486
internal_count=951334 131292 820042 342517 477525 100767 452039 449543 93312 30525 2496 22691 178168 117597 164349 66752 26560 60571 20942 150123 7455 25486
is_linear=0
shrinkage=0.02


Tree=37
num_leaves=23
num_cat=0
split_feature=34 34 16 30 12 17 34 22 22 22 29 17 12 30 12 30 30 12 22 2 22 3
split_gain=139.152 26.502 24.7285 21.7604 19.7877 14.4477 12.3103 11.8868 11.6711 10.1044 9.44037 9.20938 7.49173 7.20877 6.70434 8.39494 6.00792 6.46445 5.88835 5.26043 4.56289 4.4279
threshold=3.1070443391799931 4.4954326152801523 -0.33568777143955225 0.64529412984848034 -309185.62499999994 0.17875256389379504 1.5844281911849978 1.5331802368164065 1.0972772836685183 2.2094320058822636 0.0095890695229172724 0.39949302375316625 -654478.87499999988 0.93513303995132457 -617208.06249999988 0.23791039735078814 0.014106973074376585 -232313.89062499997 4.6730720996856698 0.67500782012939464 3.5760461091995244 -0.073598999530076967
decision_type=2 2 2 2 2 2 2 2 2 2 2 2 2 2 2 2 2 2 2 2 2 2
left_child=2 7 5 4 11 20 13 14 -6 16 -8 -4 19 -5 21 -16 -3 -18 -9 -7 -1 -2
right_child=1 9 3 6 8 12 10 18 -10 -11 -12 -13 -14 -15 15 -17 17 -19 -20 -21 -22 -23
leaf_value=-0.00049458280406277917 0 0.0012087600908249358 -0.00029084881926931267 0.0001767628029423633 0.0003695270734707523 0.0014333847036798711 -0.00010093768054653491 -0.00067120211848807946 9.9238042809297639e-05 -0.0016099530208605268 -0.00065791861711938138 0.00011532445662142903 1.4173975120464817e-05 -0.00024574877012518195 0.0004446772105844985 -0.0002577285832306834 -0.0011132858367912505 -0.00049952700552167756 -0.0021303104196532573 -0.00050688396594557577 -0.0017834647067314971 -0.00088628017306263121
leaf_weight=25272 2798 513 33020 108348 255233 549 79077 29544 86723 9547 14552 68753 112191 18802 8153 39151 19566 11751 1220 16304 1218 9049
leaf_count=25272 2798 513 33020 108348 255233 549 79077 29544 86723 9547 14552 68753 112191 18802 8153 39151 19566 11751 1220 16304 1218 9049
internal_value=-2.2297e-06 -0.000606835 9.44512e-05 0.000147656 0.000228399 -0.000132219 -1.41708e-05 -0.000412177 0.000301274 -0.00102732 -0.000188603 -1.54827e-05 -4.4033e-05 0.000113491 -0.000243761 -0.000134519 -0.000849204 -0.000886296 -0.000732652 -0.00043734 -0.000557945 -0.000671279
internal_weight=951334 131292 820042 664508 443729 155534 220779 89915 341956 41377 93629 101773 129044 127150 59151 47304 31830 31317 30764 16853 26490 11847
internal_count=951334 131292 820042 664508 443729 155534 220779 89915 341956 41377 93629 101773 129044 127150 59151 47304 31830 31317 30764 16853 26490 11847
is_linear=0
shrinkage=0.02


Tree=38
num_leaves=23
num_cat=0
split_feature=34 7 34 0 7 7 22 18 22 19 3 10 7 15 0 10 1 1 30 22 12 24
split_gain=133.713 68.5526 41.9456 41.7545 17.8305 15.8341 13.3596 10.3141 8.60083 8.07732 8.02251 7.9866 9.53078 7.8375 7.51111 7.30644 7.20208 6.67828 7.29713 6.67413 6.65077 6.47784
threshold=2.5403438806533818 -12.949303150177 4.118234634399415 -2.3332866430282588 -12.312904834747313 -12.409514904022215 2.2094320058822636 -0.10677526891231535 3.2842712402343754 -0.068412501364946351 0.049523001536726959 0.032617000862956054 -13.632818698883055 -0.82187971472740162 -3.2186896800994869 0.045482000336050994 0.043765282258391387 0.053571287542581565 0.021414331160485748 0.31578929722309118 -427094.98437499994 1.5580492019653323
decision_type=2 2 2 2 2 2 2 2 2 2 2 2 2 2 2 2 2 2 2 2 2 2
left_child=1 3 4 11 8 9 7 -4 15 -3 21 12 -1 -11 -10 -2 -13 18 -7 -19 -9 -5
right_child=2 5 6 10 -6 17 -8 20 14 13 -12 16 -14 -15 -16 -17 -18 19 -20 -21 -22 -23
leaf_value=-0.00060398935637364292 -0.00044622697032519506 -5.8670494862857864e-05 -0.0016669334884071582 0.00019067793443972581 0.00037032509158278613 0.0014982890708580116 -0.0015013501534381494 -0.00095902495537540352 -0.0021099341290956434 -0.00021877493578852241 -0.00023124491261791057 -0.00023662559174084387 -0.00017663738554671976 0.00039352887936328047 -0.00058190236427117185 -0.0001440495252986639 0.00018584362916384322 -0.00079560052588107018 0.00049414761673789069 0.0011068554701982023 -0.00041792596573544889 -3.6923879996867014e-05
leaf_weight=44480 72611 22262 4501 260433 15264 3156 12424 15960 1978 8777 23892 59047 40925 118547 4528 59458 21951 710 60616 15146 23629 61039
leaf_count=44480 72611 22262 4501 260433 15264 3156 12424 15960 1978 8777 23892 59047 40925 118547 4528 59458 21951 710 60616 15146 23629 61039
internal_value=-2.19495e-06 0.000124034 -0.000447312 -4.51632e-06 -0.000275189 0.000411479 -0.000914021 -0.0007461 -0.000347024 0.000288961 0.000120682 -0.000264958 -0.000400401 0.000350528 -0.00106309 -0.000310953 -0.000120895 0.000640349 0.000545523 0.00101514 -0.000638685 0.000147151
internal_weight=951334 740981 210353 511767 153839 229214 56514 44090 138575 149586 345364 166403 85405 127324 6506 132069 80998 79628 63772 15856 39589 321472
internal_count=951334 740981 210353 511767 153839 229214 56514 44090 138575 149586 345364 166403 85405 127324 6506 132069 80998 79628 63772 15856 39589 321472
is_linear=0
shrinkage=0.02


Tree=39
num_leaves=23
num_cat=0
split_feature=34 0 1 34 22 17 12 22 12 0 22 19 2 1 28 22 9 22 8 0 1 26
split_gain=121.47 41.0793 24.4217 21.8707 16.1127 15.7675 15.451 15.3432 12.5812 11.2467 11.0361 9.73657 8.34344 7.40519 6.7134 6.03543 5.54745 4.20883 4.19988 4.1647 3.33663 2.80107
threshold=3.5100657939910893 -2.1459367275238033 0.058085106313228614 6.010287046432496 1.2602869868278506 0.10350968688726427 -635555.96874999988 1.39868700504303 -169638.57031249997 -5.3158609867095938 2.519384622573853 -0.018815415911376473 0.92683345079422008 0.12947868555784228 -0.0080423564650118334 0.27924495935440069 0.19717550277709964 2.2714996337890629 0.16255350410938266 -1.6887661814689634 -0.11483969539403914 0.037876212969422347
decision_type=2 2 2 2 2 2 2 2 2 2 2 2 2 2 2 2 2 2 2 2 2 2
left_child=1 2 4 5 6 8 -1 12 14 -6 -10 15 16 -13 -2 -4 -3 -9 20 -14 -7 -5
right_child=3 7 11 21 9 18 -8 17 10 -11 -12 13 19 -15 -16 -17 -18 -19 -20 -21 -22 -23
leaf_value=-0.00049475178672855522 -0.0013586294477092949 3.58438793755153e-05 -0.0017027584507561169 -0.0016152836548754988 -0.0021583226821141753 -0.00080872368030326675 -2.0406355058353786e-05 -5.4769498454142358e-06 -0.0002256705616947309 -0.00038629514789286493 -0.0012452123485081042 0.00035291037127317828 0.00018977508448910944 0.0011392703301320679 -0.00075585595776946047 4.7049543101813172e-05 0.00031399958063929654 -0.00044345052094213726 0.00029411196505874933 0.00037540875746166406 -6.3195965873801696e-05 -0.00031654548880512528
leaf_weight=31024 12790 89791 803 10290 1491 3658 244440 50293 24022 61208 5272 35426 69593 5738 20968 32307 42843 10755 7661 180600 7977 922
leaf_count=31024 12790 89791 803 10290 1491 3658 244440 50293 24022 61208 5272 35426 69593 5738 20968 32307 42843 10755 7661 180600 7977 922
internal_value=4.70011e-07 7.53351e-05 -6.81885e-05 -0.000683635 -0.000140507 -0.00056879 -7.42003e-05 0.000208918 -0.000722036 -0.000430198 -0.00041275 0.000259713 0.000255939 0.000465078 -0.00098736 1.34187e-06 0.000126455 -8.43039e-05 -6.2801e-05 0.000324178 -0.000306425 -0.00151759
internal_weight=949872 856312 412437 93560 338163 82348 275464 443875 63052 62699 29294 74274 382827 41164 33758 33110 132634 61048 19296 250193 11635 11212
internal_count=949872 856312 412437 93560 338163 82348 275464 443875 63052 62699 29294 74274 382827 41164 33758 33110 132634 61048 19296 250193 11635 11212
is_linear=0
shrinkage=0.02


Tree=40
num_leaves=23
num_cat=0
split_feature=34 7 0 23 34 10 29 30 10 7 29 22 7 5 29 22 1 22 3 0 22 30
split_gain=116.701 74.7087 57.6112 26.7861 21.0022 13.6798 12.4624 11.6226 11.5913 9.86686 9.61951 9.558 9.20432 9.0561 8.72652 8.62447 8.93698 6.94238 5.64139 4.50172 5.98165 5.16184
threshold=3.5100657939910893 -12.875687122344969 -2.1459367275238033 0.050467556342482574 6.010287046432496 0.085650999099016203 0.0016581365489400925 0.33293695747852331 0.032617000862956054 -13.597812652587889 0.0065054609440267095 2.519384622573853 -12.182195186614988 -8.5694999694824201 0.016116901300847534 1.39868700504303 0.041445359587669379 1.3745025396347048 0.068195998668670668 -4.1245553493499747 1.4829569458961489 0.18583150953054431
decision_type=2 2 2 2 2 2 2 2 2 2 2 2 2 2 2 2 2 2 2 2 2 2
left_child=1 2 8 10 5 11 17 -8 9 -1 13 12 -2 -3 -10 16 -4 -5 -12 21 -21 -7
right_child=4 3 15 6 -6 19 7 -9 14 -11 18 -13 -14 -15 -16 -17 -18 -19 -20 20 -22 -23
leaf_value=-0.00054967475404098384 -0.00071148845436227873 0 0.000217223542861366 0.00038192177905097083 -0.0014874316156747022 0.00066783072706609495 0.00021501363327284498 -0.00047153932103242903 -5.4597043154464898e-05 -0.00021048462348741395 0.00015850158703189905 -0.001408052596367134 0.00043735870295596313 0.0007761493004242938 -0.00049880950955616496 -0.00011820980910872702 -9.5601270609514962e-05 -7.5240983419253628e-05 0.00087483540777028035 0.00035370805931313188 -0.00037969764468587659 -0.00065515583448282294
leaf_weight=72527 41852 6407 249085 76758 11212 1247 19926 19320 113128 67570 25024 7820 2875 74513 21142 47447 42324 15643 5498 9004 8774 10776
leaf_count=72527 41852 6407 249085 76758 11212 1247 19926 19320 113128 67570 25024 7820 2875 74513 21142 47447 42324 15643 5498 9004 8774 10776
